{"learner":{"attributes":{"scikit_learn":"{\"_estimator_type\": \"regressor\"}"},"feature_names":[],"feature_types":[],"gradient_booster":{"model":{"gbtree_model_param":{"num_parallel_tree":"1","num_trees":"200"},"iteration_indptr":[0,1,2,3,4,5,6,7,8,9,10,11,12,13,14,15,16,17,18,19,20,21,22,23,24,25,26,27,28,29,30,31,32,33,34,35,36,37,38,39,40,41,42,43,44,45,46,47,48,49,50,51,52,53,54,55,56,57,58,59,60,61,62,63,64,65,66,67,68,69,70,71,72,73,74,75,76,77,78,79,80,81,82,83,84,85,86,87,88,89,90,91,92,93,94,95,96,97,98,99,100,101,102,103,104,105,106,107,108,109,110,111,112,113,114,115,116,117,118,119,120,121,122,123,124,125,126,127,128,129,130,131,132,133,134,135,136,137,138,139,140,141,142,143,144,145,146,147,148,149,150,151,152,153,154,155,156,157,158,159,160,161,162,163,164,165,166,167,168,169,170,171,172,173,174,175,176,177,178,179,180,181,182,183,184,185,186,187,188,189,190,191,192,193,194,195,196,197,198,199,200],"tree_info":[0,0,0,0,0,0,0,0,0,0,0,0,0,0,0,0,0,0,0,0,0,0,0,0,0,0,0,0,0,0,0,0,0,0,0,0,0,0,0,0,0,0,0,0,0,0,0,0,0,0,0,0,0,0,0,0,0,0,0,0,0,0,0,0,0,0,0,0,0,0,0,0,0,0,0,0,0,0,0,0,0,0,0,0,0,0,0,0,0,0,0,0,0,0,0,0,0,0,0,0,0,0,0,0,0,0,0,0,0,0,0,0,0,0,0,0,0,0,0,0,0,0,0,0,0,0,0,0,0,0,0,0,0,0,0,0,0,0,0,0,0,0,0,0,0,0,0,0,0,0,0,0,0,0,0,0,0,0,0,0,0,0,0,0,0,0,0,0,0,0,0,0,0,0,0,0,0,0,0,0,0,0,0,0,0,0,0,0,0,0,0,0,0,0,0,0,0,0,0,0],"trees":[{"base_weights":[-1.1510834E-3,-8.7990475E-1,3.644049E0,-1.8641453E0,1.121503E-1,2.6551912E0,6.1744E0,-2.6297774E0,-1.4713608E0,-3.3213466E-1,9.6358585E-1,1.9986625E0,3.3982465E0,5.429841E0,8.109621E0,-3.078944E0,-2.3001096E0,-1.8210899E0,-1.1513149E0,-8.158484E-1,-9.6867956E-2,8.321833E-1,1.7452465E0,1.3559983E0,2.5157173E0,2.8918593E0,3.9929113E0,4.3324075E0,5.759603E0,7.6025043E0,1.021893E1,-1.6118196E-1,-1.4029098E-1,-1.2225584E-1,-9.559258E-2,-9.6648306E-2,-7.138618E-2,-5.8483344E-2,2.2211658E-2,-4.1651517E-2,2.9783407E-1,-1.5193135E-2,2.7738402E-2,3.61722E-2,6.296593E-2,7.718882E-4,1.0646238E-1,7.3137835E-2,-1.2895744E-1,1.2394549E-1,2.9823893E-1,1.1724051E-1,1.6788527E-1,1.7620496E-1,2.3127675E-1,1.584642E-1,2.5116923E-1,2.7736238E-1,3.562119E-1,3.817143E-1,1.3556036E-2,5.4055136E-1,2.553818E-1],"categories":[],"categories_nodes":[],"categories_segments":[],"categories_sizes":[],"default_left":[0,0,0,0,0,0,0,0,0,0,0,0,0,0,0,0,0,0,0,0,0,0,0,0,0,0,0,0,0,0,0,0,0,0,0,0,0,0,0,0,0,0,0,0,0,0,0,0,0,0,0,0,0,0,0,0,0,0,0,0,0,0,0],"id":0,"left_children":[1,3,5,7,9,11,13,15,17,19,21,23,25,27,29,31,33,35,37,39,41,43,45,47,49,51,53,55,57,59,61,-1,-1,-1,-1,-1,-1,-1,-1,-1,-1,-1,-1,-1,-1,-1,-1,-1,-1,-1,-1,-1,-1,-1,-1,-1,-1,-1,-1,-1,-1,-1,-1],"loss_changes":[5.7090945E4,1.4022763E4,8.645195E3,2.1636738E3,2.70622E3,1.2078691E3,1.3551523E3,3.5413086E2,5.3117285E2,5.348117E2,2.5024292E2,4.3648926E2,3.391836E2,2.2916992E2,2.0720117E2,3.109668E1,7.444141E1,9.7066895E1,7.356201E1,1.8341943E2,4.2692032E2,9.6520996E1,2.3356812E2,2.5278625E2,7.742529E1,1.5312549E2,1.4125977E2,1.1747656E2,1.154082E2,4.8401367E1,9.148193E1,0E0,0E0,0E0,0E0,0E0,0E0,0E0,0E0,0E0,0E0,0E0,0E0,0E0,0E0,0E0,0E0,0E0,0E0,0E0,0E0,0E0,0E0,0E0,0E0,0E0,0E0,0E0,0E0,0E0,0E0,0E0,0E0],"parents":[2147483647,0,0,1,1,2,2,3,3,4,4,5,5,6,6,7,7,8,8,9,9,10,10,11,11,12,12,13,13,14,14,15,15,16,16,17,17,18,18,19,19,20,20,21,21,22,22,23,23,24,24,25,25,26,26,27,27,28,28,29,29,30,30],"right_children":[2,4,6,8,10,12,14,16,18,20,22,24,26,28,30,32,34,36,38,40,42,44,46,48,50,52,54,56,58,60,62,-1,-1,-1,-1,-1,-1,-1,-1,-1,-1,-1,-1,-1,-1,-1,-1,-1,-1,-1,-1,-1,-1,-1,-1,-1,-1,-1,-1,-1,-1,-1,-1],"split_conditions":[6.2E0,3.4E0,9.161904E0,2E0,4.875E0,7.6E0,1.2E1,1.3E0,2.7894738E0,3.5263157E0,6.383333E0,6.383333E0,7.5E0,9.1E0,1.4E1,1.2931035E0,2.3846154E0,3.2E0,5.510638E0,4.3863425E0,5.2E0,6E0,4E0,4.3863425E0,9.666667E0,2.9681644E0,6.0110974E-1,8.8E0,1.22E1,7.70664E-1,2E0,-1.6118196E-1,-1.4029098E-1,-1.2225584E-1,-9.559258E-2,-9.6648306E-2,-7.138618E-2,-5.8483344E-2,2.2211658E-2,-4.1651517E-2,2.9783407E-1,-1.5193135E-2,2.7738402E-2,3.61722E-2,6.296593E-2,7.718882E-4,1.0646238E-1,7.3137835E-2,-1.2895744E-1,1.2394549E-1,2.9823893E-1,1.1724051E-1,1.6788527E-1,1.7620496E-1,2.3127675E-1,1.584642E-1,2.5116923E-1,2.7736238E-1,3.562119E-1,3.817143E-1,1.3556036E-2,5.4055136E-1,2.553818E-1],"split_indices":[1,1,2,1,2,0,9,1,2,2,2,2,2,1,1,2,8,0,2,4,0,0,13,4,10,4,12,13,0,12,15,0,0,0,0,0,0,0,0,0,0,0,0,0,0,0,0,0,0,0,0,0,0,0,0,0,0,0,0,0,0,0,0],"split_type":[0,0,0,0,0,0,0,0,0,0,0,0,0,0,0,0,0,0,0,0,0,0,0,0,0,0,0,0,0,0,0,0,0,0,0,0,0,0,0,0,0,0,0,0,0,0,0,0,0,0,0,0,0,0,0,0,0,0,0,0,0,0,0],"sum_hessian":[1.7821E4,1.436E4,3.461E3,7.208E3,7.152E3,2.49E3,9.71E2,2.442E3,4.766E3,4.7E3,2.452E3,1.324E3,1.166E3,7.04E2,2.67E2,1.03E3,1.412E3,2.275E3,2.491E3,1.537E3,3.163E3,2.101E3,3.51E2,5.92E2,7.32E2,6.33E2,5.33E2,1.66E2,5.38E2,2.19E2,4.8E1,6.66E2,3.64E2,1.024E3,3.88E2,1.768E3,5.07E2,2.463E3,2.8E1,1.534E3,3E0,2.401E3,7.62E2,1.677E3,4.24E2,6.4E1,2.87E2,5.77E2,1.5E1,7.26E2,6E0,2.94E2,3.39E2,3.1E2,2.23E2,6.4E1,1.02E2,4.7E2,6.8E1,2.18E2,1E0,4.2E1,6E0],"tree_param":{"num_deleted":"0","num_feature":"17","num_nodes":"63","size_leaf_vector":"1"}},{"base_weights":[1.07410485E-2,-9.1524625E-1,3.1137958E0,-1.7466562E0,8.939333E-3,2.223159E0,5.889411E0,-2.4909909E0,-1.364879E0,-3.3859053E-1,8.448485E-1,1.6685166E0,3.1872985E0,5.1393385E0,7.7200465E0,-2.9306679E0,-2.1605587E0,-1.6944438E0,-1.0721935E0,-6.901075E-1,-7.2660856E-2,4.437565E-1,1.0029459E0,1.2891384E0,2.1728547E0,2.8276799E0,3.9463525E0,3.6311543E0,5.33155E0,7.1841855E0,9.838223E0,-1.5578361E-1,-1.3166074E-1,-1.2371749E-1,-9.980532E-2,-9.38227E-2,-7.188726E-2,-6.0967874E-2,-3.973162E-2,-3.652721E-2,5.4758158E-2,-1.2786435E-2,2.713109E-2,2.6000617E-2,-1.0399362E-1,4.314051E-2,9.021536E-2,4.677824E-2,8.798211E-2,3.289027E-2,1.1589246E-1,6.8269685E-2,1.473565E-1,1.5115663E-1,2.3514543E-1,1.3699552E-1,2.3312166E-1,1.752342E-1,2.7202806E-1,4.0355894E-1,3.2822314E-1,4.109778E-1,5.7239217E-1],"categories":[],"categories_nodes":[],"categories_segments":[],"categories_sizes":[],"default_left":[0,0,0,0,0,0,0,0,0,0,0,0,0,0,0,0,0,0,0,0,0,0,0,0,0,0,0,0,0,0,0,0,0,0,0,0,0,0,0,0,0,0,0,0,0,0,0,0,0,0,0,0,0,0,0,0,0,0,0,0,0,0,0],"id":1,"left_children":[1,3,5,7,9,11,13,15,17,19,21,23,25,27,29,31,33,35,37,39,41,43,45,47,49,51,53,55,57,59,61,-1,-1,-1,-1,-1,-1,-1,-1,-1,-1,-1,-1,-1,-1,-1,-1,-1,-1,-1,-1,-1,-1,-1,-1,-1,-1,-1,-1,-1,-1,-1,-1],"loss_changes":[5.103446E4,1.0510818E4,1.00770625E4,2.0425234E3,1.8825083E3,1.6476514E3,1.3197891E3,3.476504E2,4.5724414E2,4.27726E2,1.2008252E2,3.7282568E2,2.9607422E2,1.844082E2,2.5224219E2,4.8671875E1,6.67041E1,1.0153418E2,1.0196826E2,1.4305084E2,2.9375854E2,1.048439E2,1.513529E2,1.8507043E2,1.8314307E2,1.2986621E2,2.364585E2,6.2772217E1,1.0430469E2,7.3081055E1,4.723633E1,0E0,0E0,0E0,0E0,0E0,0E0,0E0,0E0,0E0,0E0,0E0,0E0,0E0,0E0,0E0,0E0,0E0,0E0,0E0,0E0,0E0,0E0,0E0,0E0,0E0,0E0,0E0,0E0,0E0,0E0,0E0,0E0],"parents":[2147483647,0,0,1,1,2,2,3,3,4,4,5,5,6,6,7,7,8,8,9,9,10,10,11,11,12,12,13,13,14,14,15,15,16,16,17,17,18,18,19,19,20,20,21,21,22,22,23,23,24,24,25,25,26,26,27,27,28,28,29,29,30,30],"right_children":[2,4,6,8,10,12,14,16,18,20,22,24,26,28,30,32,34,36,38,40,42,44,46,48,50,52,54,56,58,60,62,-1,-1,-1,-1,-1,-1,-1,-1,-1,-1,-1,-1,-1,-1,-1,-1,-1,-1,-1,-1,-1,-1,-1,-1,-1,-1,-1,-1,-1,-1,-1,-1],"split_conditions":[5.8E0,3.4E0,9.161904E0,2E0,4.9166665E0,7.071429E0,1.15E1,1.3E0,2.7894738E0,3.76E0,4.7E0,6.7E0,8.8E0,2.5E1,1.4E1,5.524862E-1,1.568421E0,2.8E0,2.5666666E1,5.4E0,5.2E0,6.768116E0,6.5128207E0,5.7619047E0,1.8666666E1,2.0333334E1,5.9010154E-1,8.2E0,1.4E0,3.224903E0,3.6333332E1,-1.5578361E-1,-1.3166074E-1,-1.2371749E-1,-9.980532E-2,-9.38227E-2,-7.188726E-2,-6.0967874E-2,-3.973162E-2,-3.652721E-2,5.4758158E-2,-1.2786435E-2,2.713109E-2,2.6000617E-2,-1.0399362E-1,4.314051E-2,9.021536E-2,4.677824E-2,8.798211E-2,3.289027E-2,1.1589246E-1,6.8269685E-2,1.473565E-1,1.5115663E-1,2.3514543E-1,1.3699552E-1,2.3312166E-1,1.752342E-1,2.7202806E-1,4.0355894E-1,3.2822314E-1,4.109778E-1,5.7239217E-1],"split_indices":[1,1,2,1,2,2,2,1,2,2,1,1,0,5,1,12,2,0,5,1,0,2,10,2,5,5,12,13,16,4,5,0,0,0,0,0,0,0,0,0,0,0,0,0,0,0,0,0,0,0,0,0,0,0,0,0,0,0,0,0,0,0,0],"split_type":[0,0,0,0,0,0,0,0,0,0,0,0,0,0,0,0,0,0,0,0,0,0,0,0,0,0,0,0,0,0,0,0,0,0,0,0,0,0,0,0,0,0,0,0,0,0,0,0,0,0,0,0,0,0,0,0,0,0,0,0,0,0,0],"sum_hessian":[1.7759E4,1.3678E4,4.081E3,7.2E3,6.478E3,3.091E3,9.9E2,2.439E3,4.761E3,4.576E3,1.902E3,1.964E3,1.127E3,7.05E2,2.85E2,1.043E3,1.396E3,2.237E3,2.524E3,1.97E3,2.606E3,5.39E2,1.363E3,1.123E3,8.41E2,7.68E2,3.59E2,8.2E1,6.23E2,2.31E2,5.4E1,6.37E2,4.06E2,4.75E2,9.21E2,1.305E3,9.32E2,1.647E3,8.77E2,1.927E3,4.3E1,2.009E3,5.97E2,5.24E2,1.5E1,1.162E3,2.01E2,6.43E2,4.8E2,7.4E1,7.67E2,5.9E1,7.09E2,1.64E2,1.95E2,4.6E1,3.6E1,3.7E1,5.86E2,9E1,1.41E2,3E1,2.4E1],"tree_param":{"num_deleted":"0","num_feature":"17","num_nodes":"63","size_leaf_vector":"1"}},{"base_weights":[6.435375E-3,-8.6505705E-1,2.9700942E0,-1.6616787E0,1.6527813E-2,2.1103165E0,5.574704E0,-2.3280883E0,-1.2877849E0,-3.8503146E-1,6.9728667E-1,1.4514878E0,2.8689718E0,4.908347E0,7.2642736E0,-2.8300507E0,-2.0479302E0,-1.6739143E0,-1.1320218E0,-7.442603E-1,-1.7584854E-1,3.1685144E-1,8.758032E-1,1.1424468E0,2.143579E0,2.3998919E0,3.4524524E0,3.728964E0,5.3053255E0,6.7318316E0,9.477686E0,-1.5713753E-1,-1.3410681E-1,-1.1604565E-1,-8.5442565E-2,-9.242333E-2,-6.894197E-2,-6.8060435E-2,-4.681223E-2,-7.960979E-2,-3.194118E-2,-1.6175678E-2,1.9817859E-2,-1.2167578E-1,1.8358229E-2,3.8602896E-2,8.449178E-2,4.248716E-2,7.7779785E-2,-1.00140326E-1,1.09480835E-1,1.0706734E-1,1.8367669E-1,8.8170834E-2,1.809189E-1,4.063087E-2,1.9364552E-1,2.778574E-1,2.2367053E-1,3.3937106E-1,1.1487871E-2,4.8649588E-1,1.0406277E-1],"categories":[],"categories_nodes":[],"categories_segments":[],"categories_sizes":[],"default_left":[0,0,0,0,0,0,0,0,0,0,0,0,0,0,0,0,0,0,0,0,0,0,0,0,0,0,0,0,0,0,0,0,0,0,0,0,0,0,0,0,0,0,0,0,0,0,0,0,0,0,0,0,0,0,0,0,0,0,0,0,0,0,0],"id":2,"left_children":[1,3,5,7,9,11,13,15,17,19,21,23,25,27,29,31,33,35,37,39,41,43,45,47,49,51,53,55,57,59,61,-1,-1,-1,-1,-1,-1,-1,-1,-1,-1,-1,-1,-1,-1,-1,-1,-1,-1,-1,-1,-1,-1,-1,-1,-1,-1,-1,-1,-1,-1,-1,-1],"loss_changes":[4.5873418E4,9.639115E3,9.025629E3,1.7931289E3,1.7815464E3,1.5128691E3,1.0901094E3,3.579453E2,2.7575293E2,3.0779456E2,1.6381909E2,3.452124E2,3.770459E2,3.168789E2,2.6574023E2,3.3771973E1,1.4984082E2,6.542529E1,1.4638574E2,1.3358038E2,2.1913135E2,1.0779263E2,1.3737268E2,1.3472583E2,1.0004004E2,2.5004785E2,1.6851953E2,7.404663E1,8.663574E1,8.087109E1,7.558008E1,0E0,0E0,0E0,0E0,0E0,0E0,0E0,0E0,0E0,0E0,0E0,0E0,0E0,0E0,0E0,0E0,0E0,0E0,0E0,0E0,0E0,0E0,0E0,0E0,0E0,0E0,0E0,0E0,0E0,0E0,0E0,0E0],"parents":[2147483647,0,0,1,1,2,2,3,3,4,4,5,5,6,6,7,7,8,8,9,9,10,10,11,11,12,12,13,13,14,14,15,15,16,16,17,17,18,18,19,19,20,20,21,21,22,22,23,23,24,24,25,25,26,26,27,27,28,28,29,29,30,30],"right_children":[2,4,6,8,10,12,14,16,18,20,22,24,26,28,30,32,34,36,38,40,42,44,46,48,50,52,54,56,58,60,62,-1,-1,-1,-1,-1,-1,-1,-1,-1,-1,-1,-1,-1,-1,-1,-1,-1,-1,-1,-1,-1,-1,-1,-1,-1,-1,-1,-1,-1,-1,-1,-1],"split_conditions":[5.8E0,3.4E0,9.2E0,2.2307692E0,4.6666665E0,6.7E0,1.2E1,1.3E0,2.4E0,3.5263157E0,4.7E0,6.9E0,8.090909E0,8.8125E0,1.4E1,5.3333335E0,1.7333334E1,1.2E0,3E0,1.5E1,5.2E0,4.360465E-1,6.383333E0,5.7222223E0,1.5333333E1,8.8E0,1.6E0,5.7222223E0,3.5333332E1,8.4E0,1.71E1,-1.5713753E-1,-1.3410681E-1,-1.1604565E-1,-8.5442565E-2,-9.242333E-2,-6.894197E-2,-6.8060435E-2,-4.681223E-2,-7.960979E-2,-3.194118E-2,-1.6175678E-2,1.9817859E-2,-1.2167578E-1,1.8358229E-2,3.8602896E-2,8.449178E-2,4.248716E-2,7.7779785E-2,-1.00140326E-1,1.09480835E-1,1.0706734E-1,1.8367669E-1,8.8170834E-2,1.809189E-1,4.063087E-2,1.9364552E-1,2.778574E-1,2.2367053E-1,3.3937106E-1,1.1487871E-2,4.8649588E-1,1.0406277E-1],"split_indices":[1,1,1,2,2,2,9,1,1,2,1,1,9,2,1,5,5,16,10,5,0,12,2,2,5,0,16,2,5,16,1,0,0,0,0,0,0,0,0,0,0,0,0,0,0,0,0,0,0,0,0,0,0,0,0,0,0,0,0,0,0,0,0],"split_type":[0,0,0,0,0,0,0,0,0,0,0,0,0,0,0,0,0,0,0,0,0,0,0,0,0,0,0,0,0,0,0,0,0,0,0,0,0,0,0,0,0,0,0,0,0,0,0,0,0,0,0,0,0,0,0,0,0,0,0,0,0,0,0],"sum_hessian":[1.7759E4,1.3724E4,4.035E3,7.209E3,6.515E3,3.035E3,1E3,2.589E3,4.62E3,4.098E3,2.417E3,1.626E3,1.409E3,7.2E2,2.8E2,9.24E2,1.665E3,1.325E3,3.295E3,1.507E3,2.591E3,7.73E2,1.644E3,1.126E3,5E2,7.84E2,6.25E2,1.84E2,5.36E2,2.29E2,5.1E1,2.9E2,6.34E2,9.19E2,7.46E2,8.29E2,4.96E2,1.515E3,1.78E3,1.65E2,1.342E3,2.06E3,5.31E2,1.3E1,7.6E2,1.46E3,1.84E2,6.61E2,4.65E2,5E0,4.95E2,6.54E2,1.3E2,5.7E1,5.68E2,9E0,1.75E2,4.07E2,1.29E2,2.27E2,2E0,4.9E1,2E0],"tree_param":{"num_deleted":"0","num_feature":"17","num_nodes":"63","size_leaf_vector":"1"}},{"base_weights":[-1.0947535E-2,-8.8110983E-1,2.6527011E0,-1.5628291E0,-1.2891517E-2,1.8311368E0,5.143582E0,-2.2628605E0,-1.2276927E0,-4.4338027E-1,4.409256E-1,1.2232982E0,2.4641256E0,4.408995E0,6.7104063E0,-2.648352E0,-1.9750171E0,-1.5248703E0,-9.535728E-1,-4.7788125E-1,8.676364E-1,1.5620656E-1,6.85173E-1,6.7741853E-1,1.5619516E0,2.080166E0,3.0641067E0,3.545566E0,4.8635044E0,6.2962575E0,8.920971E0,-1.4420661E-1,-1.24841325E-1,-1.00660264E-1,-4.288707E-2,-8.714609E-2,-6.859009E-2,-5.5555303E-2,-3.006708E-2,-2.5204105E-2,6.74166E-2,2.8287742E-2,1.9172351E-1,-5.564516E-3,1.9415446E-2,2.7758813E-2,7.0047796E-2,1.412925E-2,5.164024E-2,2.4012549E-2,8.307179E-2,6.79909E-2,1.107252E-1,1.562079E-1,-2.8957805E-2,1.9195938E-1,8.632678E-2,2.4451254E-1,9.505092E-2,2.7421874E-1,3.330847E-1,4.8496747E-1,6.600902E-2],"categories":[],"categories_nodes":[],"categories_segments":[],"categories_sizes":[],"default_left":[0,0,0,0,0,0,0,0,0,0,0,0,0,0,0,0,0,0,0,0,0,0,0,0,0,0,0,0,0,0,0,0,0,0,0,0,0,0,0,0,0,0,0,0,0,0,0,0,0,0,0,0,0,0,0,0,0,0,0,0,0,0,0],"id":3,"left_children":[1,3,5,7,9,11,13,15,17,19,21,23,25,27,29,31,33,35,37,39,41,43,45,47,49,51,53,55,57,59,61,-1,-1,-1,-1,-1,-1,-1,-1,-1,-1,-1,-1,-1,-1,-1,-1,-1,-1,-1,-1,-1,-1,-1,-1,-1,-1,-1,-1,-1,-1,-1,-1],"loss_changes":[4.1275344E4,7.9446445E3,8.96343E3,1.760873E3,1.1538153E3,1.2659238E3,1.2204062E3,2.6427637E2,4.1269678E2,1.3747192E2,1.9974176E2,3.1021387E2,3.651582E2,2.734961E2,2.5815723E2,2.9309082E1,5.7591797E1,7.870361E1,1.4614868E2,1.4193927E2,6.724994E1,8.2584076E1,1.4297406E2,9.036258E1,1.1079663E2,9.2240234E1,1.3945898E2,1.3168237E2,2.8375E1,4.947754E1,2.9374023E2,0E0,0E0,0E0,0E0,0E0,0E0,0E0,0E0,0E0,0E0,0E0,0E0,0E0,0E0,0E0,0E0,0E0,0E0,0E0,0E0,0E0,0E0,0E0,0E0,0E0,0E0,0E0,0E0,0E0,0E0,0E0,0E0],"parents":[2147483647,0,0,1,1,2,2,3,3,4,4,5,5,6,6,7,7,8,8,9,9,10,10,11,11,12,12,13,13,14,14,15,15,16,16,17,17,18,18,19,19,20,20,21,21,22,22,23,23,24,24,25,25,26,26,27,27,28,28,29,29,30,30],"right_children":[2,4,6,8,10,12,14,16,18,20,22,24,26,28,30,32,34,36,38,40,42,44,46,48,50,52,54,56,58,60,62,-1,-1,-1,-1,-1,-1,-1,-1,-1,-1,-1,-1,-1,-1,-1,-1,-1,-1,-1,-1,-1,-1,-1,-1,-1,-1,-1,-1,-1,-1,-1,-1],"split_conditions":[5.6E0,3.5E0,9E0,2E0,4.1666665E0,6.8E0,1.08E1,1.3E0,2.7777777E0,6.4E0,4.7E0,5.4E0,7.785714E0,8.897436E0,1.4E1,8E-1,5.833333E-1,2.3703704E0,3.631579E0,6.5384614E-1,4.3863425E0,8.6E0,5.909091E0,6E0,4.96875E0,6.4E0,7.3660713E-1,1.04E2,4.8E0,6.018969E-1,5.2E1,-1.4420661E-1,-1.24841325E-1,-1.00660264E-1,-4.288707E-2,-8.714609E-2,-6.859009E-2,-5.5555303E-2,-3.006708E-2,-2.5204105E-2,6.74166E-2,2.8287742E-2,1.9172351E-1,-5.564516E-3,1.9415446E-2,2.7758813E-2,7.0047796E-2,1.412925E-2,5.164024E-2,2.4012549E-2,8.307179E-2,6.79909E-2,1.107252E-1,1.562079E-1,-2.8957805E-2,1.9195938E-1,8.632678E-2,2.4451254E-1,9.505092E-2,2.7421874E-1,3.330847E-1,4.8496747E-1,6.600902E-2],"split_indices":[1,1,1,1,8,1,9,1,8,0,1,9,9,9,1,0,11,9,8,11,4,13,9,0,8,0,12,7,15,12,7,0,0,0,0,0,0,0,0,0,0,0,0,0,0,0,0,0,0,0,0,0,0,0,0,0,0,0,0,0,0,0,0],"split_type":[0,0,0,0,0,0,0,0,0,0,0,0,0,0,0,0,0,0,0,0,0,0,0,0,0,0,0,0,0,0,0,0,0,0,0,0,0,0,0,0,0,0,0,0,0,0,0,0,0,0,0,0,0,0,0,0,0,0,0,0,0,0,0],"sum_hessian":[1.7806E4,1.3422E4,4.384E3,7.518E3,5.904E3,3.298E3,1.086E3,2.432E3,5.086E3,3.03E3,2.874E3,1.684E3,1.614E3,7.42E2,3.44E2,1.036E3,1.396E3,2.438E3,2.648E3,2.953E3,7.7E1,1.328E3,1.546E3,6.46E2,1.038E3,9.87E2,6.27E2,2.59E2,4.83E2,2.93E2,5.1E1,3.98E2,6.38E2,1.349E3,4.7E1,1.001E3,1.437E3,1.828E3,8.2E2,2.912E3,4.1E1,7.1E1,6E0,6.17E2,7.11E2,1.31E3,2.36E2,3.07E2,3.39E2,8.8E1,9.5E2,1.57E2,8.3E2,6.17E2,1E1,2.22E2,3.7E1,4.78E2,5E0,9.6E1,1.97E2,4.6E1,5E0],"tree_param":{"num_deleted":"0","num_feature":"17","num_nodes":"63","size_leaf_vector":"1"}},{"base_weights":[-3.2119951E-3,-8.789859E-1,2.3423252E0,-1.6300887E0,-2.5269723E-1,1.6698664E0,4.97016E0,-2.3948233E0,-1.4089389E0,-5.7238877E-1,3.3636478E-1,1.0146422E0,2.3147054E0,4.32278E0,6.563743E0,-2.6209865E0,-2.1385179E0,-2.0897505E0,-1.3023037E0,-1.3165685E0,-4.4331676E-1,-1.6652867E0,3.8416156E-1,-6.8109494E-1,1.0719875E0,1.0982548E-1,2.432089E0,3.0384321E0,4.4922733E0,7.6759267E0,5.561376E0,-1.3255721E-1,-7.61031E-2,-1.16798475E-1,-8.343456E-2,-1.0560258E-1,1.5688714E-1,-7.5117E-2,-4.8692636E-2,-9.7365156E-2,-5.9574243E-2,-2.4144983E-2,7.014608E-2,-3.4189906E-2,-1.2776081E-1,1.4409311E-2,5.2609313E-2,-5.031994E-2,1.2801792E-1,3.380143E-2,6.703892E-2,3.841519E-2,-3.0186534E-2,1.0408636E-1,1.4633198E-1,1.0296058E-1,1.994779E-1,1.6487196E-1,2.3255245E-1,3.9412388E-1,1.9945417E-1,1.7571948E-1,2.922072E-1],"categories":[],"categories_nodes":[],"categories_segments":[],"categories_sizes":[],"default_left":[0,0,0,0,0,0,0,0,0,0,0,0,0,0,0,0,0,0,0,0,0,0,0,0,0,0,0,0,0,0,0,0,0,0,0,0,0,0,0,0,0,0,0,0,0,0,0,0,0,0,0,0,0,0,0,0,0,0,0,0,0,0,0],"id":4,"left_children":[1,3,5,7,9,11,13,15,17,19,21,23,25,27,29,31,33,35,37,39,41,43,45,47,49,51,53,55,57,59,61,-1,-1,-1,-1,-1,-1,-1,-1,-1,-1,-1,-1,-1,-1,-1,-1,-1,-1,-1,-1,-1,-1,-1,-1,-1,-1,-1,-1,-1,-1,-1,-1],"loss_changes":[3.6471473E4,6.080823E3,8.520879E3,9.903379E2,1.3280474E3,1.6218857E3,9.8465625E2,7.026123E1,3.281338E2,4.3829773E2,2.3787515E2,1.864054E2,5.0080664E2,1.3841406E2,2.7036523E2,1.8580078E1,5.349585E1,7.8336426E1,2.5761523E2,5.0619873E1,2.8537585E2,4.8589264E1,1.5497482E2,6.885215E1,1.954685E2,4.6996563E1,3.1205273E2,7.034552E1,1.011084E2,6.712744E1,6.650635E1,0E0,0E0,0E0,0E0,0E0,0E0,0E0,0E0,0E0,0E0,0E0,0E0,0E0,0E0,0E0,0E0,0E0,0E0,0E0,0E0,0E0,0E0,0E0,0E0,0E0,0E0,0E0,0E0,0E0,0E0,0E0,0E0],"parents":[2147483647,0,0,1,1,2,2,3,3,4,4,5,5,6,6,7,7,8,8,9,9,10,10,11,11,12,12,13,13,14,14,15,15,16,16,17,17,18,18,19,19,20,20,21,21,22,22,23,23,24,24,25,25,26,26,27,27,28,28,29,29,30,30],"right_children":[2,4,6,8,10,12,14,16,18,20,22,24,26,28,30,32,34,36,38,40,42,44,46,48,50,52,54,56,58,60,62,-1,-1,-1,-1,-1,-1,-1,-1,-1,-1,-1,-1,-1,-1,-1,-1,-1,-1,-1,-1,-1,-1,-1,-1,-1,-1,-1,-1,-1,-1,-1,-1],"split_conditions":[5.3333335E0,3.05E0,9.161904E0,1.52E0,4.24E0,6.383333E0,1.2E1,1.1666667E1,1.0666667E1,1.6E1,1E1,1.2333333E1,1.6E1,2.5E1,5.2E1,6.272727E-1,1.3747727E0,3.7363083E0,1.8138357E0,1.56205E0,6.097561E-1,1E0,5.833333E-1,3.4E0,2.2449944E0,5.880579E-1,7.5901637E0,6.1849713E-1,2E0,7.309069E-1,5.8E1,-1.3255721E-1,-7.61031E-2,-1.16798475E-1,-8.343456E-2,-1.0560258E-1,1.5688714E-1,-7.5117E-2,-4.8692636E-2,-9.7365156E-2,-5.9574243E-2,-2.4144983E-2,7.014608E-2,-3.4189906E-2,-1.2776081E-1,1.4409311E-2,5.2609313E-2,-5.031994E-2,1.2801792E-1,3.380143E-2,6.703892E-2,3.841519E-2,-3.0186534E-2,1.0408636E-1,1.4633198E-1,1.0296058E-1,1.994779E-1,1.6487196E-1,2.3255245E-1,3.9412388E-1,1.9945417E-1,1.7571948E-1,2.922072E-1],"split_indices":[2,2,2,2,2,2,9,5,5,5,5,5,5,5,7,11,4,4,4,4,11,6,11,14,4,12,2,11,16,12,7,0,0,0,0,0,0,0,0,0,0,0,0,0,0,0,0,0,0,0,0,0,0,0,0,0,0,0,0,0,0,0,0],"split_type":[0,0,0,0,0,0,0,0,0,0,0,0,0,0,0,0,0,0,0,0,0,0,0,0,0,0,0,0,0,0,0,0,0,0,0,0,0,0,0,0,0,0,0,0,0,0,0,0,0,0,0,0,0,0,0,0,0,0,0,0,0,0,0],"sum_hessian":[1.7753E4,1.2927E4,4.826E3,5.877E3,7.05E3,3.844E3,9.82E2,1.316E3,4.561E3,4.57E3,2.48E3,1.908E3,1.936E3,7.01E2,2.81E2,6.94E2,6.22E2,6.15E2,3.946E3,6.74E2,3.896E3,5.7E1,2.423E3,6.2E1,1.846E3,9.8E1,1.838E3,8.4E1,6.17E2,1.3E2,1.51E2,6.74E2,2E1,4.35E2,1.87E2,6.13E2,2E0,2.45E3,1.496E3,1.09E2,5.65E2,3.815E3,8.1E1,2.8E1,2.9E1,2.12E3,3.03E2,5.7E1,5E0,7.48E2,1.098E3,5.1E1,4.7E1,1.079E3,7.59E2,4.3E1,4.1E1,7.5E1,5.42E2,1.22E2,8E0,2E1,1.31E2],"tree_param":{"num_deleted":"0","num_feature":"17","num_nodes":"63","size_leaf_vector":"1"}},{"base_weights":[4.545662E-3,-7.487535E-1,2.5692892E0,-1.4046943E0,3.0514019E-2,1.872357E0,4.8582788E0,-2.0446594E0,-1.093697E0,-2.4993053E-1,5.841465E-1,1.2760184E0,2.4302158E0,4.3285837E0,6.065685E0,-2.4099646E0,-1.7765954E0,-1.3195908E0,-8.2625854E-1,-5.461928E-1,-1.4119863E-2,1.9089082E-1,7.495464E-1,1.0694274E0,2.0027316E0,2.2683043E0,3.947076E0,-1.11805804E-1,4.3560243E0,6.5341773E0,4.9044733E0,-1.2970169E-1,-1.1115938E-1,-9.485369E-2,-7.359036E-2,-7.937923E-2,-5.909561E-2,-5.5897187E-2,-3.240814E-2,-8.158325E-2,-2.3863943E-2,5.6082126E-2,-3.7942484E-3,-2.2529718E-2,2.3732128E-2,3.3142824E-2,6.959694E-2,5.6737643E-2,-2.94078E-2,1.3961102E-1,8.266856E-2,1.7043166E-2,1.17129944E-1,6.488993E-2,2.0612827E-1,3.362782E-2,-4.4611637E-2,2.2372401E-1,1.7237206E-1,3.2948682E-1,3.2793086E-2,3.6331508E-1,2.1079078E-1],"categories":[],"categories_nodes":[],"categories_segments":[],"categories_sizes":[],"default_left":[0,0,0,0,0,0,0,0,0,0,0,0,0,0,0,0,0,0,0,0,0,0,0,0,0,0,0,0,0,0,0,0,0,0,0,0,0,0,0,0,0,0,0,0,0,0,0,0,0,0,0,0,0,0,0,0,0,0,0,0,0,0,0],"id":5,"left_children":[1,3,5,7,9,11,13,15,17,19,21,23,25,27,29,31,33,35,37,39,41,43,45,47,49,51,53,55,57,59,61,-1,-1,-1,-1,-1,-1,-1,-1,-1,-1,-1,-1,-1,-1,-1,-1,-1,-1,-1,-1,-1,-1,-1,-1,-1,-1,-1,-1,-1,-1,-1,-1],"loss_changes":[3.440557E4,7.0362065E3,6.439908E3,1.4849814E3,9.770956E2,1.0281475E3,5.7580664E2,2.3453125E2,3.026919E2,2.91749E2,1.3739691E2,2.2289966E2,3.8362695E2,8.120801E1,1.2185547E2,2.9196777E1,4.8756836E1,9.8427734E1,1.1894263E2,1.374729E2,1.6322072E2,1.1452643E2,8.1792725E1,1.2752075E2,8.623401E1,2.0642676E2,6.524048E1,3.6827314E0,5.427832E1,6.0271484E1,1.0809668E2,0E0,0E0,0E0,0E0,0E0,0E0,0E0,0E0,0E0,0E0,0E0,0E0,0E0,0E0,0E0,0E0,0E0,0E0,0E0,0E0,0E0,0E0,0E0,0E0,0E0,0E0,0E0,0E0,0E0,0E0,0E0,0E0],"parents":[2147483647,0,0,1,1,2,2,3,3,4,4,5,5,6,6,7,7,8,8,9,9,10,10,11,11,12,12,13,13,14,14,15,15,16,16,17,17,18,18,19,19,20,20,21,21,22,22,23,23,24,24,25,25,26,26,27,27,28,28,29,29,30,30],"right_children":[2,4,6,8,10,12,14,16,18,20,22,24,26,28,30,32,34,36,38,40,42,44,46,48,50,52,54,56,58,60,62,-1,-1,-1,-1,-1,-1,-1,-1,-1,-1,-1,-1,-1,-1,-1,-1,-1,-1,-1,-1,-1,-1,-1,-1,-1,-1,-1,-1,-1,-1,-1,-1],"split_conditions":[5.8E0,3.5E0,9.4E0,2E0,4.8333335E0,6.352941E0,1.2E1,1.3E0,3E0,4.2E0,4.4117647E-1,7.2E0,9.393939E0,5.75E0,7.7E1,8.333333E0,6.0679615E-1,2.4E0,2E1,1.2333333E1,8E-1,2.3666666E1,6.8E0,4.1472883E0,2E-1,1.7333334E1,7E0,2.7333334E1,9.9E1,2.04E1,4.4973546E-1,-1.2970169E-1,-1.1115938E-1,-9.485369E-2,-7.359036E-2,-7.937923E-2,-5.909561E-2,-5.5897187E-2,-3.240814E-2,-8.158325E-2,-2.3863943E-2,5.6082126E-2,-3.7942484E-3,-2.2529718E-2,2.3732128E-2,3.3142824E-2,6.959694E-2,5.6737643E-2,-2.94078E-2,1.3961102E-1,8.266856E-2,1.7043166E-2,1.17129944E-1,6.488993E-2,2.0612827E-1,3.362782E-2,-4.4611637E-2,2.2372401E-1,1.7237206E-1,3.2948682E-1,3.2793086E-2,3.6331508E-1,2.1079078E-1],"split_indices":[1,1,1,1,9,9,9,1,9,0,11,1,9,9,7,5,12,0,5,5,14,5,14,4,15,5,13,5,7,13,11,0,0,0,0,0,0,0,0,0,0,0,0,0,0,0,0,0,0,0,0,0,0,0,0,0,0,0,0,0,0,0,0],"split_type":[0,0,0,0,0,0,0,0,0,0,0,0,0,0,0,0,0,0,0,0,0,0,0,0,0,0,0,0,0,0,0,0,0,0,0,0,0,0,0,0,0,0,0,0,0,0,0,0,0,0,0,0,0,0,0,0,0,0,0,0,0,0,0],"sum_hessian":[1.7806E4,1.3764E4,4.042E3,7.473E3,6.291E3,3.1E3,9.42E2,2.442E3,5.031E3,4.176E3,2.115E3,1.5E3,1.6E3,6.58E2,2.84E2,1.03E3,1.412E3,2.725E3,2.306E3,1.85E3,2.326E3,6.27E2,1.488E3,1.17E3,3.3E2,1.448E3,1.52E2,4E0,6.54E2,1.99E2,8.5E1,5.12E2,5.18E2,1.008E3,4.04E2,9.21E2,1.804E3,8.72E2,1.434E3,1.09E2,1.741E3,1.19E2,2.207E3,1.92E2,4.35E2,1.313E3,1.75E2,1.126E3,4.4E1,9.9E1,2.31E2,5.4E1,1.394E3,1E1,1.42E2,2E0,2E0,5.75E2,7.9E1,1.97E2,2E0,1.7E1,6.8E1],"tree_param":{"num_deleted":"0","num_feature":"17","num_nodes":"63","size_leaf_vector":"1"}},{"base_weights":[-1.0961171E-2,-7.1229815E-1,2.544147E0,-1.3830684E0,1.0865891E-2,1.8533734E0,4.753392E0,-1.960021E0,-1.0789313E0,-3.626332E-1,4.9434534E-1,1.415119E0,2.4899976E0,4.205198E0,6.058722E0,-2.2984278E0,-1.7070783E0,-1.4478751E0,-9.3174475E-1,-4.1379496E-1,6.558609E-1,2.3278922E-1,7.2060513E-1,1.0101123E0,1.7375543E0,2.3677838E0,4.3848433E0,3.253418E0,4.422212E0,5.725635E0,7.3944683E0,-1.2423917E-1,-1.06977835E-1,-9.839164E-2,-7.78703E-2,-1.0096496E-1,-6.614327E-2,-5.0957203E-2,-3.4449916E-2,-3.5445224E-2,-1.1636957E-2,-7.738733E-2,4.1055113E-2,-1.6983201E-3,1.9181237E-2,-2.5350487E-2,3.9037686E-2,-2.1681564E-2,5.448672E-2,7.660695E-2,1.2341493E-1,3.788547E-2,1.2362363E-1,2.3062985E-1,-2.7908986E-2,1.4820147E-1,2.3457037E-1,2.3145771E-1,1.9132768E-1,3.231168E-1,2.609317E-1,2.876707E-1,4.6085095E-1],"categories":[],"categories_nodes":[],"categories_segments":[],"categories_sizes":[],"default_left":[0,0,0,0,0,0,0,0,0,0,0,0,0,0,0,0,0,0,0,0,0,0,0,0,0,0,0,0,0,0,0,0,0,0,0,0,0,0,0,0,0,0,0,0,0,0,0,0,0,0,0,0,0,0,0,0,0,0,0,0,0,0,0],"id":6,"left_children":[1,3,5,7,9,11,13,15,17,19,21,23,25,27,29,31,33,35,37,39,41,43,45,47,49,51,53,55,57,59,61,-1,-1,-1,-1,-1,-1,-1,-1,-1,-1,-1,-1,-1,-1,-1,-1,-1,-1,-1,-1,-1,-1,-1,-1,-1,-1,-1,-1,-1,-1,-1,-1],"loss_changes":[3.195105E4,6.7863794E3,5.850707E3,1.2711621E3,1.2160317E3,8.127285E2,6.2753125E2,2.1001172E2,2.5662695E2,1.9820538E2,1.7342914E2,2.2467163E2,2.6498193E2,1.184834E2,7.558887E1,2.5841309E1,5.2665527E1,9.371582E1,7.130322E1,1.930553E2,6.7469345E1,5.4889977E1,1.1657251E2,8.928253E1,1.4067041E2,1.8692432E2,8.2911255E1,3.6930054E1,4.6033203E1,4.690576E1,9.50188E1,0E0,0E0,0E0,0E0,0E0,0E0,0E0,0E0,0E0,0E0,0E0,0E0,0E0,0E0,0E0,0E0,0E0,0E0,0E0,0E0,0E0,0E0,0E0,0E0,0E0,0E0,0E0,0E0,0E0,0E0,0E0,0E0],"parents":[2147483647,0,0,1,1,2,2,3,3,4,4,5,5,6,6,7,7,8,8,9,9,10,10,11,11,12,12,13,13,14,14,15,15,16,16,17,17,18,18,19,19,20,20,21,21,22,22,23,23,24,24,25,25,26,26,27,27,28,28,29,29,30,30],"right_children":[2,4,6,8,10,12,14,16,18,20,22,24,26,28,30,32,34,36,38,40,42,44,46,48,50,52,54,56,58,60,62,-1,-1,-1,-1,-1,-1,-1,-1,-1,-1,-1,-1,-1,-1,-1,-1,-1,-1,-1,-1,-1,-1,-1,-1,-1,-1,-1,-1,-1,-1,-1,-1],"split_conditions":[5.9E0,3.4E0,9.4E0,2E0,4.4545455E0,7.071429E0,1.2E1,1.3E0,2.4915254E0,5.915493E-1,5.1666665E0,6.5E0,9.953271E0,8.565217E0,1.4E1,3.8842976E-1,1.6E0,1.4E1,2.7666666E1,3.483871E0,9.333333E0,4.4186047E-1,1.3E1,3.857143E0,5.952381E-1,2.0333334E1,7.164179E-1,6E0,3.5333332E1,3.176476E0,3.6333332E1,-1.2423917E-1,-1.06977835E-1,-9.839164E-2,-7.78703E-2,-1.0096496E-1,-6.614327E-2,-5.0957203E-2,-3.4449916E-2,-3.5445224E-2,-1.1636957E-2,-7.738733E-2,4.1055113E-2,-1.6983201E-3,1.9181237E-2,-2.5350487E-2,3.9037686E-2,-2.1681564E-2,5.448672E-2,7.660695E-2,1.2341493E-1,3.788547E-2,1.2362363E-1,2.3062985E-1,-2.7908986E-2,1.4820147E-1,2.3457037E-1,2.3145771E-1,1.9132768E-1,3.231168E-1,2.609317E-1,2.876707E-1,4.6085095E-1],"split_indices":[1,1,1,1,2,2,9,1,2,11,2,1,2,2,1,11,8,5,5,2,5,11,5,8,11,5,11,16,5,4,5,0,0,0,0,0,0,0,0,0,0,0,0,0,0,0,0,0,0,0,0,0,0,0,0,0,0,0,0,0,0,0,0],"split_type":[0,0,0,0,0,0,0,0,0,0,0,0,0,0,0,0,0,0,0,0,0,0,0,0,0,0,0,0,0,0,0,0,0,0,0,0,0,0,0,0,0,0,0,0,0,0,0,0,0,0,0,0,0,0,0,0,0,0,0,0,0,0,0],"sum_hessian":[1.7828E4,1.3989E4,3.839E3,7.257E3,6.732E3,2.926E3,9.13E2,2.503E3,4.754E3,3.798E3,2.934E3,1.735E3,1.191E3,6.46E2,2.67E2,1.067E3,1.436E3,1.353E3,3.401E3,3.617E3,1.81E2,1.362E3,1.572E3,7.71E2,9.64E2,1.121E3,7E1,1.23E2,5.23E2,2.18E2,4.9E1,4.84E2,5.83E2,5.19E2,9.17E2,2.4E2,1.113E3,2.498E3,9.03E2,1.374E3,2.243E3,1.2E1,1.69E2,4.92E2,8.7E2,7.3E1,1.499E3,4E1,7.31E2,7.55E2,2.09E2,6.9E1,1.052E3,6.7E1,3E0,1.05E2,1.8E1,3.83E2,1.4E2,8.4E1,1.34E2,2.8E1,2.1E1],"tree_param":{"num_deleted":"0","num_feature":"17","num_nodes":"63","size_leaf_vector":"1"}},{"base_weights":[-3.633314E-3,-6.7563266E-1,2.2636807E0,-1.2026876E0,1.0529712E-1,1.6436266E0,4.3891287E0,-1.7816782E0,-9.2403543E-1,-1.6904438E-1,6.37377E-1,1.2503079E0,2.4293535E0,3.8890257E0,5.527895E0,-2.159718E0,-1.5479861E0,-1.1830109E0,-6.535096E-1,-5.545571E-1,-4.5778017E-2,5.4892325E-1,1.3000451E0,1.0919653E0,2.008984E0,2.050815E0,2.9360342E0,2.7623198E0,4.042041E0,6.510717E0,4.728327E0,-1.19897306E-1,-1.0234705E-1,-8.650011E-2,-6.640992E-2,-6.0044408E-2,1.5948994E-2,-6.280404E-2,-2.7525157E-2,-2.8951872E-2,2.4784985E-1,-9.815833E-2,-9.888065E-4,2.1224922E-2,4.832708E-2,-6.1168443E-2,7.584084E-2,1.0048737E-3,5.916632E-2,1.769145E-1,8.929705E-2,5.1037725E-2,1.1597153E-1,1.3067518E-1,1.8817835E-1,1.473119E-1,-7.218411E-2,4.509567E-2,2.0427492E-1,3.325933E-1,9.2873774E-2,2.503142E-1,1.14909664E-1],"categories":[],"categories_nodes":[],"categories_segments":[],"categories_sizes":[],"default_left":[0,0,0,0,0,0,0,0,0,0,0,0,0,0,0,0,0,0,0,0,0,0,0,0,0,0,0,0,0,0,0,0,0,0,0,0,0,0,0,0,0,0,0,0,0,0,0,0,0,0,0,0,0,0,0,0,0,0,0,0,0,0,0],"id":7,"left_children":[1,3,5,7,9,11,13,15,17,19,21,23,25,27,29,31,33,35,37,39,41,43,45,47,49,51,53,55,57,59,61,-1,-1,-1,-1,-1,-1,-1,-1,-1,-1,-1,-1,-1,-1,-1,-1,-1,-1,-1,-1,-1,-1,-1,-1,-1,-1,-1,-1,-1,-1,-1,-1],"loss_changes":[2.7137281E4,5.6551123E3,5.3586406E3,1.3215303E3,8.083993E2,9.7131055E2,5.0093164E2,2.3163672E2,3.8717285E2,1.7355539E2,1.0953296E2,2.5025122E2,1.9505957E2,9.8836914E1,1.8655371E2,2.1916504E1,6.340454E1,7.643408E1,1.6745837E2,1.2184082E2,1.3786322E2,8.591556E1,1.2277295E2,1.7054248E2,1.1662695E2,1.6469629E2,1.0883252E2,6.628845E1,7.264453E1,6.692236E1,9.381372E1,0E0,0E0,0E0,0E0,0E0,0E0,0E0,0E0,0E0,0E0,0E0,0E0,0E0,0E0,0E0,0E0,0E0,0E0,0E0,0E0,0E0,0E0,0E0,0E0,0E0,0E0,0E0,0E0,0E0,0E0,0E0,0E0],"parents":[2147483647,0,0,1,1,2,2,3,3,4,4,5,5,6,6,7,7,8,8,9,9,10,10,11,11,12,12,13,13,14,14,15,15,16,16,17,17,18,18,19,19,20,20,21,21,22,22,23,23,24,24,25,25,26,26,27,27,28,28,29,29,30,30],"right_children":[2,4,6,8,10,12,14,16,18,20,22,24,26,28,30,32,34,36,38,40,42,44,46,48,50,52,54,56,58,60,62,-1,-1,-1,-1,-1,-1,-1,-1,-1,-1,-1,-1,-1,-1,-1,-1,-1,-1,-1,-1,-1,-1,-1,-1,-1,-1,-1,-1,-1,-1,-1,-1],"split_conditions":[5.8E0,3.7E0,9.35E0,2.1E0,4.9166665E0,7.214286E0,1.2E1,1.3E0,3E0,3.4444444E0,6.5128207E0,5.915493E-1,6.0110974E-1,2.5E1,5.2E1,5.3333335E0,2.1333334E0,6.272727E-1,1.3666667E1,7.164179E-1,1.1E1,6.3375926E-1,1.3E1,1.8333334E1,6.3375926E-1,9.6E0,9.1E0,1.1666667E1,4.1333333E-1,7.588432E-1,1.34E1,-1.19897306E-1,-1.0234705E-1,-8.650011E-2,-6.640992E-2,-6.0044408E-2,1.5948994E-2,-6.280404E-2,-2.7525157E-2,-2.8951872E-2,2.4784985E-1,-9.815833E-2,-9.888065E-4,2.1224922E-2,4.832708E-2,-6.1168443E-2,7.584084E-2,1.0048737E-3,5.916632E-2,1.769145E-1,8.929705E-2,5.1037725E-2,1.1597153E-1,1.3067518E-1,1.8817835E-1,1.473119E-1,-7.218411E-2,4.509567E-2,2.0427492E-1,3.325933E-1,9.2873774E-2,2.503142E-1,1.14909664E-1],"split_indices":[1,1,2,1,2,2,9,1,10,2,10,11,12,5,7,5,10,11,5,11,5,12,5,5,12,13,1,10,11,12,1,0,0,0,0,0,0,0,0,0,0,0,0,0,0,0,0,0,0,0,0,0,0,0,0,0,0,0,0,0,0,0,0],"split_type":[0,0,0,0,0,0,0,0,0,0,0,0,0,0,0,0,0,0,0,0,0,0,0,0,0,0,0,0,0,0,0,0,0,0,0,0,0,0,0,0,0,0,0,0,0,0,0,0,0,0,0,0,0,0,0,0,0,0,0,0,0,0,0],"sum_hessian":[1.7809E4,1.3738E4,4.071E3,8.202E3,5.536E3,3.153E3,9.18E2,2.663E3,5.539E3,3.653E3,1.883E3,2.103E3,1.05E3,6.41E2,2.77E2,1.014E3,1.649E3,2.828E3,2.711E3,8.84E2,2.769E3,1.663E3,2.2E2,1.742E3,3.61E2,6.04E2,4.46E2,7.9E1,5.62E2,1.21E2,1.56E2,3.19E2,6.95E2,8.98E2,7.51E2,2.795E3,3.3E1,3.94E2,2.317E3,8.81E2,3E0,3.6E1,2.733E3,1.283E3,3.8E2,1.7E1,2.03E2,1.37E2,1.605E3,4.4E1,3.17E2,1.26E2,4.78E2,3.24E2,1.22E2,7.6E1,3E0,8E0,5.54E2,1.17E2,4E0,1.39E2,1.7E1],"tree_param":{"num_deleted":"0","num_feature":"17","num_nodes":"63","size_leaf_vector":"1"}},{"base_weights":[-6.363963E-3,-7.382763E-1,1.8912059E0,-1.2880898E0,-1.657149E-1,1.3322483E0,4.1149716E0,-1.727344E0,-9.768097E-1,-3.486913E-1,4.9326107E-1,8.8772494E-1,1.9985523E0,3.428462E0,5.173461E0,-2.0671966E0,-1.5137212E0,-1.2141645E0,-8.134297E-1,-5.9199554E-1,-1.0213739E-1,5.3471774E-1,-6.610354E-1,6.922757E-1,1.4437926E0,7.3656213E-1,2.1159365E0,2.661068E0,3.7004013E0,4.857732E0,7.3788443E0,-1.1631985E-1,-9.607009E-2,-7.7799946E-2,-3.4040827E-2,-7.643526E-2,-5.278946E-2,-8.4201336E-2,-3.8534928E-2,-3.9455682E-2,-1.36032505E-2,-8.08317E-3,5.558471E-2,1.7467998E-1,2.6040424E-2,-7.115933E-2,1.7376778E-3,2.9945258E-2,7.277692E-2,7.003104E-2,2.505016E-1,-1.4313045E-2,8.900534E-2,8.9843124E-2,1.2895954E-1,5.9163123E-2,1.4352898E-1,2.2460775E-1,1.7173074E-1,2.533007E-1,1.6957985E-1,3.9122277E-1,1.0254114E-1],"categories":[],"categories_nodes":[],"categories_segments":[],"categories_sizes":[],"default_left":[0,0,0,0,0,0,0,0,0,0,0,0,0,0,0,0,0,0,0,0,0,0,0,0,0,0,0,0,0,0,0,0,0,0,0,0,0,0,0,0,0,0,0,0,0,0,0,0,0,0,0,0,0,0,0,0,0,0,0,0,0,0,0],"id":8,"left_children":[1,3,5,7,9,11,13,15,17,19,21,23,25,27,29,31,33,35,37,39,41,43,45,47,49,51,53,55,57,59,61,-1,-1,-1,-1,-1,-1,-1,-1,-1,-1,-1,-1,-1,-1,-1,-1,-1,-1,-1,-1,-1,-1,-1,-1,-1,-1,-1,-1,-1,-1,-1,-1],"loss_changes":[2.482845E4,4.0609014E3,6.1790957E3,8.978701E2,7.623252E2,1.1761719E3,7.0733984E2,1.9456592E2,1.4826392E2,2.9668872E2,6.609125E1,2.5832178E2,2.3384375E2,1.1660547E2,2.3518652E2,3.4784668E1,5.7839844E1,7.6288086E1,8.349951E1,1.5670886E2,1.7775867E2,5.239279E1,2.5642532E1,1.249928E2,8.779773E1,1.4688751E2,2.0999463E2,4.666565E1,7.784424E1,8.732373E1,9.455444E1,0E0,0E0,0E0,0E0,0E0,0E0,0E0,0E0,0E0,0E0,0E0,0E0,0E0,0E0,0E0,0E0,0E0,0E0,0E0,0E0,0E0,0E0,0E0,0E0,0E0,0E0,0E0,0E0,0E0,0E0,0E0,0E0],"parents":[2147483647,0,0,1,1,2,2,3,3,4,4,5,5,6,6,7,7,8,8,9,9,10,10,11,11,12,12,13,13,14,14,15,15,16,16,17,17,18,18,19,19,20,20,21,21,22,22,23,23,24,24,25,25,26,26,27,27,28,28,29,29,30,30],"right_children":[2,4,6,8,10,12,14,16,18,20,22,24,26,28,30,32,34,36,38,40,42,44,46,48,50,52,54,56,58,60,62,-1,-1,-1,-1,-1,-1,-1,-1,-1,-1,-1,-1,-1,-1,-1,-1,-1,-1,-1,-1,-1,-1,-1,-1,-1,-1,-1,-1,-1,-1,-1,-1],"split_conditions":[5.3E0,3.2E0,9.2E0,2.1E0,4.875E0,6.9E0,1.075E1,1.3E0,2.65E0,4E0,1.16E2,6.383333E0,2E1,8.565217E0,1.4E1,6E0,3.4285715E0,5.8E0,8.333333E0,2.7666666E1,6.1403507E-1,3.3E0,1.5491934E0,6E-1,4.2E0,5.833333E-1,7.6666665E0,2.4515302E0,9.3529415E0,1.02E2,5.3E1,-1.1631985E-1,-9.607009E-2,-7.7799946E-2,-3.4040827E-2,-7.643526E-2,-5.278946E-2,-8.4201336E-2,-3.8534928E-2,-3.9455682E-2,-1.36032505E-2,-8.08317E-3,5.558471E-2,1.7467998E-1,2.6040424E-2,-7.115933E-2,1.7376778E-3,2.9945258E-2,7.277692E-2,7.003104E-2,2.505016E-1,-1.4313045E-2,8.900534E-2,8.9843124E-2,1.2895954E-1,5.9163123E-2,1.4352898E-1,2.2460775E-1,1.7173074E-1,2.533007E-1,1.6957985E-1,3.9122277E-1,1.0254114E-1],"split_indices":[1,1,1,1,2,1,10,1,2,1,7,2,5,2,1,5,10,13,5,5,11,1,3,11,15,11,10,4,10,7,7,0,0,0,0,0,0,0,0,0,0,0,0,0,0,0,0,0,0,0,0,0,0,0,0,0,0,0,0,0,0,0,0],"split_type":[0,0,0,0,0,0,0,0,0,0,0,0,0,0,0,0,0,0,0,0,0,0,0,0,0,0,0,0,0,0,0,0,0,0,0,0,0,0,0,0,0,0,0,0,0,0,0,0,0,0,0,0,0,0,0,0,0,0,0,0,0,0,0],"sum_hessian":[1.7875E4,1.29E4,4.975E3,6.58E3,6.32E3,3.977E3,9.98E2,2.727E3,3.853E3,4.947E3,1.373E3,2.387E3,1.59E3,6.08E2,3.9E2,1.049E3,1.678E3,1.568E3,2.285E3,2.489E3,2.458E3,1.326E3,4.7E1,1.768E3,6.19E2,1.36E2,1.454E3,1.62E2,4.46E2,3.44E2,4.6E1,3.72E2,6.77E2,1.596E3,8.2E1,5.22E2,1.046E3,1.05E2,2.18E3,1.539E3,9.5E2,2.344E3,1.14E2,5E0,1.321E3,2.2E1,2.5E1,1.577E3,1.91E2,6.13E2,6E0,6.9E1,6.7E1,8.64E2,5.9E2,2.1E1,1.41E2,1.08E2,3.38E2,2.99E2,4.5E1,4.2E1,4E0],"tree_param":{"num_deleted":"0","num_feature":"17","num_nodes":"63","size_leaf_vector":"1"}},{"base_weights":[1.7483825E-3,-4.9391228E-1,2.547288E0,-1.1705164E0,1.2885445E-1,1.8747126E0,4.056309E0,-1.6381401E0,-9.0806794E-1,-2.6839057E-1,5.1470774E-1,1.56516E0,2.3126385E0,3.437797E0,5.0228996E0,-1.8881286E0,-1.3611795E0,-1.1540769E0,-8.048783E-1,-3.9074343E-1,1.97202E-3,3.282825E-1,7.96807E-1,1.468622E0,3.1737657E0,1.2302694E0,2.4724803E0,4.6854506E0,3.3356516E0,5.642705E0,4.373653E0,-1.0614842E-1,-8.841833E-2,-6.9766864E-2,3.2781288E-2,-5.8250546E-2,2.0587783E-1,-4.1338913E-2,1.9279206E-2,-3.2982014E-2,-1.3142981E-2,1.6333613E-1,-1.1359996E-3,6.043363E-3,2.7667496E-2,4.2085666E-2,-5.9564043E-2,9.0725735E-2,6.2991686E-2,5.8141768E-2,1.9799131E-1,-1.0474097E-2,8.312256E-2,1.1281023E-1,1.6414727E-1,2.4195222E-2,2.5096798E-1,1.5415551E-1,1.903238E-1,2.9123718E-1,1.0323987E-1,2.5952786E-1,1.8654177E-1],"categories":[],"categories_nodes":[],"categories_segments":[],"categories_sizes":[],"default_left":[0,0,0,0,0,0,0,0,0,0,0,0,0,0,0,0,0,0,0,0,0,0,0,0,0,0,0,0,0,0,0,0,0,0,0,0,0,0,0,0,0,0,0,0,0,0,0,0,0,0,0,0,0,0,0,0,0,0,0,0,0,0,0],"id":9,"left_children":[1,3,5,7,9,11,13,15,17,19,21,23,25,27,29,31,33,35,37,39,41,43,45,47,49,51,53,55,57,59,61,-1,-1,-1,-1,-1,-1,-1,-1,-1,-1,-1,-1,-1,-1,-1,-1,-1,-1,-1,-1,-1,-1,-1,-1,-1,-1,-1,-1,-1,-1,-1,-1],"loss_changes":[2.2496736E4,6.288728E3,2.9411895E3,8.76126E2,1.1914418E3,2.687412E2,5.1695996E2,1.7504395E2,1.1524292E2,1.2673465E2,2.0698999E2,1.7842944E2,1.4035742E2,5.3535156E1,1.13953125E2,3.3769043E1,8.524072E1,8.243054E1,8.4650635E1,9.041437E1,9.665084E1,1.1078311E2,1.4095514E2,7.807446E1,9.9210205E1,6.831708E1,1.1876953E2,5.173523E1,4.8334473E1,1.0051367E2,7.111401E1,0E0,0E0,0E0,0E0,0E0,0E0,0E0,0E0,0E0,0E0,0E0,0E0,0E0,0E0,0E0,0E0,0E0,0E0,0E0,0E0,0E0,0E0,0E0,0E0,0E0,0E0,0E0,0E0,0E0,0E0,0E0,0E0],"parents":[2147483647,0,0,1,1,2,2,3,3,4,4,5,5,6,6,7,7,8,8,9,9,10,10,11,11,12,12,13,13,14,14,15,15,16,16,17,17,18,18,19,19,20,20,21,21,22,22,23,23,24,24,25,25,26,26,27,27,28,28,29,29,30,30],"right_children":[2,4,6,8,10,12,14,16,18,20,22,24,26,28,30,32,34,36,38,40,42,44,46,48,50,52,54,56,58,60,62,-1,-1,-1,-1,-1,-1,-1,-1,-1,-1,-1,-1,-1,-1,-1,-1,-1,-1,-1,-1,-1,-1,-1,-1,-1,-1,-1,-1,-1,-1,-1,-1],"split_conditions":[6.383333E0,3.3461537E0,9.35E0,2.2E0,4.4545455E0,7.5901637E0,1.0904762E1,1.360147E0,8E-1,2.3579652E0,5.4E0,4.1472883E0,1.6E0,9.305555E0,5.5E1,4E-1,6.333333E-1,7.164179E-1,3.3406587E0,1.2E0,2.5348837E0,2.3259406E0,4.1472883E0,3.7E1,5.894128E-1,2.3151674E0,5.675676E-1,1.7204651E0,6.4102566E-1,7.309069E-1,2.8E0,-1.0614842E-1,-8.841833E-2,-6.9766864E-2,3.2781288E-2,-5.8250546E-2,2.0587783E-1,-4.1338913E-2,1.9279206E-2,-3.2982014E-2,-1.3142981E-2,1.6333613E-1,-1.1359996E-3,6.043363E-3,2.7667496E-2,4.2085666E-2,-5.9564043E-2,9.0725735E-2,6.2991686E-2,5.8141768E-2,1.9799131E-1,-1.0474097E-2,8.312256E-2,1.1281023E-1,1.6414727E-1,2.4195222E-2,2.5096798E-1,1.5415551E-1,1.903238E-1,2.9123718E-1,1.0323987E-1,2.5952786E-1,1.8654177E-1],"split_indices":[2,2,2,2,2,2,2,4,16,4,9,4,16,8,7,16,11,11,4,16,10,4,4,7,12,3,11,3,12,12,3,0,0,0,0,0,0,0,0,0,0,0,0,0,0,0,0,0,0,0,0,0,0,0,0,0,0,0,0,0,0,0,0],"split_type":[0,0,0,0,0,0,0,0,0,0,0,0,0,0,0,0,0,0,0,0,0,0,0,0,0,0,0,0,0,0,0,0,0,0,0,0,0,0,0,0,0,0,0,0,0,0,0,0,0,0,0,0,0,0,0,0,0,0,0,0,0,0,0],"sum_hessian":[1.7828E4,1.4923E4,2.905E3,7.152E3,7.771E3,2.011E3,8.94E2,2.569E3,4.583E3,3.829E3,3.942E3,1.181E3,8.3E2,5.48E2,3.46E2,1.347E3,1.222E3,1.351E3,3.232E3,2.636E3,1.193E3,2.375E3,1.567E3,1.116E3,6.5E1,1.08E2,7.22E2,3.8E1,5.1E2,1.73E2,1.73E2,4.49E2,8.98E2,1.202E3,2E1,1.349E3,2E0,3.174E3,5.8E1,8.48E2,1.788E3,8E0,1.185E3,1.237E3,1.138E3,1.533E3,3.4E1,4.17E2,6.99E2,1.9E1,4.6E1,2.5E1,8.3E1,5.73E2,1.49E2,3E0,3.5E1,3.37E2,1.73E2,1.64E2,9E0,7.3E1,1E2],"tree_param":{"num_deleted":"0","num_feature":"17","num_nodes":"63","size_leaf_vector":"1"}},{"base_weights":[-2.2244724E-3,-6.8905294E-1,1.7513373E0,-1.1117395E0,-8.3282724E-2,1.2472117E0,3.7361524E0,-1.5471559E0,-8.6505944E-1,-2.8974247E-1,2.203781E-1,8.3514947E-1,1.8723844E0,3.2312825E0,4.6466084E0,-1.7168655E0,-1.171015E0,-1.0306062E0,-5.75061E-1,-6.902262E-1,-1.8676986E-1,-7.7139035E-2,4.2821127E-1,6.066306E-1,1.2427033E0,5.145161E-1,2.0066152E0,2.2888885E0,3.408887E0,4.861518E0,2.8086658E0,-9.1256544E-2,-6.568184E-2,-8.7820195E-2,-5.2788485E-2,-6.931739E-2,-4.870149E-2,-3.0428944E-2,5.9163827E-2,-4.0015794E-2,2.8299188E-2,-9.9989725E-3,1.7321567E-1,-1.2749451E-2,1.4579274E-2,4.847065E-2,1.6728183E-2,-2.1452459E-2,3.4908608E-2,-1.7183844E-2,6.7450486E-2,-1.3818446E-2,6.664903E-2,8.467811E-2,1.2343919E-1,9.0250276E-2,1.6149382E-1,1.026682E-1,1.7642853E-1,2.1641135E-1,2.721915E-1,-1.2329922E-1,1.8177506E-1],"categories":[],"categories_nodes":[],"categories_segments":[],"categories_sizes":[],"default_left":[0,0,0,0,0,0,0,0,0,0,0,0,0,0,0,0,0,0,0,0,0,0,0,0,0,0,0,0,0,0,0,0,0,0,0,0,0,0,0,0,0,0,0,0,0,0,0,0,0,0,0,0,0,0,0,0,0,0,0,0,0,0,0],"id":10,"left_children":[1,3,5,7,9,11,13,15,17,19,21,23,25,27,29,31,33,35,37,39,41,43,45,47,49,51,53,55,57,59,61,-1,-1,-1,-1,-1,-1,-1,-1,-1,-1,-1,-1,-1,-1,-1,-1,-1,-1,-1,-1,-1,-1,-1,-1,-1,-1,-1,-1,-1,-1,-1,-1],"loss_changes":[2.1414059E4,3.2710942E3,5.001825E3,8.066699E2,3.293383E2,1.0265449E3,4.4983496E2,1.7133154E2,2.2997485E2,1.287373E2,1.3152707E2,2.2332715E2,2.8760938E2,1.01257324E2,1.2738037E2,7.901172E1,5.514087E1,5.9960693E1,1.0374103E2,8.884732E1,1.2040909E2,5.745114E1,6.2999466E1,1.4680444E2,1.4627124E2,9.3686874E1,2.0403613E2,4.2386658E1,8.1262695E1,7.483447E1,1.8353271E2,0E0,0E0,0E0,0E0,0E0,0E0,0E0,0E0,0E0,0E0,0E0,0E0,0E0,0E0,0E0,0E0,0E0,0E0,0E0,0E0,0E0,0E0,0E0,0E0,0E0,0E0,0E0,0E0,0E0,0E0,0E0,0E0],"parents":[2147483647,0,0,1,1,2,2,3,3,4,4,5,5,6,6,7,7,8,8,9,9,10,10,11,11,12,12,13,13,14,14,15,15,16,16,17,17,18,18,19,19,20,20,21,21,22,22,23,23,24,24,25,25,26,26,27,27,28,28,29,29,30,30],"right_children":[2,4,6,8,10,12,14,16,18,20,22,24,26,28,30,32,34,36,38,40,42,44,46,48,50,52,54,56,58,60,62,-1,-1,-1,-1,-1,-1,-1,-1,-1,-1,-1,-1,-1,-1,-1,-1,-1,-1,-1,-1,-1,-1,-1,-1,-1,-1,-1,-1,-1,-1,-1,-1],"split_conditions":[5.3E0,3.5E0,9.2E0,2E0,4.347826E0,6.9E0,1.1193548E1,1.6666666E1,3.0666666E0,2E1,4.5E0,5.96875E0,2.0333334E1,8.032258E0,1.04E2,2.5348837E0,9.797959E-1,1.6956521E0,5.612903E0,6.458333E-1,4.2426405E0,2.8E0,1.2E0,3.9285713E-1,1.6666666E1,5.833333E-1,7.6666665E0,4.6E0,2.4666666E1,6.3375926E-1,3.544009E0,-9.1256544E-2,-6.568184E-2,-8.7820195E-2,-5.2788485E-2,-6.931739E-2,-4.870149E-2,-3.0428944E-2,5.9163827E-2,-4.0015794E-2,2.8299188E-2,-9.9989725E-3,1.7321567E-1,-1.2749451E-2,1.4579274E-2,4.847065E-2,1.6728183E-2,-2.1452459E-2,3.4908608E-2,-1.7183844E-2,6.7450486E-2,-1.3818446E-2,6.664903E-2,8.467811E-2,1.2343919E-1,9.0250276E-2,1.6149382E-1,1.026682E-1,1.7642853E-1,2.1641135E-1,2.721915E-1,-1.2329922E-1,1.8177506E-1],"split_indices":[1,1,1,0,10,1,10,5,8,5,1,10,5,8,7,10,4,10,10,11,4,16,14,11,5,11,10,16,5,12,4,0,0,0,0,0,0,0,0,0,0,0,0,0,0,0,0,0,0,0,0,0,0,0,0,0,0,0,0,0,0,0,0],"split_type":[0,0,0,0,0,0,0,0,0,0,0,0,0,0,0,0,0,0,0,0,0,0,0,0,0,0,0,0,0,0,0,0,0,0,0,0,0,0,0,0,0,0,0,0,0,0,0,0,0,0,0,0,0,0,0,0,0,0,0,0,0,0,0],"sum_hessian":[1.7778E4,1.2775E4,5.003E3,7.524E3,5.251E3,3.991E3,1.012E3,2.719E3,4.805E3,3.126E3,2.125E3,2.407E3,1.584E3,6.54E2,3.58E2,1.871E3,8.48E2,3.057E3,1.748E3,6.38E2,2.488E3,8.74E2,1.251E3,1.544E3,8.63E2,1.43E2,1.441E3,1.06E2,5.48E2,3.19E2,3.9E1,1.472E3,3.99E2,1.37E2,7.11E2,4.16E2,2.641E3,1.716E3,3.2E1,5.87E2,5.1E1,2.48E3,8E0,5.9E2,2.84E2,1.83E2,1.068E3,1.25E2,1.419E3,5.4E1,8.09E2,7.3E1,7E1,8.62E2,5.79E2,7.2E1,3.4E1,4.6E1,5.02E2,1.71E2,1.48E2,5E0,3.4E1],"tree_param":{"num_deleted":"0","num_feature":"17","num_nodes":"63","size_leaf_vector":"1"}},{"base_weights":[7.395019E-3,-5.134565E-1,2.0147567E0,-1.0475218E0,4.231755E-2,1.3947684E0,3.6573179E0,-1.4345298E0,-7.888934E-1,-3.1152624E-1,4.3596208E-1,9.903498E-1,2.0504773E0,3.1844926E0,4.8173814E0,-1.7554405E0,-1.2295936E0,-1.0302185E0,-6.4414436E-1,-6.3365185E-1,-1.467614E-1,2.3324092E-1,9.498332E-1,5.6052333E-1,1.2569703E0,7.484751E-1,2.1745653E0,2.1984353E0,3.3350558E0,5.2567906E0,3.8024387E0,-8.954208E-2,-2.0131564E-2,-7.610785E-2,-5.220152E-2,-5.4211717E-2,-1.3898163E-2,-3.422858E-2,1.5330476E-2,-3.249133E-2,2.2407913E-1,-1.2946143E-2,1.4017388E-2,-1.490991E-2,1.4409465E-2,2.1064969E-2,5.8523543E-2,-3.8107283E-2,3.1267453E-2,3.3643215E-3,7.139415E-2,8.348216E-2,6.505093E-3,3.473613E-1,1.0705199E-1,2.5020847E-1,9.108E-2,1.6142829E-1,2.3267297E-1,1.311859E-1,2.6981828E-1,2.7244723E-1,1.6746008E-1],"categories":[],"categories_nodes":[],"categories_segments":[],"categories_sizes":[],"default_left":[0,0,0,0,0,0,0,0,0,0,0,0,0,0,0,0,0,0,0,0,0,0,0,0,0,0,0,0,0,0,0,0,0,0,0,0,0,0,0,0,0,0,0,0,0,0,0,0,0,0,0,0,0,0,0,0,0,0,0,0,0,0,0],"id":11,"left_children":[1,3,5,7,9,11,13,15,17,19,21,23,25,27,29,31,33,35,37,39,41,43,45,47,49,51,53,55,57,59,61,-1,-1,-1,-1,-1,-1,-1,-1,-1,-1,-1,-1,-1,-1,-1,-1,-1,-1,-1,-1,-1,-1,-1,-1,-1,-1,-1,-1,-1,-1,-1,-1],"loss_changes":[1.8625342E4,4.198362E3,3.7318057E3,7.206035E2,9.6569745E2,7.046377E2,5.351094E2,1.8747656E2,1.502832E2,1.9360571E2,3.415545E2,1.8831921E2,1.6222803E2,9.856299E1,1.07992676E2,5.284082E1,9.4028564E1,6.538904E1,1.042948E2,1.0471002E2,1.1585726E2,6.8854996E1,1.0756586E2,5.4823944E1,2.0674634E2,5.086911E1,1.3254248E2,9.381723E1,7.123389E1,5.8174316E1,4.8779907E1,0E0,0E0,0E0,0E0,0E0,0E0,0E0,0E0,0E0,0E0,0E0,0E0,0E0,0E0,0E0,0E0,0E0,0E0,0E0,0E0,0E0,0E0,0E0,0E0,0E0,0E0,0E0,0E0,0E0,0E0,0E0,0E0],"parents":[2147483647,0,0,1,1,2,2,3,3,4,4,5,5,6,6,7,7,8,8,9,9,10,10,11,11,12,12,13,13,14,14,15,15,16,16,17,17,18,18,19,19,20,20,21,21,22,22,23,23,24,24,25,25,26,26,27,27,28,28,29,29,30,30],"right_children":[2,4,6,8,10,12,14,16,18,20,22,24,26,28,30,32,34,36,38,40,42,44,46,48,50,52,54,56,58,60,62,-1,-1,-1,-1,-1,-1,-1,-1,-1,-1,-1,-1,-1,-1,-1,-1,-1,-1,-1,-1,-1,-1,-1,-1,-1,-1,-1,-1,-1,-1,-1,-1],"split_conditions":[5.964286E0,3.4E0,9E0,2.3333333E0,4.1666665E0,7.4E0,1.2E1,1.1666667E1,2.4E0,3.1923077E0,6E0,5.9459457E0,5.1756585E-1,8.032258E0,7.7E1,6.333333E-1,1.8E0,5.5825245E-1,5.048387E0,4.3863425E0,5.2E0,3.857143E-1,4.5882353E-1,1.4E1,1.7E1,4.1752577E-1,2E-1,8E-1,2.8E0,1.3E1,4.4973546E-1,-8.954208E-2,-2.0131564E-2,-7.610785E-2,-5.220152E-2,-5.4211717E-2,-1.3898163E-2,-3.422858E-2,1.5330476E-2,-3.249133E-2,2.2407913E-1,-1.2946143E-2,1.4017388E-2,-1.490991E-2,1.4409465E-2,2.1064969E-2,5.8523543E-2,-3.8107283E-2,3.1267453E-2,3.3643215E-3,7.139415E-2,8.348216E-2,6.505093E-3,3.473613E-1,1.0705199E-1,2.5020847E-1,9.108E-2,1.6142829E-1,2.3267297E-1,1.311859E-1,2.6981828E-1,2.7244723E-1,1.6746008E-1],"split_indices":[8,0,9,9,8,0,9,5,0,9,0,9,12,8,7,11,0,11,8,4,0,11,11,5,5,11,16,15,15,7,11,0,0,0,0,0,0,0,0,0,0,0,0,0,0,0,0,0,0,0,0,0,0,0,0,0,0,0,0,0,0,0,0],"split_type":[0,0,0,0,0,0,0,0,0,0,0,0,0,0,0,0,0,0,0,0,0,0,0,0,0,0,0,0,0,0,0,0,0,0,0,0,0,0,0,0,0,0,0,0,0,0,0,0,0,0,0,0,0,0,0,0,0,0,0,0,0,0,0],"sum_hessian":[1.7812E4,1.4143E4,3.669E3,7.212E3,6.931E3,2.665E3,1.004E3,2.887E3,4.325E3,3.65E3,3.281E3,1.65E3,1.015E3,7.16E2,2.88E2,1.122E3,1.765E3,1.619E3,2.706E3,1.234E3,2.416E3,2.354E3,9.27E2,6.33E2,1.017E3,8.9E1,9.26E2,9.7E1,6.19E2,1.98E2,9E1,1.093E3,2.9E1,6.82E2,1.083E3,1.51E3,1.09E2,2.596E3,1.1E2,1.231E3,3E0,1.914E3,5.02E2,2.2E2,2.134E3,2.74E2,6.53E2,2.9E1,6.04E2,1.28E2,8.89E2,3.5E1,5.4E1,5E0,9.21E2,1E1,8.7E1,5.76E2,4.3E1,1.1E1,1.87E2,1.7E1,7.3E1],"tree_param":{"num_deleted":"0","num_feature":"17","num_nodes":"63","size_leaf_vector":"1"}},{"base_weights":[1.12453485E-2,-6.0724026E-1,1.5912755E0,-1.0185069E0,-7.389728E-2,1.1454372E0,3.3773928E0,-1.4554739E0,-7.9416853E-1,-2.355515E-1,4.354625E-1,7.622051E-1,1.7297517E0,3.002795E0,4.3750076E0,-1.713118E0,-1.2618669E0,-1.0152073E0,-5.959043E-1,-4.4102097E-1,-6.2453922E-2,4.58227E-1,-7.799222E-1,5.986739E-1,1.1987164E0,1.4681814E0,2.1971729E0,2.9231567E0,4.647922E0,3.7457263E0,5.1952E0,-9.391004E-2,-7.8546E-2,-6.480605E-2,-1.2158253E-2,-5.9683222E-2,-4.4329073E-2,-7.713745E-2,-2.8608585E-2,-2.2634828E-2,2.0693174E-1,-5.4970006E-3,2.2225825E-2,8.857108E-3,2.7968183E-2,-6.7059375E-2,4.20322E-2,-1.8115317E-2,3.316833E-2,5.622337E-2,1.6481398E-1,5.836009E-2,8.955499E-2,1.0674908E-1,2.7219707E-1,1.13557614E-1,1.5424149E-1,2.4376212E-1,-5.747508E-2,1.9035444E-1,-1.4316987E-1,2.2521542E-1,3.4996247E-1],"categories":[],"categories_nodes":[],"categories_segments":[],"categories_sizes":[],"default_left":[0,0,0,0,0,0,0,0,0,0,0,0,0,0,0,0,0,0,0,0,0,0,0,0,0,0,0,0,0,0,0,0,0,0,0,0,0,0,0,0,0,0,0,0,0,0,0,0,0,0,0,0,0,0,0,0,0,0,0,0,0,0,0],"id":12,"left_children":[1,3,5,7,9,11,13,15,17,19,21,23,25,27,29,31,33,35,37,39,41,43,45,47,49,51,53,55,57,59,61,-1,-1,-1,-1,-1,-1,-1,-1,-1,-1,-1,-1,-1,-1,-1,-1,-1,-1,-1,-1,-1,-1,-1,-1,-1,-1,-1,-1,-1,-1,-1,-1],"loss_changes":[1.7417184E4,2.8094204E3,3.9884238E3,7.075615E2,4.5937598E2,8.972803E2,3.6020312E2,1.19850586E2,2.0875684E2,1.5054524E2,3.751053E1,1.7227832E2,1.9068457E2,8.142871E1,1.1951758E2,2.1329102E1,4.8523193E1,5.058716E1,5.560034E1,1.05023285E2,5.53857E1,3.7352203E1,2.3916706E1,1.1012201E2,9.864111E1,9.69436E1,1.02309814E2,6.624609E1,4.814862E1,7.466724E1,1.1065918E2,0E0,0E0,0E0,0E0,0E0,0E0,0E0,0E0,0E0,0E0,0E0,0E0,0E0,0E0,0E0,0E0,0E0,0E0,0E0,0E0,0E0,0E0,0E0,0E0,0E0,0E0,0E0,0E0,0E0,0E0,0E0,0E0],"parents":[2147483647,0,0,1,1,2,2,3,3,4,4,5,5,6,6,7,7,8,8,9,9,10,10,11,11,12,12,13,13,14,14,15,15,16,16,17,17,18,18,19,19,20,20,21,21,22,22,23,23,24,24,25,25,26,26,27,27,28,28,29,29,30,30],"right_children":[2,4,6,8,10,12,14,16,18,20,22,24,26,28,30,32,34,36,38,40,42,44,46,48,50,52,54,56,58,60,62,-1,-1,-1,-1,-1,-1,-1,-1,-1,-1,-1,-1,-1,-1,-1,-1,-1,-1,-1,-1,-1,-1,-1,-1,-1,-1,-1,-1,-1,-1,-1,-1],"split_conditions":[5.3E0,3.4E0,9.2E0,2E0,4.875E0,6.9E0,1.15E1,1.3E0,2.7407408E0,3.76E0,1.02E1,6.3076925E0,8.090909E0,2E1,6.38917E-1,3.8842976E-1,3.6923077E0,2.3703704E0,1.8E0,4.2426405E0,3.0594118E0,4.3956044E-1,6.4E0,3.857143E-1,3.9191835E0,2.6832817E0,1.1363636E1,9.6E0,2.42E1,8.2E0,1.4E1,-9.391004E-2,-7.8546E-2,-6.480605E-2,-1.2158253E-2,-5.9683222E-2,-4.4329073E-2,-7.713745E-2,-2.8608585E-2,-2.2634828E-2,2.0693174E-1,-5.4970006E-3,2.2225825E-2,8.857108E-3,2.7968183E-2,-6.7059375E-2,4.20322E-2,-1.8115317E-2,3.316833E-2,5.622337E-2,1.6481398E-1,5.836009E-2,8.955499E-2,1.0674908E-1,2.7219707E-1,1.13557614E-1,1.5424149E-1,2.4376212E-1,-5.747508E-2,1.9035444E-1,-1.4316987E-1,2.2521542E-1,3.4996247E-1],"split_indices":[1,1,1,1,2,1,2,1,8,2,16,2,9,13,12,11,9,9,13,4,3,11,14,11,3,3,8,1,13,16,1,0,0,0,0,0,0,0,0,0,0,0,0,0,0,0,0,0,0,0,0,0,0,0,0,0,0,0,0,0,0,0,0],"split_type":[0,0,0,0,0,0,0,0,0,0,0,0,0,0,0,0,0,0,0,0,0,0,0,0,0,0,0,0,0,0,0,0,0,0,0,0,0,0,0,0,0,0,0,0,0,0,0,0,0,0,0,0,0,0,0,0,0,0,0,0,0,0,0],"sum_hessian":[1.7821E4,1.2808E4,5.013E3,7.231E3,5.577E3,4.013E3,1E3,2.451E3,4.78E3,4.234E3,1.343E3,2.425E3,1.588E3,7.3E2,2.7E2,1.048E3,1.403E3,2.258E3,2.522E3,1.935E3,2.299E3,1.319E3,2.4E1,1.766E3,6.59E2,1.021E3,5.67E2,6.99E2,3.1E1,1.56E2,1.14E2,4.79E2,5.69E2,1.357E3,4.6E1,9.42E2,1.316E3,6E1,2.462E3,1.931E3,4E0,2.103E3,1.96E2,3.5E2,9.69E2,1.8E1,6E0,1.11E2,1.655E3,6.38E2,2.1E1,5.31E2,4.9E2,5.58E2,9E0,1.42E2,5.57E2,3E1,1E0,1.55E2,1E0,8.5E1,2.9E1],"tree_param":{"num_deleted":"0","num_feature":"17","num_nodes":"63","size_leaf_vector":"1"}},{"base_weights":[1.2094178E-3,-4.2663723E-1,2.1170065E0,-9.132009E-1,1.7348997E-1,1.514241E0,3.3078098E0,-1.3674481E0,-7.210224E-1,-1.8662785E-1,4.5602724E-1,1.4239725E0,2.9664109E0,2.9826474E0,4.1613836E0,-1.6428679E0,-1.1634635E0,-9.183479E-1,-5.839671E-1,-5.754564E-1,-8.805082E-2,3.6839333E-1,1.0139841E0,4.851415E-1,1.535749E0,2.5982702E0,5.675658E0,3.4513828E-1,3.0369773E0,5.030661E0,3.7060602E0,-9.246144E-2,-7.43321E-2,2.4342326E-2,-5.9264403E-2,-3.4528013E-2,-5.0443023E-2,-4.9371023E-2,-2.4994617E-2,-3.5698734E-2,8.246369E-3,9.650124E-2,-5.31694E-3,5.138716E-3,2.4298651E-2,4.7617424E-2,1.73181E-1,3.049973E-2,-1.1244654E-1,4.910816E-2,8.4983364E-2,4.6826772E-2,1.4670113E-1,3.0229148E-1,2.8339991E-2,1.5572082E-1,-1.3289416E-2,9.7559296E-2,1.5662889E-1,-4.6757635E-2,2.6216933E-1,4.6294484E-1,1.7815536E-1],"categories":[],"categories_nodes":[],"categories_segments":[],"categories_sizes":[],"default_left":[0,0,0,0,0,0,0,0,0,0,0,0,0,0,0,0,0,0,0,0,0,0,0,0,0,0,0,0,0,0,0,0,0,0,0,0,0,0,0,0,0,0,0,0,0,0,0,0,0,0,0,0,0,0,0,0,0,0,0,0,0,0,0],"id":13,"left_children":[1,3,5,7,9,11,13,15,17,19,21,23,25,27,29,31,33,35,37,39,41,43,45,47,49,51,53,55,57,59,61,-1,-1,-1,-1,-1,-1,-1,-1,-1,-1,-1,-1,-1,-1,-1,-1,-1,-1,-1,-1,-1,-1,-1,-1,-1,-1,-1,-1,-1,-1,-1,-1],"loss_changes":[1.6188515E4,4.3437334E3,2.1535762E3,7.159463E2,6.778468E2,2.5737646E2,2.672002E2,1.3494629E2,1.5549536E2,1.1215026E2,1.8201678E2,1.967583E2,1.00122375E2,1.0393555E2,8.972412E1,3.0316895E1,5.128711E1,4.7894165E1,1.1505969E2,6.0886215E1,8.631032E1,1.0070618E2,7.265808E1,7.016216E1,1.5078247E2,5.4889954E1,2.0496948E1,2.8181845E1,6.81167E1,1.2208984E2,1.125791E2,0E0,0E0,0E0,0E0,0E0,0E0,0E0,0E0,0E0,0E0,0E0,0E0,0E0,0E0,0E0,0E0,0E0,0E0,0E0,0E0,0E0,0E0,0E0,0E0,0E0,0E0,0E0,0E0,0E0,0E0,0E0,0E0],"parents":[2147483647,0,0,1,1,2,2,3,3,4,4,5,5,6,6,7,7,8,8,9,9,10,10,11,11,12,12,13,13,14,14,15,15,16,16,17,17,18,18,19,19,20,20,21,21,22,22,23,23,24,24,25,25,26,26,27,27,28,28,29,29,30,30],"right_children":[2,4,6,8,10,12,14,16,18,20,22,24,26,28,30,32,34,36,38,40,42,44,46,48,50,52,54,56,58,60,62,-1,-1,-1,-1,-1,-1,-1,-1,-1,-1,-1,-1,-1,-1,-1,-1,-1,-1,-1,-1,-1,-1,-1,-1,-1,-1,-1,-1,-1,-1,-1,-1],"split_conditions":[6.5E0,3.7E0,9.2E0,2E0,4.3333335E0,9.666667E0,1.2E1,1.3E0,2.7407408E0,2.0666666E1,6.5128207E0,2.0333334E1,1.06E2,5.875E0,4.3E1,7E0,2E-1,2.7E1,1.4666667E1,5.882353E-1,2.0789473E0,4.7E0,8.583333E0,5.0039983E0,4.520548E-1,2E0,4.1665335E0,1.2E0,2.4666666E1,1.14E1,1.2E0,-9.246144E-2,-7.43321E-2,2.4342326E-2,-5.9264403E-2,-3.4528013E-2,-5.0443023E-2,-4.9371023E-2,-2.4994617E-2,-3.5698734E-2,8.246369E-3,9.650124E-2,-5.31694E-3,5.138716E-3,2.4298651E-2,4.7617424E-2,1.73181E-1,3.049973E-2,-1.1244654E-1,4.910816E-2,8.4983364E-2,4.6826772E-2,1.4670113E-1,3.0229148E-1,2.8339991E-2,1.5572082E-1,-1.3289416E-2,9.7559296E-2,1.5662889E-1,-4.6757635E-2,2.6216933E-1,4.6294484E-1,1.7815536E-1],"split_indices":[1,1,1,1,8,10,9,1,8,5,10,5,7,10,7,5,14,7,5,11,10,1,8,3,11,16,3,16,5,1,3,0,0,0,0,0,0,0,0,0,0,0,0,0,0,0,0,0,0,0,0,0,0,0,0,0,0,0,0,0,0,0,0],"split_type":[0,0,0,0,0,0,0,0,0,0,0,0,0,0,0,0,0,0,0,0,0,0,0,0,0,0,0,0,0,0,0,0,0,0,0,0,0,0,0,0,0,0,0,0,0,0,0,0,0,0,0,0,0,0,0,0,0,0,0,0,0,0,0],"sum_hessian":[1.7881E4,1.4874E4,3.007E3,8.214E3,6.66E3,1.998E3,1.009E3,2.44E3,5.774E3,2.928E3,3.732E3,1.883E3,1.15E2,7.34E2,2.75E2,1.035E3,1.405E3,2.364E3,3.41E3,5.91E2,2.337E3,3.227E3,5.05E2,2.01E2,1.682E3,1.03E2,1.2E1,1.5E1,7.19E2,9.1E1,1.84E2,4.41E2,5.94E2,1.8E1,1.387E3,6.75E2,1.689E3,5.86E2,2.824E3,4.98E2,9.3E1,2E1,2.317E3,9.91E2,2.236E3,4.94E2,1.1E1,1.93E2,8E0,3.86E2,1.296E3,1.8E1,8.5E1,1.1E1,1E0,2E0,1.3E1,6E1,6.59E2,3E0,8.8E1,3E0,1.81E2],"tree_param":{"num_deleted":"0","num_feature":"17","num_nodes":"63","size_leaf_vector":"1"}},{"base_weights":[1.4684788E-2,-5.418114E-1,1.4626706E0,-9.754847E-1,-1.4260457E-1,1.0233985E0,3.143311E0,-1.2899475E0,-7.6718843E-1,-2.8880197E-1,4.088611E-1,6.7340916E-1,1.5476679E0,2.7867498E0,4.101768E0,-1.5446917E0,-1.1294137E0,-9.390723E-1,-5.7215244E-1,-4.5444724E-1,-9.215982E-2,2.0465116E-1,5.7452065E-1,5.121067E-1,1.1460618E0,1.4582871E0,2.656116E0,2.936358E0,1.9905221E0,4.9615846E0,3.3670387E0,-7.870019E-2,-3.1181091E-2,-5.9201963E-2,-2.5629008E-2,-5.727285E-2,-4.1486934E-2,-2.930656E-2,1.7801957E-1,-2.9452184E-2,-1.4458874E-2,-6.6980645E-3,3.783173E-2,1.3511571E-2,-6.972235E-2,2.3587268E-2,6.4827845E-2,1.6626097E-3,2.9601956E-2,5.3004444E-2,1.7884867E-1,3.3350017E-2,7.715754E-2,8.597855E-2,1.5274082E-1,1.4426903E-1,3.0610356E-1,7.107156E-2,2.0688692E-1,1.0986396E-1,2.6174048E-1,1.7370854E-1,-7.20194E-2],"categories":[],"categories_nodes":[],"categories_segments":[],"categories_sizes":[],"default_left":[0,0,0,0,0,0,0,0,0,0,0,0,0,0,0,0,0,0,0,0,0,0,0,0,0,0,0,0,0,0,0,0,0,0,0,0,0,0,0,0,0,0,0,0,0,0,0,0,0,0,0,0,0,0,0,0,0,0,0,0,0,0,0],"id":14,"left_children":[1,3,5,7,9,11,13,15,17,19,21,23,25,27,29,31,33,35,37,39,41,43,45,47,49,51,53,55,57,59,61,-1,-1,-1,-1,-1,-1,-1,-1,-1,-1,-1,-1,-1,-1,-1,-1,-1,-1,-1,-1,-1,-1,-1,-1,-1,-1,-1,-1,-1,-1,-1,-1],"loss_changes":[1.4378749E4,2.2313352E3,3.6536973E3,4.0347217E2,5.413273E2,7.196626E2,3.3851465E2,9.858984E1,1.23985596E2,1.7276752E2,4.7402344E1,1.7902124E2,1.5145947E2,8.312305E1,1.5681934E2,2.439331E1,5.0203735E1,4.341748E1,1.0259454E2,6.38067E1,8.6186615E1,6.654178E1,5.679657E1,6.728351E1,1.2093097E2,9.658911E1,3.7584106E1,8.374609E1,1.4264182E2,8.216382E1,8.349194E1,0E0,0E0,0E0,0E0,0E0,0E0,0E0,0E0,0E0,0E0,0E0,0E0,0E0,0E0,0E0,0E0,0E0,0E0,0E0,0E0,0E0,0E0,0E0,0E0,0E0,0E0,0E0,0E0,0E0,0E0,0E0,0E0],"parents":[2147483647,0,0,1,1,2,2,3,3,4,4,5,5,6,6,7,7,8,8,9,9,10,10,11,11,12,12,13,13,14,14,15,15,16,16,17,17,18,18,19,19,20,20,21,21,22,22,23,23,24,24,25,25,26,26,27,27,28,28,29,29,30,30],"right_children":[2,4,6,8,10,12,14,16,18,20,22,24,26,28,30,32,34,36,38,40,42,44,46,48,50,52,54,56,58,60,62,-1,-1,-1,-1,-1,-1,-1,-1,-1,-1,-1,-1,-1,-1,-1,-1,-1,-1,-1,-1,-1,-1,-1,-1,-1,-1,-1,-1,-1,-1,-1,-1],"split_conditions":[5.3E0,3.1E0,9.2E0,2E0,4.8426967E0,6.9E0,1.2E1,1.2931035E0,2.7692308E0,4E0,4.7E0,6.383333E0,9.586206E0,8.9E1,5.2E1,8.2E0,5.4285717E-1,5.8E0,8.2E-1,8.6E0,6.097561E-1,7.027027E0,6.5227275E0,4.142857E0,3.9191835E0,1.2E0,3.2E0,8.7E1,3.9191835E0,1.4E1,1.45E1,-7.870019E-2,-3.1181091E-2,-5.9201963E-2,-2.5629008E-2,-5.727285E-2,-4.1486934E-2,-2.930656E-2,1.7801957E-1,-2.9452184E-2,-1.4458874E-2,-6.6980645E-3,3.783173E-2,1.3511571E-2,-6.972235E-2,2.3587268E-2,6.4827845E-2,1.6626097E-3,2.9601956E-2,5.3004444E-2,1.7884867E-1,3.3350017E-2,7.715754E-2,8.597855E-2,1.5274082E-1,1.4426903E-1,3.0610356E-1,7.107156E-2,2.0688692E-1,1.0986396E-1,2.6174048E-1,1.7370854E-1,-7.20194E-2],"split_indices":[1,1,1,1,2,1,9,2,2,1,1,2,9,7,7,13,11,13,12,13,11,8,8,8,3,16,16,7,3,7,1,0,0,0,0,0,0,0,0,0,0,0,0,0,0,0,0,0,0,0,0,0,0,0,0,0,0,0,0,0,0,0,0],"split_type":[0,0,0,0,0,0,0,0,0,0,0,0,0,0,0,0,0,0,0,0,0,0,0,0,0,0,0,0,0,0,0,0,0,0,0,0,0,0,0,0,0,0,0,0,0,0,0,0,0,0,0,0,0,0,0,0,0,0,0,0,0,0,0],"sum_hessian":[1.7842E4,1.2889E4,4.953E3,6.177E3,6.712E3,3.928E3,1.025E3,2.459E3,3.718E3,5.306E3,1.406E3,2.357E3,1.571E3,7.5E2,2.75E2,9.47E2,1.512E3,1.974E3,1.744E3,2.879E3,2.427E3,6.31E2,7.75E2,1.759E3,5.98E2,1.456E3,1.15E2,6.29E2,1.21E2,1.24E2,1.51E2,9.17E2,3E1,1.388E3,1.24E2,6.8E2,1.294E3,1.739E3,5E0,1.585E3,1.294E3,2.314E3,1.13E2,6.07E2,2.4E1,6.8E2,9.5E1,2.52E2,1.507E3,5.79E2,1.9E1,1.42E2,1.314E3,3.6E1,7.9E1,6.21E2,8E0,9.7E1,2.4E1,1.2E1,1.12E2,1.48E2,3E0],"tree_param":{"num_deleted":"0","num_feature":"17","num_nodes":"63","size_leaf_vector":"1"}},{"base_weights":[7.0711584E-3,-4.5180902E-1,1.540324E0,-8.044281E-1,6.934816E-2,1.1059682E0,3.0601976E0,-1.1557021E0,-5.814772E-1,-8.4058605E-2,3.702462E-1,7.544806E-1,1.54853E0,2.6272411E0,3.7523048E0,-1.4652168E0,-1.0182261E0,-7.749344E-1,-4.3665397E-1,-3.463355E-1,-2.8654123E-3,3.8324174E-1,-2.0648527E0,5.0767064E-1,1.0765654E0,1.4473392E0,2.4321518E0,2.6441433E0,-1.6887203E-1,4.4255843E0,3.3381252E0,-7.705478E-2,-5.1286418E-2,-6.073715E-2,-4.4522744E-2,-3.1027555E-2,-4.7929768E-2,-2.8733611E-2,-1.063367E-2,-2.0614592E-2,7.1696095E-2,-3.689841E-3,1.1672924E-2,1.4232392E-2,3.387785E-2,-1.3122441E-1,4.122979E-3,2.8736724E-2,-3.7937757E-2,4.1492965E-2,7.779817E-2,5.9786994E-2,8.860312E-2,5.841146E-2,1.4638828E-1,1.3006926E-1,2.8211167E-1,2.2526403E-1,-1.4188878E-1,1.748089E-1,-1.523951E-2],"categories":[],"categories_nodes":[],"categories_segments":[],"categories_sizes":[],"default_left":[0,0,0,0,0,0,0,0,0,0,0,0,0,0,0,0,0,0,0,0,0,0,0,0,0,0,0,0,0,0,0,0,0,0,0,0,0,0,0,0,0,0,0,0,0,0,0,0,0,0,0,0,0,0,0,0,0,0,0,0,0],"id":15,"left_children":[1,3,5,7,9,11,13,15,17,19,21,23,25,27,29,31,33,35,37,39,41,43,45,47,49,51,53,55,-1,57,59,-1,-1,-1,-1,-1,-1,-1,-1,-1,-1,-1,-1,-1,-1,-1,-1,-1,-1,-1,-1,-1,-1,-1,-1,-1,-1,-1,-1,-1,-1],"loss_changes":[1.2486522E4,2.5102434E3,2.694956E3,6.372012E2,2.545387E2,4.9342163E2,2.615879E2,1.3280566E2,1.3923352E2,7.7733795E1,5.9546967E1,1.403963E2,1.2189819E2,6.589624E1,8.1214355E1,3.051001E1,5.377246E1,5.9726807E1,8.802588E1,1.01821884E2,4.6769436E1,5.3480713E1,1.2487736E1,8.594354E1,8.9420166E1,1.0093506E2,8.57478E1,5.641382E1,0E0,8.7625E1,1.2747876E2,0E0,0E0,0E0,0E0,0E0,0E0,0E0,0E0,0E0,0E0,0E0,0E0,0E0,0E0,0E0,0E0,0E0,0E0,0E0,0E0,0E0,0E0,0E0,0E0,0E0,0E0,0E0,0E0,0E0,0E0],"parents":[2147483647,0,0,1,1,2,2,3,3,4,4,5,5,6,6,7,7,8,8,9,9,10,10,11,11,12,12,13,13,14,14,15,15,16,16,17,17,18,18,19,19,20,20,21,21,22,22,23,23,24,24,25,25,26,26,27,27,29,29,30,30],"right_children":[2,4,6,8,10,12,14,16,18,20,22,24,26,28,30,32,34,36,38,40,42,44,46,48,50,52,54,56,-1,58,60,-1,-1,-1,-1,-1,-1,-1,-1,-1,-1,-1,-1,-1,-1,-1,-1,-1,-1,-1,-1,-1,-1,-1,-1,-1,-1,-1,-1,-1,-1],"split_conditions":[5.8E0,3.7E0,9.35E0,2.3846154E0,4.9166665E0,7.2E0,1.0904762E1,1.2931035E0,3E0,3.4444444E0,5.0039983E0,6.1666665E0,9.6E0,1.2362069E1,3.224903E0,1.496663E0,4.1237113E-1,5.7E1,8.6E0,6.458333E-1,5.031447E-1,6.255687E-1,5.9E1,3.9698865E0,6.1090225E-1,2.8565714E0,8.4E0,2.24E1,-1.6887203E-1,1.02E2,7.2E0,-7.705478E-2,-5.1286418E-2,-6.073715E-2,-4.4522744E-2,-3.1027555E-2,-4.7929768E-2,-2.8733611E-2,-1.063367E-2,-2.0614592E-2,7.1696095E-2,-3.689841E-3,1.1672924E-2,1.4232392E-2,3.387785E-2,-1.3122441E-1,4.122979E-3,2.8736724E-2,-3.7937757E-2,4.1492965E-2,7.779817E-2,5.9786994E-2,8.860312E-2,5.841146E-2,1.4638828E-1,1.3006926E-1,2.8211167E-1,2.2526403E-1,-1.4188878E-1,1.748089E-1,-1.523951E-2],"split_indices":[1,1,2,10,2,1,2,2,9,2,3,2,1,10,4,3,11,7,13,11,11,12,7,4,12,3,13,13,0,7,16,0,0,0,0,0,0,0,0,0,0,0,0,0,0,0,0,0,0,0,0,0,0,0,0,0,0,0,0,0,0],"split_type":[0,0,0,0,0,0,0,0,0,0,0,0,0,0,0,0,0,0,0,0,0,0,0,0,0,0,0,0,0,0,0,0,0,0,0,0,0,0,0,0,0,0,0,0,0,0,0,0,0,0,0,0,0,0,0,0,0,0,0,0,0],"sum_hessian":[1.7745E4,1.3658E4,4.087E3,8.146E3,5.512E3,3.18E3,9.07E2,3.161E3,4.985E3,3.651E3,1.861E3,1.774E3,1.406E3,5.61E2,3.46E2,9.69E2,2.192E3,2.132E3,2.853E3,8.62E2,2.789E3,1.852E3,9E0,1.006E3,7.68E2,1.264E3,1.42E2,5.6E2,1E0,1.28E2,2.18E2,8.24E2,1.45E2,8.6E2,1.332E3,1.161E3,9.71E2,1.764E3,1.089E3,8.32E2,3E1,2.146E3,6.43E2,1.389E3,4.63E2,7E0,2E0,9.56E2,5E1,5.09E2,2.59E2,7.15E2,5.49E2,4.1E1,1.01E2,5.54E2,6E0,1.27E2,1E0,2.09E2,9E0],"tree_param":{"num_deleted":"0","num_feature":"17","num_nodes":"61","size_leaf_vector":"1"}},{"base_weights":[1.2809515E-2,-3.4906822E-1,1.7915494E0,-8.205591E-1,9.352416E-2,1.3324963E0,2.9668555E0,-1.1785752E0,-6.177012E-1,-1.3893116E-1,4.40917E-1,1.0228637E0,1.6783307E0,2.6047137E0,3.7225847E0,-1.3929195E0,-9.875142E-1,-7.0290935E-1,-3.6286187E-1,-4.8267227E-1,-2.9142814E-2,-6.1456263E-1,4.9256057E-1,6.094758E-1,1.2569001E0,1.559506E0,2.8890662E0,2.5163934E0,4.29711E0,4.226281E0,2.3973458E0,-7.868345E-2,-6.2191945E-2,-5.8288228E-2,-3.783688E-2,-3.6690358E-2,1.4491759E-2,-2.560665E-2,1.8545099E-4,-4.653341E-2,-1.5108463E-2,-3.059345E-3,4.8326742E-2,-6.478444E-2,-1.635467E-2,1.718591E-2,3.4584813E-2,2.337435E-2,1.3170741E-1,-6.537973E-2,6.545048E-2,4.6661373E-2,8.5765965E-2,8.396339E-2,2.085013E-1,1.3449678E-1,9.684644E-2,1.4905019E-1,2.9656777E-1,1.6405833E-1,2.364248E-1,1.824951E-1,6.321328E-2],"categories":[],"categories_nodes":[],"categories_segments":[],"categories_sizes":[],"default_left":[0,0,0,0,0,0,0,0,0,0,0,0,0,0,0,0,0,0,0,0,0,0,0,0,0,0,0,0,0,0,0,0,0,0,0,0,0,0,0,0,0,0,0,0,0,0,0,0,0,0,0,0,0,0,0,0,0,0,0,0,0,0,0],"id":16,"left_children":[1,3,5,7,9,11,13,15,17,19,21,23,25,27,29,31,33,35,37,39,41,43,45,47,49,51,53,55,57,59,61,-1,-1,-1,-1,-1,-1,-1,-1,-1,-1,-1,-1,-1,-1,-1,-1,-1,-1,-1,-1,-1,-1,-1,-1,-1,-1,-1,-1,-1,-1,-1,-1],"loss_changes":[1.1453238E4,3.0854573E3,1.6185166E3,5.190249E2,6.1599695E2,2.2984497E2,2.2065771E2,1.0437207E2,9.8916626E1,1.7240091E2,1.6697821E2,1.0982361E2,1.4193604E2,7.4302734E1,1.7010303E2,3.0554688E1,5.5364258E1,1.0531421E2,6.2869537E1,8.903177E1,1.1052144E2,2.7413704E1,8.608844E1,1.18050446E2,9.926538E1,8.90813E1,1.3188574E2,4.943457E1,3.950003E1,7.624121E1,1.0417612E2,0E0,0E0,0E0,0E0,0E0,0E0,0E0,0E0,0E0,0E0,0E0,0E0,0E0,0E0,0E0,0E0,0E0,0E0,0E0,0E0,0E0,0E0,0E0,0E0,0E0,0E0,0E0,0E0,0E0,0E0,0E0,0E0],"parents":[2147483647,0,0,1,1,2,2,3,3,4,4,5,5,6,6,7,7,8,8,9,9,10,10,11,11,12,12,13,13,14,14,15,15,16,16,17,17,18,18,19,19,20,20,21,21,22,22,23,23,24,24,25,25,26,26,27,27,28,28,29,29,30,30],"right_children":[2,4,6,8,10,12,14,16,18,20,22,24,26,28,30,32,34,36,38,40,42,44,46,48,50,52,54,56,58,60,62,-1,-1,-1,-1,-1,-1,-1,-1,-1,-1,-1,-1,-1,-1,-1,-1,-1,-1,-1,-1,-1,-1,-1,-1,-1,-1,-1,-1,-1,-1,-1,-1],"split_conditions":[6.5E0,3.3461537E0,9.6E0,2.1E0,4.785714E0,7.2222223E0,1.15E1,1.2E1,2.8333334E1,2E1,1.3E1,7E0,9.953271E0,8E0,7.7E1,1.2291666E0,1.3416408E0,6.1849713E-1,3.5E0,1.8547237E0,6E-1,5.0417244E-1,5.5E0,6.637168E-1,1.6333334E1,2E0,1E0,3.5333332E1,1E0,1.12E1,1.13E1,-7.868345E-2,-6.2191945E-2,-5.8288228E-2,-3.783688E-2,-3.6690358E-2,1.4491759E-2,-2.560665E-2,1.8545099E-4,-4.653341E-2,-1.5108463E-2,-3.059345E-3,4.8326742E-2,-6.478444E-2,-1.635467E-2,1.718591E-2,3.4584813E-2,2.337435E-2,1.3170741E-1,-6.537973E-2,6.545048E-2,4.6661373E-2,8.5765965E-2,8.396339E-2,2.085013E-1,1.3449678E-1,9.684644E-2,1.4905019E-1,2.9656777E-1,1.6405833E-1,2.364248E-1,1.824951E-1,6.321328E-2],"split_indices":[1,2,1,1,2,10,2,5,5,5,5,1,2,16,7,2,4,11,1,4,11,12,1,11,5,16,6,5,6,13,1,0,0,0,0,0,0,0,0,0,0,0,0,0,0,0,0,0,0,0,0,0,0,0,0,0,0,0,0,0,0,0,0],"split_type":[0,0,0,0,0,0,0,0,0,0,0,0,0,0,0,0,0,0,0,0,0,0,0,0,0,0,0,0,0,0,0,0,0,0,0,0,0,0,0,0,0,0,0,0,0,0,0,0,0,0,0,0,0,0,0,0,0,0,0,0,0,0,0],"sum_hessian":[1.7791E4,1.4784E4,3.007E3,7.158E3,7.626E3,2.164E3,8.43E2,2.587E3,4.571E3,4.569E3,3.057E3,1.144E3,1.02E3,5.73E2,2.7E2,1.216E3,1.371E3,3.424E3,1.147E3,1.105E3,3.464E3,1.42E2,2.915E3,4.15E2,7.29E2,9.31E2,8.9E1,5.47E2,2.6E1,1.94E2,7.6E1,5.45E2,6.71E2,7.71E2,6E2,3.321E3,1.03E2,8.15E2,3.32E2,3.16E2,7.89E2,3.357E3,1.07E2,4.1E1,1.01E2,1.67E3,1.245E3,3.89E2,2.6E1,1.4E1,7.15E2,1.87E2,7.44E2,4.7E1,4.2E1,4.18E2,1.29E2,1.6E1,1E1,7E1,1.24E2,3.5E1,4.1E1],"tree_param":{"num_deleted":"0","num_feature":"17","num_nodes":"63","size_leaf_vector":"1"}},{"base_weights":[-2.0437837E-2,-4.0114716E-1,1.4299253E0,-7.9048055E-1,1.145866E-2,1.0540315E0,2.7351058E0,-1.1075437E0,-5.924798E-1,-2.2427726E-1,2.3959377E-1,8.438396E-1,1.5842675E0,2.4112892E0,3.667216E0,-1.1476775E0,2.016342E-1,6.674016E-1,-6.255143E-1,-8.2051E-1,-1.542221E-1,-7.329343E-1,2.798447E-1,-2.025424E-1,9.0728176E-1,-2.8068203E-1,1.7113668E0,2.2921057E0,3.6917617E0,4.04476E0,2.7882805E0,-6.385135E-2,-4.2061463E-2,-3.694839E-2,4.133547E-2,2.3207107E-1,2.5931029E-2,-3.647044E-2,-1.8657135E-2,-3.5486024E-2,-7.400661E-2,-1.0113733E-2,6.4125694E-2,-8.9337714E-2,-2.5386108E-2,1.1299956E-2,3.5152595E-2,-2.5600444E-3,-1.017736E-1,3.583466E-2,6.670167E-2,2.4818158E-1,-2.3945589E-2,3.8013708E-2,9.56743E-2,1.8709078E-1,1.1120005E-1,2.0452642E-1,5.122868E-2,1.6674152E-1,2.669565E-1,3.1030819E-2,1.7271012E-1],"categories":[],"categories_nodes":[],"categories_segments":[],"categories_sizes":[],"default_left":[0,0,0,0,0,0,0,0,0,0,0,0,0,0,0,0,0,0,0,0,0,0,0,0,0,0,0,0,0,0,0,0,0,0,0,0,0,0,0,0,0,0,0,0,0,0,0,0,0,0,0,0,0,0,0,0,0,0,0,0,0,0,0],"id":17,"left_children":[1,3,5,7,9,11,13,15,17,19,21,23,25,27,29,31,33,35,37,39,41,43,45,47,49,51,53,55,57,59,61,-1,-1,-1,-1,-1,-1,-1,-1,-1,-1,-1,-1,-1,-1,-1,-1,-1,-1,-1,-1,-1,-1,-1,-1,-1,-1,-1,-1,-1,-1,-1,-1],"loss_changes":[9.866034E3,2.2736423E3,1.819352E3,4.563286E2,3.6962894E2,3.200691E2,2.410708E2,1.4733936E2,1.8707715E2,1.4095581E2,1.3689378E2,1.3760413E2,1.9451709E2,8.540576E1,5.8388184E1,1.0633374E2,5.000723E1,6.507164E1,1.1422522E2,2.467369E1,2.0906287E2,3.1852669E1,7.6201416E1,3.2697514E1,1.575216E2,5.702635E1,1.455293E2,4.7260254E1,4.9540283E1,1.1548877E2,9.41629E1,0E0,0E0,0E0,0E0,0E0,0E0,0E0,0E0,0E0,0E0,0E0,0E0,0E0,0E0,0E0,0E0,0E0,0E0,0E0,0E0,0E0,0E0,0E0,0E0,0E0,0E0,0E0,0E0,0E0,0E0,0E0,0E0],"parents":[2147483647,0,0,1,1,2,2,3,3,4,4,5,5,6,6,7,7,8,8,9,9,10,10,11,11,12,12,13,13,14,14,15,15,16,16,17,17,18,18,19,19,20,20,21,21,22,22,23,23,24,24,25,25,26,26,27,27,28,28,29,29,30,30],"right_children":[2,4,6,8,10,12,14,16,18,20,22,24,26,28,30,32,34,36,38,40,42,44,46,48,50,52,54,56,58,60,62,-1,-1,-1,-1,-1,-1,-1,-1,-1,-1,-1,-1,-1,-1,-1,-1,-1,-1,-1,-1,-1,-1,-1,-1,-1,-1,-1,-1,-1,-1,-1,-1],"split_conditions":[5.7619047E0,3.3461537E0,9.589744E0,1.6666666E1,4.2727275E0,7.6666665E0,1.2375E1,6.1849713E-1,1.4E0,1.4666667E1,1.2666667E1,1.5333333E1,2.0333334E1,6.2E0,3.8E0,1.8466185E0,1.5491934E0,2E-1,2.8E1,2.9257479E0,6E-1,6.3333335E0,5.833333E-1,4.2426405E0,2.87054E0,1.8E0,1.7435596E0,9.157895E0,4.2E0,8E-1,1.44E1,-6.385135E-2,-4.2061463E-2,-3.694839E-2,4.133547E-2,2.3207107E-1,2.5931029E-2,-3.647044E-2,-1.8657135E-2,-3.5486024E-2,-7.400661E-2,-1.0113733E-2,6.4125694E-2,-8.9337714E-2,-2.5386108E-2,1.1299956E-2,3.5152595E-2,-2.5600444E-3,-1.017736E-1,3.583466E-2,6.670167E-2,2.4818158E-1,-2.3945589E-2,3.8013708E-2,9.56743E-2,1.8709078E-1,1.1120005E-1,2.0452642E-1,5.122868E-2,1.6674152E-1,2.669565E-1,3.1030819E-2,1.7271012E-1],"split_indices":[2,2,2,5,2,10,2,11,14,5,5,5,5,14,14,4,4,14,5,3,11,5,11,4,3,13,3,10,15,15,13,0,0,0,0,0,0,0,0,0,0,0,0,0,0,0,0,0,0,0,0,0,0,0,0,0,0,0,0,0,0,0,0],"split_type":[0,0,0,0,0,0,0,0,0,0,0,0,0,0,0,0,0,0,0,0,0,0,0,0,0,0,0,0,0,0,0,0,0,0,0,0,0,0,0,0,0,0,0,0,0,0,0,0,0,0,0,0,0,0,0,0,0,0,0,0,0,0,0],"sum_hessian":[1.7866E4,1.4152E4,3.714E3,7.281E3,6.871E3,2.885E3,8.29E2,2.797E3,4.484E3,3.379E3,3.492E3,2.068E3,8.17E2,6.18E2,2.11E2,2.714E3,8.3E1,1.14E2,4.37E3,3.54E2,3.025E3,1.38E2,3.354E3,1.18E2,1.95E3,5.2E1,7.65E2,5.68E2,5E1,1.45E2,6.6E1,1.906E3,8.08E2,3.3E1,5E1,3E0,1.11E2,3.094E3,1.276E3,3.05E2,4.9E1,2.928E3,9.7E1,2.3E1,1.15E2,2.977E3,3.77E2,1.1E2,8E0,1.35E3,6E2,1E0,5.1E1,1.35E2,6.3E2,2.3E1,5.45E2,4.3E1,7E0,9.6E1,4.9E1,1.6E1,5E1],"tree_param":{"num_deleted":"0","num_feature":"17","num_nodes":"63","size_leaf_vector":"1"}},{"base_weights":[1.08850375E-2,-3.887891E-1,1.3585587E0,-7.3784286E-1,-1.000067E-2,8.971187E-1,2.2793512E0,-1.103667E0,-5.7157815E-1,-1.675833E-1,3.4595475E-1,5.823509E-1,1.1701262E0,1.9424065E0,3.056739E0,-1.2167243E0,-7.2499144E-1,-7.248269E-1,-3.687829E-1,-2.663398E-1,3.5649058E-1,2.6344204E-1,9.099821E-1,3.44123E-1,9.6633875E-1,4.517216E-1,1.2491628E0,1.5961957E0,2.229869E0,2.2792022E0,3.2966008E0,-6.979676E-2,-5.5861603E-2,-3.87021E-2,7.9630606E-2,-2.4229592E-2,-3.983633E-2,6.560027E-2,-1.9759022E-2,-2.3089994E-2,-6.830305E-3,2.6201466E-2,-1.1704488E-2,-8.468809E-2,1.4569427E-2,6.274303E-2,-1.6321464E-2,1.1519912E-2,7.312831E-2,-1.3677145E-2,5.440407E-2,5.0282665E-2,-1.9022146E-2,7.755945E-2,4.5442525E-2,7.414936E-2,1.3241261E-1,1.2916428E-1,8.2725994E-2,1.6901974E-1,4.2797897E-2,1.0939795E-1,1.7817298E-1],"categories":[],"categories_nodes":[],"categories_segments":[],"categories_sizes":[],"default_left":[0,0,0,0,0,0,0,0,0,0,0,0,0,0,0,0,0,0,0,0,0,0,0,0,0,0,0,0,0,0,0,0,0,0,0,0,0,0,0,0,0,0,0,0,0,0,0,0,0,0,0,0,0,0,0,0,0,0,0,0,0,0,0],"id":18,"left_children":[1,3,5,7,9,11,13,15,17,19,21,23,25,27,29,31,33,35,37,39,41,43,45,47,49,51,53,55,57,59,61,-1,-1,-1,-1,-1,-1,-1,-1,-1,-1,-1,-1,-1,-1,-1,-1,-1,-1,-1,-1,-1,-1,-1,-1,-1,-1,-1,-1,-1,-1,-1,-1],"loss_changes":[9.612482E3,1.81976E3,1.7320405E3,4.348816E2,3.7036212E2,2.3296948E2,3.503203E2,9.4694336E1,1.5274512E2,2.3697179E2,9.393182E1,1.15345856E2,8.193787E1,9.0903076E1,6.839453E1,2.8874512E1,5.992334E1,4.7936157E1,9.462146E1,9.7555176E1,7.1985794E1,9.711233E1,1.1051671E2,9.908717E1,7.343713E1,6.774561E1,1.3309302E2,4.758789E1,1.006311E2,1.5340955E2,8.363745E1,0E0,0E0,0E0,0E0,0E0,0E0,0E0,0E0,0E0,0E0,0E0,0E0,0E0,0E0,0E0,0E0,0E0,0E0,0E0,0E0,0E0,0E0,0E0,0E0,0E0,0E0,0E0,0E0,0E0,0E0,0E0,0E0],"parents":[2147483647,0,0,1,1,2,2,3,3,4,4,5,5,6,6,7,7,8,8,9,9,10,10,11,11,12,12,13,13,14,14,15,15,16,16,17,17,18,18,19,19,20,20,21,21,22,22,23,23,24,24,25,25,26,26,27,27,28,28,29,29,30,30],"right_children":[2,4,6,8,10,12,14,16,18,20,22,24,26,28,30,32,34,36,38,40,42,44,46,48,50,52,54,56,58,60,62,-1,-1,-1,-1,-1,-1,-1,-1,-1,-1,-1,-1,-1,-1,-1,-1,-1,-1,-1,-1,-1,-1,-1,-1,-1,-1,-1,-1,-1,-1,-1,-1],"split_conditions":[5.8E0,3.3461537E0,8.5E0,1.4666667E1,4.875E0,6.3076925E0,1.075E1,2.5833333E0,3E0,5.2E0,6.5128207E0,7E0,2.0333334E1,8.8125E0,5.937157E-1,7E0,6.393443E-1,2.7E1,8E-1,2.3666666E1,7.2E0,2.2E0,7.2222223E0,6.1403507E-1,1.9333334E1,4.8E1,4.6E0,4.560702E0,6.4E1,5.696952E-1,1.04E1,-6.979676E-2,-5.5861603E-2,-3.87021E-2,7.9630606E-2,-2.4229592E-2,-3.983633E-2,6.560027E-2,-1.9759022E-2,-2.3089994E-2,-6.830305E-3,2.6201466E-2,-1.1704488E-2,-8.468809E-2,1.4569427E-2,6.274303E-2,-1.6321464E-2,1.1519912E-2,7.312831E-2,-1.3677145E-2,5.440407E-2,5.0282665E-2,-1.9022146E-2,7.755945E-2,4.5442525E-2,7.414936E-2,1.3241261E-1,1.2916428E-1,8.2725994E-2,1.6901974E-1,4.2797897E-2,1.0939795E-1,1.7817298E-1],"split_indices":[1,2,1,5,2,2,10,10,0,0,10,0,5,2,12,5,11,7,14,5,14,0,10,11,5,7,14,3,7,12,0,0,0,0,0,0,0,0,0,0,0,0,0,0,0,0,0,0,0,0,0,0,0,0,0,0,0,0,0,0,0,0,0],"split_type":[0,0,0,0,0,0,0,0,0,0,0,0,0,0,0,0,0,0,0,0,0,0,0,0,0,0,0,0,0,0,0,0,0,0,0,0,0,0,0,0,0,0,0,0,0,0,0,0,0,0,0,0,0,0,0,0,0,0,0,0,0,0,0],"sum_hessian":[1.7844E4,1.3763E4,4.081E3,7.162E3,6.601E3,2.72E3,1.361E3,2.236E3,4.926E3,4.576E3,2.025E3,1.265E3,1.455E3,9.52E2,4.09E2,1.72E3,5.16E2,2.804E3,2.122E3,3.851E3,7.25E2,1.768E3,2.57E2,7.82E2,4.83E2,1.45E2,1.31E3,4.35E2,5.17E2,9.9E1,3.1E2,6.09E2,1.111E3,5.06E2,1E1,6.48E2,2.156E3,3.2E1,2.09E3,1.535E3,2.316E3,5.65E2,1.6E2,2.4E1,1.744E3,2.01E2,5.6E1,7.11E2,7.1E1,4.3E1,4.4E2,8.7E1,5.8E1,6.92E2,6.18E2,3.95E2,4E1,3.18E2,1.99E2,5.5E1,4.4E1,6.2E1,2.48E2],"tree_param":{"num_deleted":"0","num_feature":"17","num_nodes":"63","size_leaf_vector":"1"}},{"base_weights":[3.5425408E-3,-3.718485E-1,1.2901957E0,-6.483778E-1,8.405029E-2,9.13568E-1,2.3598716E0,-9.406588E-1,-4.3702224E-1,-9.638754E-2,2.4686457E-1,7.178044E-1,1.3572179E0,1.8724566E0,2.9447217E0,-1.2639892E0,-8.2091635E-1,-5.8723354E-1,-2.1113516E-1,-1.2238888E0,-6.7347996E-2,1.6414379E-1,6.666692E-1,6.1954534E-1,1.5675513E0,1.4156654E0,-7.691251E-1,5.498125E-1,1.9808304E0,2.7429738E0,4.566254E0,-6.6595554E-2,-4.7840014E-2,-4.8295848E-2,-3.5778295E-2,-4.753767E-2,-2.5841504E-2,-1.6966073E-2,1.783E-2,5.3305447E-2,-8.173792E-2,4.339732E-2,-5.2201706E-3,-5.620452E-4,1.4909814E-2,3.720003E-2,-9.9417046E-2,-2.1860665E-2,3.371206E-2,6.437431E-2,1.5047203E-1,6.834018E-2,1.4597441E-1,5.7590645E-2,-1.18392445E-1,6.945929E-2,-8.662681E-3,8.23763E-2,1.19980834E-1,1.3482215E-1,3.470615E-1,3.1617725E-1,1.2408648E-1],"categories":[],"categories_nodes":[],"categories_segments":[],"categories_sizes":[],"default_left":[0,0,0,0,0,0,0,0,0,0,0,0,0,0,0,0,0,0,0,0,0,0,0,0,0,0,0,0,0,0,0,0,0,0,0,0,0,0,0,0,0,0,0,0,0,0,0,0,0,0,0,0,0,0,0,0,0,0,0,0,0,0,0],"id":19,"left_children":[1,3,5,7,9,11,13,15,17,19,21,23,25,27,29,31,33,35,37,39,41,43,45,47,49,51,53,55,57,59,61,-1,-1,-1,-1,-1,-1,-1,-1,-1,-1,-1,-1,-1,-1,-1,-1,-1,-1,-1,-1,-1,-1,-1,-1,-1,-1,-1,-1,-1,-1,-1,-1],"loss_changes":[8.620155E3,1.7418854E3,1.6214834E3,5.307178E2,1.5330312E2,2.5789355E2,2.930376E2,1.3844263E2,1.6921265E2,8.08252E1,9.5062485E1,1.7181238E2,1.14496216E2,8.107837E1,1.4213574E2,1.8798218E1,3.940796E1,7.608984E1,1.4537985E2,6.0134888E1,8.367801E1,5.394221E1,9.395218E1,1.0776929E2,8.211383E1,6.083081E1,7.962515E1,2.767378E1,6.976074E1,6.334253E1,1.7024512E2,0E0,0E0,0E0,0E0,0E0,0E0,0E0,0E0,0E0,0E0,0E0,0E0,0E0,0E0,0E0,0E0,0E0,0E0,0E0,0E0,0E0,0E0,0E0,0E0,0E0,0E0,0E0,0E0,0E0,0E0,0E0,0E0],"parents":[2147483647,0,0,1,1,2,2,3,3,4,4,5,5,6,6,7,7,8,8,9,9,10,10,11,11,12,12,13,13,14,14,15,15,16,16,17,17,18,18,19,19,20,20,21,21,22,22,23,23,24,24,25,25,26,26,27,27,28,28,29,29,30,30],"right_children":[2,4,6,8,10,12,14,16,18,20,22,24,26,28,30,32,34,36,38,40,42,44,46,48,50,52,54,56,58,60,62,-1,-1,-1,-1,-1,-1,-1,-1,-1,-1,-1,-1,-1,-1,-1,-1,-1,-1,-1,-1,-1,-1,-1,-1,-1,-1,-1,-1,-1,-1,-1,-1],"split_conditions":[5.8E0,3.8E0,9.1E0,2.4E0,4.6E0,7.2352943E0,1.037037E1,1.2931035E0,2.5666666E1,1.1333333E1,5.507246E-1,6.22449E-1,7.253886E-1,7.071429E0,1.4E1,1.7333334E1,4.1237113E-1,2.3703704E0,3.8333333E0,2.7857144E0,4E-1,4.695652E0,1.06E2,1.6666666E1,3.6E0,4.2E0,2.5666666E1,6.318903E-1,6.25E-1,3.6E0,3.847077E0,-6.6595554E-2,-4.7840014E-2,-4.8295848E-2,-3.5778295E-2,-4.753767E-2,-2.5841504E-2,-1.6966073E-2,1.783E-2,5.3305447E-2,-8.173792E-2,4.339732E-2,-5.2201706E-3,-5.620452E-4,1.4909814E-2,3.720003E-2,-9.9417046E-2,-2.1860665E-2,3.371206E-2,6.437431E-2,1.5047203E-1,6.834018E-2,1.4597441E-1,5.7590645E-2,-1.18392445E-1,6.945929E-2,-8.662681E-3,8.23763E-2,1.19980834E-1,1.3482215E-1,3.470615E-1,3.1617725E-1,1.2408648E-1],"split_indices":[1,1,1,1,1,9,9,2,5,5,11,11,12,2,1,5,11,9,2,9,14,8,7,5,16,15,5,12,12,15,3,0,0,0,0,0,0,0,0,0,0,0,0,0,0,0,0,0,0,0,0,0,0,0,0,0,0,0,0,0,0,0,0],"split_type":[0,0,0,0,0,0,0,0,0,0,0,0,0,0,0,0,0,0,0,0,0,0,0,0,0,0,0,0,0,0,0,0,0,0,0,0,0,0,0,0,0,0,0,0,0,0,0,0,0,0,0,0,0,0,0,0,0,0,0,0,0,0,0],"sum_hessian":[1.7845E4,1.3815E4,4.03E3,8.599E3,5.216E3,2.982E3,1.048E3,3.607E3,4.992E3,2.474E3,2.742E3,2.071E3,9.11E2,5.74E2,4.74E2,9.72E2,2.635E3,2.997E3,1.995E3,6.1E1,2.413E3,2.292E3,4.5E2,1.858E3,2.13E2,8.87E2,2.4E1,4.4E1,5.3E2,4.24E2,5E1,7.93E2,1.79E2,1.105E3,1.53E3,4.84E2,2.513E3,1.628E3,3.67E2,9E0,5.2E1,9.1E1,2.322E3,9.93E2,1.299E3,4.38E2,1.2E1,9.1E1,1.767E3,1.8E2,3.3E1,8.61E2,2.6E1,1.1E1,1.3E1,2E1,2.4E1,2.98E2,2.32E2,4.21E2,3E0,2.6E1,2.4E1],"tree_param":{"num_deleted":"0","num_feature":"17","num_nodes":"63","size_leaf_vector":"1"}},{"base_weights":[3.3549478E-3,-3.2560763E-1,1.2626673E0,-6.7881626E-1,3.5310663E-2,9.2929566E-1,2.2722127E0,-1.0132717E0,-5.1550007E-1,-1.8944715E-1,2.767512E-1,6.262749E-1,1.2742451E0,2.154787E0,3.9704263E0,-1.1842147E0,-7.83213E-1,-9.6167E-1,-4.781301E-1,-3.477306E-1,1.163682E-2,1.8342906E-1,8.343583E-1,2.2996284E-1,8.079019E-1,1.1045341E0,1.6903105E0,2.003948E0,2.8537266E0,4.6324177E0,1.5518519E0,-7.8332655E-2,-5.733351E-2,-5.181821E-2,-2.7412672E-2,-2.8461808E-2,-6.2230796E-2,-2.5098557E-2,1.3913604E-2,-2.5324775E-2,-5.8312523E-3,-7.7841757E-4,8.6291626E-2,8.704736E-3,1.3007829E-1,-1.0904669E-1,4.7799226E-2,-1.2717891E-2,2.7164523E-2,-2.6554198E-4,4.5904275E-2,4.7953248E-2,9.3054585E-2,1.8297082E-2,9.6348815E-2,1.9798532E-1,9.750566E-2,2.5135932E-2,1.57485E-1,2.563785E-1,2.713322E-2,-1.10142946E-1,1.6420111E-1],"categories":[],"categories_nodes":[],"categories_segments":[],"categories_sizes":[],"default_left":[0,0,0,0,0,0,0,0,0,0,0,0,0,0,0,0,0,0,0,0,0,0,0,0,0,0,0,0,0,0,0,0,0,0,0,0,0,0,0,0,0,0,0,0,0,0,0,0,0,0,0,0,0,0,0,0,0,0,0,0,0,0,0],"id":20,"left_children":[1,3,5,7,9,11,13,15,17,19,21,23,25,27,29,31,33,35,37,39,41,43,45,47,49,51,53,55,57,59,61,-1,-1,-1,-1,-1,-1,-1,-1,-1,-1,-1,-1,-1,-1,-1,-1,-1,-1,-1,-1,-1,-1,-1,-1,-1,-1,-1,-1,-1,-1,-1,-1],"loss_changes":[7.386464E3,1.8022655E3,1.2404614E3,3.8959912E2,3.7954083E2,2.8938745E2,1.7349512E2,9.10188E1,7.947839E1,1.1531964E2,1.7521423E2,1.0631421E2,8.950659E1,8.435791E1,8.505505E1,1.7201294E1,5.8872498E1,4.019403E1,8.012219E1,7.425217E1,7.462733E1,6.450182E1,1.7909714E2,7.103481E1,9.104285E1,9.973474E1,1.1628943E2,6.644141E1,1.02426636E2,8.777783E1,9.839553E1,0E0,0E0,0E0,0E0,0E0,0E0,0E0,0E0,0E0,0E0,0E0,0E0,0E0,0E0,0E0,0E0,0E0,0E0,0E0,0E0,0E0,0E0,0E0,0E0,0E0,0E0,0E0,0E0,0E0,0E0,0E0,0E0],"parents":[2147483647,0,0,1,1,2,2,3,3,4,4,5,5,6,6,7,7,8,8,9,9,10,10,11,11,12,12,13,13,14,14,15,15,16,16,17,17,18,18,19,19,20,20,21,21,22,22,23,23,24,24,25,25,26,26,27,27,28,28,29,29,30,30],"right_children":[2,4,6,8,10,12,14,16,18,20,22,24,26,28,30,32,34,36,38,40,42,44,46,48,50,52,54,56,58,60,62,-1,-1,-1,-1,-1,-1,-1,-1,-1,-1,-1,-1,-1,-1,-1,-1,-1,-1,-1,-1,-1,-1,-1,-1,-1,-1,-1,-1,-1,-1,-1,-1],"split_conditions":[6.2E0,3.4E0,9.35E0,2.107143E0,4.24E0,7.6E0,1.44E1,1.4666667E1,8.333333E0,2.8E1,6.5128207E0,4.5882353E-1,3.579106E0,4.1472883E0,5.2E1,4E-1,1.360147E0,8E-1,4.875E0,4.7619048E-1,3.3406587E0,7E0,1.2666667E1,5.478261E0,1.9666666E1,6.6581404E-1,5.4210525E0,8.897436E0,2.3E1,2.2E0,3.6E0,-7.8332655E-2,-5.733351E-2,-5.181821E-2,-2.7412672E-2,-2.8461808E-2,-6.2230796E-2,-2.5098557E-2,1.3913604E-2,-2.5324775E-2,-5.8312523E-3,-7.7841757E-4,8.6291626E-2,8.704736E-3,1.3007829E-1,-1.0904669E-1,4.7799226E-2,-1.2717891E-2,2.7164523E-2,-2.6554198E-4,4.5904275E-2,4.7953248E-2,9.3054585E-2,1.8297082E-2,9.6348815E-2,1.9798532E-1,9.750566E-2,2.5135932E-2,1.57485E-1,2.563785E-1,2.713322E-2,-1.10142946E-1,1.6420111E-1],"split_indices":[0,0,2,10,2,0,0,5,5,5,10,11,4,4,7,0,4,14,2,11,4,2,5,10,5,12,9,9,7,15,16,0,0,0,0,0,0,0,0,0,0,0,0,0,0,0,0,0,0,0,0,0,0,0,0,0,0,0,0,0,0,0,0],"split_type":[0,0,0,0,0,0,0,0,0,0,0,0,0,0,0,0,0,0,0,0,0,0,0,0,0,0,0,0,0,0,0,0,0,0,0,0,0,0,0,0,0,0,0,0,0,0,0,0,0,0,0,0,0,0,0,0,0,0,0,0,0,0,0],"sum_hessian":[1.7828E4,1.4136E4,3.692E3,7.144E3,6.992E3,2.777E3,9.15E2,2.342E3,4.802E3,3.621E3,3.371E3,1.48E3,1.297E3,8.58E2,5.7E1,1.341E3,1.001E3,3.69E2,4.433E3,2.026E3,1.595E3,2.889E3,4.82E2,4.66E2,1.014E3,9.24E2,3.73E2,7.09E2,1.49E2,4.4E1,1.3E1,1.16E2,1.225E3,4.8E2,5.21E2,1.56E2,2.13E2,4.298E3,1.35E2,1.2E3,8.26E2,1.571E3,2.4E1,2.879E3,1E1,1.8E1,4.64E2,1.83E2,2.83E2,1.21E2,8.93E2,7.77E2,1.47E2,5.7E1,3.16E2,1.7E1,6.92E2,1.7E1,1.32E2,3.9E1,5E0,4E0,9E0],"tree_param":{"num_deleted":"0","num_feature":"17","num_nodes":"63","size_leaf_vector":"1"}},{"base_weights":[1.2550278E-3,-2.8725955E-1,1.4281504E0,-6.0724235E-1,1.1324945E-1,1.0142586E0,2.2005787E0,-8.871617E-1,-4.3628618E-1,-8.369219E-2,3.613968E-1,7.1763504E-1,1.3085151E0,1.772777E0,2.6355848E0,-1.1404679E0,-7.426481E-1,-6.3192636E-1,-3.539543E-1,-1.7617907E-1,1.7206302E-1,1.6824286E-1,5.849092E-1,6.874418E-1,3.847398E0,1.3599808E0,-6.1250883E-1,1.085918E0,2.173839E0,2.4633973E0,3.4360862E0,-5.846219E-2,-2.4162738E-2,-3.947061E-2,1.5318719E-2,-3.49735E-2,1.4121473E-2,-1.8647766E-2,4.6985462E-2,4.3051E-2,-9.534061E-3,3.0246815E-2,-6.461351E-4,3.152096E-3,2.7512396E-2,6.905297E-2,2.526927E-2,3.0271037E-2,9.220348E-2,2.6592943E-1,7.9336375E-2,5.512009E-2,9.5173724E-2,3.5014022E-2,-1.23771444E-1,7.337107E-3,8.0869794E-2,-6.3764304E-2,1.1047895E-1,9.335895E-2,1.4304781E-1,2.187767E-1,1.3808508E-1],"categories":[],"categories_nodes":[],"categories_segments":[],"categories_sizes":[],"default_left":[0,0,0,0,0,0,0,0,0,0,0,0,0,0,0,0,0,0,0,0,0,0,0,0,0,0,0,0,0,0,0,0,0,0,0,0,0,0,0,0,0,0,0,0,0,0,0,0,0,0,0,0,0,0,0,0,0,0,0,0,0,0,0],"id":21,"left_children":[1,3,5,7,9,11,13,15,17,19,21,23,25,27,29,31,33,35,37,39,41,43,45,47,49,51,53,55,57,59,61,-1,-1,-1,-1,-1,-1,-1,-1,-1,-1,-1,-1,-1,-1,-1,-1,-1,-1,-1,-1,-1,-1,-1,-1,-1,-1,-1,-1,-1,-1,-1,-1],"loss_changes":[7.2819106E3,1.885677E3,9.485591E2,3.9087793E2,3.1942703E2,1.6810095E2,1.8786914E2,1.1244385E2,8.150342E1,8.62259E1,1.2468057E2,8.837537E1,9.700647E1,1.422124E2,6.1517822E1,2.0526855E1,9.727478E1,9.306293E1,8.824426E1,4.0363556E1,7.757998E1,6.2314846E1,8.395267E1,8.971185E1,2.0803223E1,1.3017407E2,6.549716E1,9.741986E1,4.3713867E1,9.4923584E1,4.2954712E1,0E0,0E0,0E0,0E0,0E0,0E0,0E0,0E0,0E0,0E0,0E0,0E0,0E0,0E0,0E0,0E0,0E0,0E0,0E0,0E0,0E0,0E0,0E0,0E0,0E0,0E0,0E0,0E0,0E0,0E0,0E0,0E0],"parents":[2147483647,0,0,1,1,2,2,3,3,4,4,5,5,6,6,7,7,8,8,9,9,10,10,11,11,12,12,13,13,14,14,15,15,16,16,17,17,18,18,19,19,20,20,21,21,22,22,23,23,24,24,25,25,26,26,27,27,28,28,29,29,30,30],"right_children":[2,4,6,8,10,12,14,16,18,20,22,24,26,28,30,32,34,36,38,40,42,44,46,48,50,52,54,56,58,60,62,-1,-1,-1,-1,-1,-1,-1,-1,-1,-1,-1,-1,-1,-1,-1,-1,-1,-1,-1,-1,-1,-1,-1,-1,-1,-1,-1,-1,-1,-1,-1,-1],"split_conditions":[6.5E0,3.7E0,9.1E0,2.3703704E0,4.8333335E0,7.6E0,1.0205129E1,1.1666667E1,2.4E0,5.2E0,5.4E0,2.28E1,7.3660713E-1,5.880579E-1,5E0,2.9E0,3.2E0,5.5825245E-1,5.6E0,2.3E0,1.8973666E0,5.909091E0,2E-1,9E0,1E0,5.416667E-1,7.8E0,9.6E0,5.6666665E0,5.5263156E-1,1.0533334E1,-5.846219E-2,-2.4162738E-2,-3.947061E-2,1.5318719E-2,-3.49735E-2,1.4121473E-2,-1.8647766E-2,4.6985462E-2,4.3051E-2,-9.534061E-3,3.0246815E-2,-6.461351E-4,3.152096E-3,2.7512396E-2,6.905297E-2,2.526927E-2,3.0271037E-2,9.220348E-2,2.6592943E-1,7.9336375E-2,5.512009E-2,9.5173724E-2,3.5014022E-2,-1.23771444E-1,7.337107E-3,8.0869794E-2,-6.3764304E-2,1.1047895E-1,9.335895E-2,1.4304781E-1,2.187767E-1,1.3808508E-1],"split_indices":[1,1,1,9,9,0,9,5,0,0,0,13,12,12,14,8,8,11,8,8,3,9,14,9,6,11,1,1,8,11,9,0,0,0,0,0,0,0,0,0,0,0,0,0,0,0,0,0,0,0,0,0,0,0,0,0,0,0,0,0,0,0,0],"split_type":[0,0,0,0,0,0,0,0,0,0,0,0,0,0,0,0,0,0,0,0,0,0,0,0,0,0,0,0,0,0,0,0,0,0,0,0,0,0,0,0,0,0,0,0,0,0,0,0,0,0,0,0,0,0,0,0,0,0,0,0,0,0,0],"sum_hessian":[1.7686E4,1.4712E4,2.974E3,8.178E3,6.534E3,1.938E3,1.036E3,3.099E3,5.079E3,3.643E3,2.891E3,9.67E2,9.71E2,5.25E2,5.11E2,1.123E3,1.976E3,1.502E3,3.577E3,2.676E3,9.67E2,1.552E3,1.339E3,9.59E2,8E0,9.46E2,2.5E1,1.95E2,3.3E2,4.24E2,8.7E1,1.075E3,4.8E1,1.892E3,8.4E1,1.399E3,1.03E2,3.526E3,5.1E1,3.6E1,2.64E3,2.89E2,6.78E2,1.218E3,3.34E2,1.2E2,1.219E3,8.97E2,6.2E1,4E0,4E0,6.44E2,3.02E2,1.5E1,1E1,7.1E1,1.24E2,3E0,3.27E2,1.72E2,2.52E2,3.4E1,5.3E1],"tree_param":{"num_deleted":"0","num_feature":"17","num_nodes":"63","size_leaf_vector":"1"}},{"base_weights":[-1.5817974E-2,-3.702233E-1,9.105891E-1,-6.609602E-1,-1.0467162E-1,6.350661E-1,1.8308634E0,-1.0059074E0,-5.3539073E-1,-3.2273915E-1,1.6837215E-2,3.824973E-1,9.079083E-1,1.5377259E0,2.2787282E0,-1.0231395E0,9.7329564E-2,-1.0181662E0,-5.054231E-1,-3.3106807E-1,3.7230268E0,-6.887535E-2,1.9712733E-1,-2.6699454E-1,4.4171262E-1,8.7717384E-1,2.5946586E0,1.5606856E0,-1.3154877E0,5.0833592E0,2.1958907E0,-5.4713763E-2,-4.001007E-2,4.476715E-2,-5.315872E-2,-6.2796704E-2,-2.0920968E-2,-5.009395E-2,-2.4316268E-2,-1.683158E-2,2.0983897E-1,7.396207E-2,2.346235E-1,-4.91837E-3,2.2226783E-2,1.1235095E-2,-7.247897E-2,-3.916194E-3,-1.2296363E-1,5.0160885E-3,2.9499799E-2,3.6331724E-2,5.9678536E-2,8.062196E-2,2.2921489E-1,6.589894E-2,9.514286E-2,3.3505056E-2,-1.2504038E-1,3.240934E-1,3.2043796E-2,2.0504813E-1,1.0541808E-1],"categories":[],"categories_nodes":[],"categories_segments":[],"categories_sizes":[],"default_left":[0,0,0,0,0,0,0,0,0,0,0,0,0,0,0,0,0,0,0,0,0,0,0,0,0,0,0,0,0,0,0,0,0,0,0,0,0,0,0,0,0,0,0,0,0,0,0,0,0,0,0,0,0,0,0,0,0,0,0,0,0,0,0],"id":22,"left_children":[1,3,5,7,9,11,13,15,17,19,21,23,25,27,29,31,33,35,37,39,41,43,45,47,49,51,53,55,57,59,61,-1,-1,-1,-1,-1,-1,-1,-1,-1,-1,-1,-1,-1,-1,-1,-1,-1,-1,-1,-1,-1,-1,-1,-1,-1,-1,-1,-1,-1,-1,-1,-1],"loss_changes":[5.837877E3,9.927964E2,1.2460894E3,2.652173E2,1.7817624E2,2.605603E2,1.4486133E2,3.1313477E1,6.4480835E1,8.196814E1,6.6753006E1,7.5862915E1,9.172803E1,4.714807E1,9.172803E1,2.449939E1,2.501366E1,3.6668427E1,3.958313E1,6.1535126E1,3.3176422E0,4.43284E1,6.341004E1,6.780068E1,9.1245544E1,8.4151245E1,5.4524796E1,5.3891235E1,1.5980212E1,6.9687836E1,6.32688E1,0E0,0E0,0E0,0E0,0E0,0E0,0E0,0E0,0E0,0E0,0E0,0E0,0E0,0E0,0E0,0E0,0E0,0E0,0E0,0E0,0E0,0E0,0E0,0E0,0E0,0E0,0E0,0E0,0E0,0E0,0E0,0E0],"parents":[2147483647,0,0,1,1,2,2,3,3,4,4,5,5,6,6,7,7,8,8,9,9,10,10,11,11,12,12,13,13,14,14,15,15,16,16,17,17,18,18,19,19,20,20,21,21,22,22,23,23,24,24,25,25,26,26,27,27,28,28,29,29,30,30],"right_children":[2,4,6,8,10,12,14,16,18,20,22,24,26,28,30,32,34,36,38,40,42,44,46,48,50,52,54,56,58,60,62,-1,-1,-1,-1,-1,-1,-1,-1,-1,-1,-1,-1,-1,-1,-1,-1,-1,-1,-1,-1,-1,-1,-1,-1,-1,-1,-1,-1,-1,-1,-1,-1],"split_conditions":[5.3E0,3.1E0,8.8E0,1.6956521E0,3.59375E0,6.1666665E0,1.0681818E1,2.8442926E0,1.3E0,4.2426405E0,4.8426967E0,5.0176054E-1,4.2E0,1.08E1,1.264911E0,1.5E0,8E-1,4.4537815E-1,6.324555E-1,7.326733E-1,3.2307692E0,3.1368775E0,1.04E1,4.1472883E0,2.2472205E0,2.9393878E0,7.785714E0,4.2E0,2.1354156E0,1E0,4.4973546E-1,-5.4713763E-2,-4.001007E-2,4.476715E-2,-5.315872E-2,-6.2796704E-2,-2.0920968E-2,-5.009395E-2,-2.4316268E-2,-1.683158E-2,2.0983897E-1,7.396207E-2,2.346235E-1,-4.91837E-3,2.2226783E-2,1.1235095E-2,-7.247897E-2,-3.916194E-3,-1.2296363E-1,5.0160885E-3,2.9499799E-2,3.6331724E-2,5.9678536E-2,8.062196E-2,2.2921489E-1,6.589894E-2,9.514286E-2,3.3505056E-2,-1.2504038E-1,3.240934E-1,3.2043796E-2,2.0504813E-1,1.0541808E-1],"split_indices":[1,1,1,10,2,2,8,4,1,4,2,12,15,16,3,9,15,11,3,11,2,4,16,4,4,3,8,16,3,6,11,0,0,0,0,0,0,0,0,0,0,0,0,0,0,0,0,0,0,0,0,0,0,0,0,0,0,0,0,0,0,0,0],"split_type":[0,0,0,0,0,0,0,0,0,0,0,0,0,0,0,0,0,0,0,0,0,0,0,0,0,0,0,0,0,0,0,0,0,0,0,0,0,0,0,0,0,0,0,0,0,0,0,0,0,0,0,0,0,0,0,0,0,0,0,0,0,0,0],"sum_hessian":[1.7779E4,1.286E4,4.919E3,6.138E3,6.722E3,3.787E3,1.132E3,1.636E3,4.502E3,2.405E3,4.317E3,1.968E3,1.819E3,6.87E2,4.45E2,1.611E3,2.5E1,2.61E2,4.241E3,2.401E3,4E0,2.926E3,1.391E3,1.64E2,1.804E3,1.788E3,3.1E1,6.82E2,5E0,1.1E1,4.34E2,1.218E3,3.93E2,1.5E1,1E1,1.86E2,7.5E1,1.55E2,4.086E3,2.399E3,2E0,2E0,2E0,2.768E3,1.58E2,1.369E3,2.2E1,1.52E2,1.2E1,5.47E2,1.257E3,1.214E3,5.74E2,2.2E1,9E0,4.02E2,2.8E2,2E0,3E0,8E0,3E0,1.7E1,4.17E2],"tree_param":{"num_deleted":"0","num_feature":"17","num_nodes":"63","size_leaf_vector":"1"}},{"base_weights":[3.6528734E-3,-2.4334542E-1,1.284443E0,-5.5367655E-1,1.0254552E-1,9.571518E-1,2.0317657E0,-7.828889E-1,-4.1047257E-1,-2.768226E-1,2.1874477E-1,1.3750188E-1,1.0729886E0,1.7306871E0,2.6657536E0,-9.1423887E-1,-5.6582344E-1,-4.404814E-1,4.077249E-2,1.207318E0,-3.102596E-1,1.18382014E-1,5.015729E-1,-2.5269315E-2,2.717638E0,8.039581E-1,1.305914E0,5.519266E-1,1.8501728E0,3.519188E0,1.9965725E0,-6.6100165E-2,-4.3721423E-2,6.2075425E-2,-3.0186499E-2,-2.2276713E-2,1.0851784E-1,-8.5915454E-2,8.838453E-3,-1.3055938E-2,1.3087374E-1,-2.4648378E-2,-1.8758944E-3,6.5795514E-3,-6.175828E-2,2.172153E-1,2.4383863E-2,2.1036234E-2,-4.7340237E-2,-5.904531E-2,1.8995081E-1,1.3164245E-1,3.7408534E-2,5.474452E-2,1.0713047E-1,-5.8167275E-2,5.1870342E-2,1.654694E-1,8.8243954E-2,1.8739352E-1,2.7514575E-2,3.5857942E-2,1.1416651E-1],"categories":[],"categories_nodes":[],"categories_segments":[],"categories_sizes":[],"default_left":[0,0,0,0,0,0,0,0,0,0,0,0,0,0,0,0,0,0,0,0,0,0,0,0,0,0,0,0,0,0,0,0,0,0,0,0,0,0,0,0,0,0,0,0,0,0,0,0,0,0,0,0,0,0,0,0,0,0,0,0,0,0,0],"id":23,"left_children":[1,3,5,7,9,11,13,15,17,19,21,23,25,27,29,31,33,35,37,39,41,43,45,47,49,51,53,55,57,59,61,-1,-1,-1,-1,-1,-1,-1,-1,-1,-1,-1,-1,-1,-1,-1,-1,-1,-1,-1,-1,-1,-1,-1,-1,-1,-1,-1,-1,-1,-1,-1,-1],"loss_changes":[5.6922397E3,1.6192292E3,7.092749E2,2.605437E2,3.1453778E2,1.9199646E2,1.6387573E2,8.646594E1,6.635626E1,8.3307846E1,1.549198E2,1.0617081E2,1.0990515E2,8.366809E1,1.5404395E2,2.9500122E1,7.981436E1,6.1359375E1,7.335368E1,7.7535965E1,8.150357E1,7.215825E1,7.375644E1,9.826877E1,6.798511E1,8.196814E1,1.6488818E2,4.865992E1,6.1732544E1,8.101672E1,5.713037E1,0E0,0E0,0E0,0E0,0E0,0E0,0E0,0E0,0E0,0E0,0E0,0E0,0E0,0E0,0E0,0E0,0E0,0E0,0E0,0E0,0E0,0E0,0E0,0E0,0E0,0E0,0E0,0E0,0E0,0E0,0E0,0E0],"parents":[2147483647,0,0,1,1,2,2,3,3,4,4,5,5,6,6,7,7,8,8,9,9,10,10,11,11,12,12,13,13,14,14,15,15,16,16,17,17,18,18,19,19,20,20,21,21,22,22,23,23,24,24,25,25,26,26,27,27,28,28,29,29,30,30],"right_children":[2,4,6,8,10,12,14,16,18,20,22,24,26,28,30,32,34,36,38,40,42,44,46,48,50,52,54,56,58,60,62,-1,-1,-1,-1,-1,-1,-1,-1,-1,-1,-1,-1,-1,-1,-1,-1,-1,-1,-1,-1,-1,-1,-1,-1,-1,-1,-1,-1,-1,-1,-1,-1],"split_conditions":[6.383333E0,3.6E0,9.35E0,2.3846154E0,3.516129E0,2.0333334E1,1.2E1,1.7333334E1,4.75E0,8E-1,6E0,9E1,5.8504564E-1,2.4666666E1,5.2E1,4.8989794E-1,1.4E0,3.7749171E0,4.5514512E-1,6.25E-1,2.8E1,4.1472883E0,2.6E0,3.1241E0,6.02439E0,2.1666666E1,9.4E0,2.6E1,2.6E1,7.309069E-1,6E1,-6.6100165E-2,-4.3721423E-2,6.2075425E-2,-3.0186499E-2,-2.2276713E-2,1.0851784E-1,-8.5915454E-2,8.838453E-3,-1.3055938E-2,1.3087374E-1,-2.4648378E-2,-1.8758944E-3,6.5795514E-3,-6.175828E-2,2.172153E-1,2.4383863E-2,2.1036234E-2,-4.7340237E-2,-5.904531E-2,1.8995081E-1,1.3164245E-1,3.7408534E-2,5.474452E-2,1.0713047E-1,-5.8167275E-2,5.1870342E-2,1.654694E-1,8.8243954E-2,1.8739352E-1,2.7514575E-2,3.5857942E-2,1.1416651E-1],"split_indices":[2,0,2,10,8,5,9,5,9,14,0,7,12,5,7,3,14,4,12,12,5,4,13,3,9,5,0,7,5,12,7,0,0,0,0,0,0,0,0,0,0,0,0,0,0,0,0,0,0,0,0,0,0,0,0,0,0,0,0,0,0,0,0],"split_type":[0,0,0,0,0,0,0,0,0,0,0,0,0,0,0,0,0,0,0,0,0,0,0,0,0,0,0,0,0,0,0,0,0,0,0,0,0,0,0,0,0,0,0,0,0,0,0,0,0,0,0,0,0,0,0,0,0,0,0,0,0,0,0],"sum_hessian":[1.7991E4,1.5083E4,2.908E3,7.95E3,7.133E3,2.024E3,8.84E2,3.055E3,4.895E3,1.672E3,5.461E3,2.51E2,1.773E3,6.02E2,2.82E2,1.901E3,1.154E3,4.59E3,3.05E2,3.6E1,1.636E3,4.032E3,1.429E3,2.37E2,1.4E1,8.25E2,9.48E2,5.6E1,5.46E2,1.22E2,1.6E2,1.66E2,1.735E3,2.3E1,1.131E3,4.582E3,8E0,2.1E1,2.84E2,1.8E1,1.8E1,9.79E2,6.57E2,3.994E3,3.8E1,4E0,1.425E3,1.6E2,7.7E1,3E0,1.1E1,2.3E1,8.02E2,7.59E2,1.89E2,1.2E1,4.4E1,2.8E1,5.18E2,1.13E2,9E0,3E1,1.3E2],"tree_param":{"num_deleted":"0","num_feature":"17","num_nodes":"63","size_leaf_vector":"1"}},{"base_weights":[-6.75759E-3,-2.8569096E-1,1.0782216E0,-5.457833E-1,3.7261393E-2,6.931104E-1,1.7552875E0,-7.2175753E-1,-3.621253E-1,-2.6714382E-1,1.4224206E-1,6.350313E-1,2.1591752E0,1.5204854E0,2.423956E0,-9.813965E-1,-6.389563E-1,-3.9436492E-1,1.00035496E-1,-2.8460148E-1,2.0875678E0,1.0575835E-1,9.927777E-1,-6.458045E-1,6.8477815E-1,2.4172905E-1,1.9032359E0,1.3226484E0,2.048157E0,-1.8938261E0,2.4681783E0,-5.138222E-2,-2.3108715E-2,-5.2714765E-2,-2.981934E-2,-3.852282E-2,-1.8157449E-2,-1.383965E-3,1.22401014E-1,-2.2389663E-2,-1.3734222E-3,1.2926821E-1,-8.220478E-2,-8.4404625E-2,6.09101E-3,-2.1353044E-2,7.740807E-2,-1.3004059E-2,-9.7321644E-2,1.9259708E-2,4.313738E-2,-3.0129423E-2,1.09181516E-1,6.9089845E-2,-5.1946044E-2,-5.4879844E-2,1.06282786E-1,7.7678743E-3,-2.0353441E-1,1.1468523E-1,1.7618355E-1],"categories":[],"categories_nodes":[],"categories_segments":[],"categories_sizes":[],"default_left":[0,0,0,0,0,0,0,0,0,0,0,0,0,0,0,0,0,0,0,0,0,0,0,0,0,0,0,0,0,0,0,0,0,0,0,0,0,0,0,0,0,0,0,0,0,0,0,0,0,0,0,0,0,0,0,0,0,0,0,0,0],"id":24,"left_children":[1,3,5,7,9,11,13,15,17,19,21,23,25,27,29,31,33,35,37,39,41,43,45,47,49,-1,51,53,55,57,59,-1,-1,-1,-1,-1,-1,-1,-1,-1,-1,-1,-1,-1,-1,-1,-1,-1,-1,-1,-1,-1,-1,-1,-1,-1,-1,-1,-1,-1,-1],"loss_changes":[5.38656E3,1.1893909E3,9.4765234E2,2.5310864E2,2.0189574E2,1.960625E2,2.0300952E2,8.529053E1,5.7284424E1,6.700844E1,1.4556737E2,1.4285486E2,5.038211E1,9.9154785E1,6.984314E1,2.257257E1,5.293799E1,4.1753723E1,7.557777E1,6.7457016E1,2.6636005E1,1.2987842E2,1.5296443E2,4.1414474E1,1.1428052E2,0E0,5.9088684E1,1.0134338E2,6.7040405E1,1.8867107E1,5.3580566E1,0E0,0E0,0E0,0E0,0E0,0E0,0E0,0E0,0E0,0E0,0E0,0E0,0E0,0E0,0E0,0E0,0E0,0E0,0E0,0E0,0E0,0E0,0E0,0E0,0E0,0E0,0E0,0E0,0E0,0E0],"parents":[2147483647,0,0,1,1,2,2,3,3,4,4,5,5,6,6,7,7,8,8,9,9,10,10,11,11,12,12,13,13,14,14,15,15,16,16,17,17,18,18,19,19,20,20,21,21,22,22,23,23,24,24,26,26,27,27,28,28,29,29,30,30],"right_children":[2,4,6,8,10,12,14,16,18,20,22,24,26,28,30,32,34,36,38,40,42,44,46,48,50,-1,52,54,56,58,60,-1,-1,-1,-1,-1,-1,-1,-1,-1,-1,-1,-1,-1,-1,-1,-1,-1,-1,-1,-1,-1,-1,-1,-1,-1,-1,-1,-1,-1,-1],"split_conditions":[6.2E0,3.6E0,8.8E0,2.7037036E0,3.516129E0,9.918919E0,1.0904762E1,1.2931035E0,4.875E0,6.923077E-1,7.071429E0,4.8920378E-1,2.758623E0,3.720215E0,9E0,7E0,7E0,4.5180723E-1,1.74E1,2.8E1,3.4292855E0,1.0333333E1,7.2E0,4.0860215E-1,5.877551E0,2.4172905E-1,2.9816103E0,1.1363636E1,3.96875E0,1.3408163E1,1.44E1,-5.138222E-2,-2.3108715E-2,-5.2714765E-2,-2.981934E-2,-3.852282E-2,-1.8157449E-2,-1.383965E-3,1.22401014E-1,-2.2389663E-2,-1.3734222E-3,1.2926821E-1,-8.220478E-2,-8.4404625E-2,6.09101E-3,-2.1353044E-2,7.740807E-2,-1.3004059E-2,-9.7321644E-2,1.9259708E-2,4.313738E-2,-3.0129423E-2,1.09181516E-1,6.9089845E-2,-5.1946044E-2,-5.4879844E-2,1.06282786E-1,7.7678743E-3,-2.0353441E-1,1.1468523E-1,1.7618355E-1],"split_indices":[0,0,0,2,8,8,2,2,2,11,2,12,4,3,0,13,5,12,13,5,3,5,13,11,8,0,4,8,10,2,0,0,0,0,0,0,0,0,0,0,0,0,0,0,0,0,0,0,0,0,0,0,0,0,0,0,0,0,0,0,0],"split_type":[0,0,0,0,0,0,0,0,0,0,0,0,0,0,0,0,0,0,0,0,0,0,0,0,0,0,0,0,0,0,0,0,0,0,0,0,0,0,0,0,0,0,0,0,0,0,0,0,0,0,0,0,0,0,0,0,0,0,0,0,0],"sum_hessian":[1.7797E4,1.4158E4,3.639E3,7.842E3,6.316E3,2.321E3,1.318E3,4.003E3,3.839E3,1.619E3,4.697E3,2.234E3,8.7E1,9.78E2,3.4E2,9.65E2,3.038E3,3.589E3,2.5E2,1.608E3,1.1E1,4.505E3,1.92E2,8.3E1,2.151E3,6E0,8.1E1,7.14E2,2.64E2,3E0,3.37E2,8.85E2,8E1,2.8E2,2.758E3,2.73E2,3.316E3,2.38E2,1.2E1,9.83E2,6.25E2,1E1,1E0,3.9E1,4.466E3,5.4E1,1.38E2,6.5E1,1.8E1,8.03E2,1.348E3,8E0,7.3E1,6.97E2,1.7E1,6E0,2.58E2,2E0,1E0,2.92E2,4.5E1],"tree_param":{"num_deleted":"0","num_feature":"17","num_nodes":"61","size_leaf_vector":"1"}},{"base_weights":[1.7163907E-3,-2.7695277E-1,9.5728767E-1,-5.540489E-1,-2.7821086E-2,7.0589066E-1,1.8342943E0,-8.5769635E-1,-4.618663E-1,-1.770384E-1,1.2671858E-1,5.046781E-1,1.0177858E0,1.7345092E0,3.4398863E0,-8.705217E-1,3.8803208E-1,-7.881194E-1,-4.1866815E-1,-1.9700556E-1,8.0924606E-1,-1.2686411E0,1.438295E-1,-3.7548593E-1,5.747399E-1,3.1154445E-1,9.9970335E-1,1.6258407E0,2.4953141E0,4.12977E0,-7.719591E-1,-4.4410985E-2,-1.4225383E-4,-5.0704774E-2,6.7035906E-2,-4.048957E-2,1.811978E-1,-2.5859857E-2,-1.4304692E-2,-5.4286756E-2,-8.952815E-3,-1.2361165E-1,5.4417916E-2,-7.280518E-2,1.6261958E-1,4.336452E-3,1.7405106E-2,6.614464E-3,-9.826909E-2,2.6479835E-2,7.3772825E-2,4.0332776E-2,6.750097E-2,3.9335687E-2,8.5901126E-2,2.0402265E-1,8.441569E-2,3.954741E-1,1.4645009E-1,7.524127E-2,-6.632374E-2],"categories":[],"categories_nodes":[],"categories_segments":[],"categories_sizes":[],"default_left":[0,0,0,0,0,0,0,0,0,0,0,0,0,0,0,0,0,0,0,0,0,0,0,0,0,0,0,0,0,0,0,0,0,0,0,0,0,0,0,0,0,0,0,0,0,0,0,0,0,0,0,0,0,0,0,0,0,0,0,0,0],"id":25,"left_children":[1,3,5,7,9,11,13,15,17,19,21,23,25,27,29,31,33,35,37,39,41,43,45,47,49,-1,51,53,55,57,59,-1,-1,-1,-1,-1,-1,-1,-1,-1,-1,-1,-1,-1,-1,-1,-1,-1,-1,-1,-1,-1,-1,-1,-1,-1,-1,-1,-1,-1,-1],"loss_changes":[4.715233E3,9.4630566E2,8.799177E2,1.8113354E2,1.6652061E2,1.9444641E2,1.3610669E2,2.451123E1,6.974927E1,7.245141E1,8.475772E1,1.1690753E2,1.07863525E2,6.497827E1,1.5171362E2,2.2865723E1,2.2764874E1,5.820764E1,5.725934E1,5.7138367E1,6.9413055E1,4.0999718E1,4.0808846E1,1.13466644E2,7.029718E1,0E0,8.086304E1,5.548401E1,1.2429242E2,1.754458E2,1.2078379E1,0E0,0E0,0E0,0E0,0E0,0E0,0E0,0E0,0E0,0E0,0E0,0E0,0E0,0E0,0E0,0E0,0E0,0E0,0E0,0E0,0E0,0E0,0E0,0E0,0E0,0E0,0E0,0E0,0E0,0E0],"parents":[2147483647,0,0,1,1,2,2,3,3,4,4,5,5,6,6,7,7,8,8,9,9,10,10,11,11,12,12,13,13,14,14,15,15,16,16,17,17,18,18,19,19,20,20,21,21,22,22,23,23,24,24,26,26,27,27,28,28,29,29,30,30],"right_children":[2,4,6,8,10,12,14,16,18,20,22,24,26,28,30,32,34,36,38,40,42,44,46,48,50,-1,52,54,56,58,60,-1,-1,-1,-1,-1,-1,-1,-1,-1,-1,-1,-1,-1,-1,-1,-1,-1,-1,-1,-1,-1,-1,-1,-1,-1,-1,-1,-1,-1,-1],"split_conditions":[5.8E0,3.2E0,9.176471E0,1.6470588E0,4.125E0,7.6E0,1.4E1,9.7E1,9E0,6.458333E-1,1.0333333E1,1.7333334E1,2E0,4.4E0,2E0,6.22449E-1,1.0198039E0,6.857143E0,3E0,1.1E1,1.3E1,4.8052053E0,5.638889E0,4.1472883E0,6.637168E-1,3.1154445E-1,7.923077E0,8.2E0,1.04E1,3.7749171E0,1.16E1,-4.4410985E-2,-1.4225383E-4,-5.0704774E-2,6.7035906E-2,-4.048957E-2,1.811978E-1,-2.5859857E-2,-1.4304692E-2,-5.4286756E-2,-8.952815E-3,-1.2361165E-1,5.4417916E-2,-7.280518E-2,1.6261958E-1,4.336452E-3,1.7405106E-2,6.614464E-3,-9.826909E-2,2.6479835E-2,7.3772825E-2,4.0332776E-2,6.750097E-2,3.9335687E-2,8.5901126E-2,2.0402265E-1,8.441569E-2,3.954741E-1,1.4645009E-1,7.524127E-2,-6.632374E-2],"split_indices":[1,0,9,10,9,0,1,7,5,11,5,5,13,3,15,11,3,10,10,5,5,4,10,4,11,0,10,0,1,4,0,0,0,0,0,0,0,0,0,0,0,0,0,0,0,0,0,0,0,0,0,0,0,0,0,0,0,0,0,0,0],"split_type":[0,0,0,0,0,0,0,0,0,0,0,0,0,0,0,0,0,0,0,0,0,0,0,0,0,0,0,0,0,0,0,0,0,0,0,0,0,0,0,0,0,0,0,0,0,0,0,0,0,0,0,0,0,0,0,0,0,0,0,0,0],"sum_hessian":[1.7705E4,1.3708E4,3.997E3,6.489E3,7.219E3,3.108E3,8.89E2,1.509E3,4.98E3,3.673E3,3.546E3,1.891E3,1.217E3,8.39E2,5E1,1.494E3,1.5E1,5.8E2,4.4E3,3.601E3,7.2E1,4.2E1,3.504E3,1.39E2,1.752E3,3E0,1.214E3,7.37E2,1.02E2,4.3E1,7E0,1.464E3,3E1,6E0,9E0,5.78E2,2E0,2.522E3,1.878E3,7E1,3.531E3,5E0,6.7E1,4.1E1,1E0,2.74E3,7.64E2,1.06E2,3.3E1,1.67E3,8.2E1,7.85E2,4.29E2,7.4E1,6.63E2,3.3E1,6.9E1,9E0,3.4E1,1E0,6E0],"tree_param":{"num_deleted":"0","num_feature":"17","num_nodes":"61","size_leaf_vector":"1"}},{"base_weights":[-9.145312E-3,-2.2409727E-1,1.0528595E0,-4.8596E-1,6.88778E-2,8.350228E-1,2.006909E0,-7.1512425E-1,-3.6607558E-1,-2.9998137E-2,4.4988492E-1,5.753913E-1,1.1063048E0,1.7472465E0,2.5376098E0,-8.06474E-1,-4.2040324E-1,-3.9857787E-1,4.6329696E-2,-3.9354283E-1,3.9225984E-2,-1.2206464E0,4.803976E-1,4.1619796E-1,1.1777282E0,-5.2163386E-1,1.1842363E0,1.4837731E0,2.6042588E0,6.534886E0,2.2634473E0,-4.1399814E-2,1.7413374E-2,1.0557959E-1,-2.2808982E-2,-4.7975376E-2,-1.8761486E-2,1.0375656E-2,-2.894337E-2,-4.576945E-2,-1.4375745E-2,3.4709603E-5,3.3709373E-2,1.1610041E-1,-9.8742835E-2,2.0420364E-1,2.3359412E-2,-7.3839235E-3,2.6726088E-2,1.2069575E-1,4.3202337E-2,1.093623E-1,-4.821649E-2,5.741812E-2,1.3971907E-1,-8.693094E-2,7.733788E-2,1.3994634E-1,-3.040409E-4,-4.229456E-2,3.6837766E-1,-6.0989857E-2,1.1994653E-1],"categories":[],"categories_nodes":[],"categories_segments":[],"categories_sizes":[],"default_left":[0,0,0,0,0,0,0,0,0,0,0,0,0,0,0,0,0,0,0,0,0,0,0,0,0,0,0,0,0,0,0,0,0,0,0,0,0,0,0,0,0,0,0,0,0,0,0,0,0,0,0,0,0,0,0,0,0,0,0,0,0,0,0],"id":26,"left_children":[1,3,5,7,9,11,13,15,17,19,21,23,25,27,29,31,33,35,37,39,41,43,45,47,49,51,53,55,57,59,61,-1,-1,-1,-1,-1,-1,-1,-1,-1,-1,-1,-1,-1,-1,-1,-1,-1,-1,-1,-1,-1,-1,-1,-1,-1,-1,-1,-1,-1,-1,-1,-1],"loss_changes":[4.054863E3,1.1334487E3,6.194429E2,2.1394873E2,2.627454E2,1.7077087E2,7.161841E1,7.163721E1,6.873639E1,1.3939536E2,7.3759735E1,1.1892276E2,1.5165686E2,8.062781E1,1.8159143E2,5.111035E1,5.841014E1,6.1715637E1,3.787226E1,4.8639145E1,1.1374881E2,7.402049E1,6.4851166E1,6.603699E1,9.840637E1,6.794348E1,6.201477E1,6.1528687E1,4.450531E1,7.4487335E1,8.327069E1,0E0,0E0,0E0,0E0,0E0,0E0,0E0,0E0,0E0,0E0,0E0,0E0,0E0,0E0,0E0,0E0,0E0,0E0,0E0,0E0,0E0,0E0,0E0,0E0,0E0,0E0,0E0,0E0,0E0,0E0,0E0,0E0],"parents":[2147483647,0,0,1,1,2,2,3,3,4,4,5,5,6,6,7,7,8,8,9,9,10,10,11,11,12,12,13,13,14,14,15,15,16,16,17,17,18,18,19,19,20,20,21,21,22,22,23,23,24,24,25,25,26,26,27,27,28,28,29,29,30,30],"right_children":[2,4,6,8,10,12,14,16,18,20,22,24,26,28,30,32,34,36,38,40,42,44,46,48,50,52,54,56,58,60,62,-1,-1,-1,-1,-1,-1,-1,-1,-1,-1,-1,-1,-1,-1,-1,-1,-1,-1,-1,-1,-1,-1,-1,-1,-1,-1,-1,-1,-1,-1,-1,-1],"split_conditions":[6.3076925E0,3.6E0,1.03125E1,2.2307692E0,6E0,7.6E0,6.5485364E-1,2.0666666E1,5.5825245E-1,3.142857E0,3.5555556E-1,5.915493E-1,2E1,4.8E0,6.4E0,6.333333E-1,1.6E0,7E0,8.4E1,1.6248077E0,6.097561E-1,1.4142135E0,2.6E0,4.351852E-1,6.097561E-1,2.2113345E0,4E1,5.8E0,