{"learner":{"attributes":{"scikit_learn":"{\"_estimator_type\": \"regressor\"}"},"feature_names":[],"feature_types":[],"gradient_booster":{"model":{"gbtree_model_param":{"num_parallel_tree":"1","num_trees":"200"},"iteration_indptr":[0,1,2,3,4,5,6,7,8,9,10,11,12,13,14,15,16,17,18,19,20,21,22,23,24,25,26,27,28,29,30,31,32,33,34,35,36,37,38,39,40,41,42,43,44,45,46,47,48,49,50,51,52,53,54,55,56,57,58,59,60,61,62,63,64,65,66,67,68,69,70,71,72,73,74,75,76,77,78,79,80,81,82,83,84,85,86,87,88,89,90,91,92,93,94,95,96,97,98,99,100,101,102,103,104,105,106,107,108,109,110,111,112,113,114,115,116,117,118,119,120,121,122,123,124,125,126,127,128,129,130,131,132,133,134,135,136,137,138,139,140,141,142,143,144,145,146,147,148,149,150,151,152,153,154,155,156,157,158,159,160,161,162,163,164,165,166,167,168,169,170,171,172,173,174,175,176,177,178,179,180,181,182,183,184,185,186,187,188,189,190,191,192,193,194,195,196,197,198,199,200],"tree_info":[0,0,0,0,0,0,0,0,0,0,0,0,0,0,0,0,0,0,0,0,0,0,0,0,0,0,0,0,0,0,0,0,0,0,0,0,0,0,0,0,0,0,0,0,0,0,0,0,0,0,0,0,0,0,0,0,0,0,0,0,0,0,0,0,0,0,0,0,0,0,0,0,0,0,0,0,0,0,0,0,0,0,0,0,0,0,0,0,0,0,0,0,0,0,0,0,0,0,0,0,0,0,0,0,0,0,0,0,0,0,0,0,0,0,0,0,0,0,0,0,0,0,0,0,0,0,0,0,0,0,0,0,0,0,0,0,0,0,0,0,0,0,0,0,0,0,0,0,0,0,0,0,0,0,0,0,0,0,0,0,0,0,0,0,0,0,0,0,0,0,0,0,0,0,0,0,0,0,0,0,0,0,0,0,0,0,0,0,0,0,0,0,0,0,0,0,0,0,0,0],"trees":[{"base_weights":[-2.3139077E-3,-6.568139E-1,7.586764E-1,-1.0258733E0,-2.0739734E-1,4.473543E-1,1.3956198E0,-1.2622664E0,-8.179315E-1,-2.9445174E-1,1.7376162E-1,2.36601E-1,6.6299146E-1,1.2276057E0,2.1126652E0,-1.3569099E0,-1.0888551E0,-9.2692095E-1,-6.659198E-1,-5.9642285E-1,-2.1693219E-1,-8.93969E-1,2.1643072E-1,-2.277612E-1,2.8442717E-1,6.0514873E-1,1.264365E0,9.641258E-1,1.4320989E0,1.9098991E0,2.3305864E0,-3.2219555E-2,-6.80251E-2,-5.6708094E-2,-4.644876E-2,-5.0492883E-2,-4.2011328E-2,-3.5359256E-2,-1.8491901E-2,-4.80247E-2,-2.6651446E-2,-1.614776E-2,-4.5719086E-3,3.76558E-2,-4.8865452E-2,-8.344641E-3,1.4675461E-2,-1.2314113E-2,1.1265581E-1,6.6149174E-3,2.0422174E-2,2.6771596E-2,4.243198E-2,5.2872922E-2,8.232E-2,-2.1270374E-2,4.9334507E-2,6.2348455E-2,8.246531E-2,3.5287634E-2,9.812894E-2,1.1370691E-1,2.0775966E-1],"categories":[],"categories_nodes":[],"categories_segments":[],"categories_sizes":[],"default_left":[0,0,0,0,0,0,0,0,0,0,0,0,0,0,0,0,0,0,0,0,0,0,0,0,0,0,0,0,0,0,0,0,0,0,0,0,0,0,0,0,0,0,0,0,0,0,0,0,0,0,0,0,0,0,0,0,0,0,0,0,0,0,0],"id":0,"left_children":[1,3,5,7,9,11,13,15,17,19,21,23,25,27,29,31,33,35,37,39,41,43,45,47,49,51,53,55,57,59,61,-1,-1,-1,-1,-1,-1,-1,-1,-1,-1,-1,-1,-1,-1,-1,-1,-1,-1,-1,-1,-1,-1,-1,-1,-1,-1,-1,-1,-1,-1,-1,-1],"loss_changes":[8.877059E3,1.5889478E3,1.6333369E3,2.5736914E2,1.4347395E2,2.5138904E2,3.229536E2,3.8652344E1,4.564612E1,8.216434E1,3.6755257E1,6.2299133E1,9.422009E1,1.1659204E2,1.7748535E1,2.984375E0,5.070923E0,1.0679443E1,1.3974548E1,1.5910049E1,3.7210358E1,5.0137577E0,2.2930252E1,1.2392713E1,4.783156E1,4.1811707E1,1.6880493E1,3.0638367E1,4.7234863E1,1.5538696E1,1.483252E1,0E0,0E0,0E0,0E0,0E0,0E0,0E0,0E0,0E0,0E0,0E0,0E0,0E0,0E0,0E0,0E0,0E0,0E0,0E0,0E0,0E0,0E0,0E0,0E0,0E0,0E0,0E0,0E0,0E0,0E0,0E0,0E0],"parents":[2147483647,0,0,1,1,2,2,3,3,4,4,5,5,6,6,7,7,8,8,9,9,10,10,11,11,12,12,13,13,14,14,15,15,16,16,17,17,18,18,19,19,20,20,21,21,22,22,23,23,24,24,25,25,26,26,27,27,28,28,29,29,30,30],"right_children":[2,4,6,8,10,12,14,16,18,20,22,24,26,28,30,32,34,36,38,40,42,44,46,48,50,52,54,56,58,60,62,-1,-1,-1,-1,-1,-1,-1,-1,-1,-1,-1,-1,-1,-1,-1,-1,-1,-1,-1,-1,-1,-1,-1,-1,-1,-1,-1,-1,-1,-1,-1,-1],"split_conditions":[4E0,7.5609756E-1,2.279661E0,2.5773194E-1,1.5833334E0,1.7625E0,3.4047618E0,1E-1,6E-1,2.2E0,2E0,9.166667E-1,7.6E0,7E0,3.9375E0,3.0017152E-1,1.2E0,1.4E0,3.2E0,1.2E0,1.0930233E0,1.5932204E0,5.163379E-1,5.6E0,4.8E0,2.4E0,2.1818182E0,5.6E0,2.7777777E0,2.2E0,2.6532998E0,-3.2219555E-2,-6.80251E-2,-5.6708094E-2,-4.644876E-2,-5.0492883E-2,-4.2011328E-2,-3.5359256E-2,-1.8491901E-2,-4.80247E-2,-2.6651446E-2,-1.614776E-2,-4.5719086E-3,3.76558E-2,-4.8865452E-2,-8.344641E-3,1.4675461E-2,-1.2314113E-2,1.1265581E-1,6.6149174E-3,2.0422174E-2,2.6771596E-2,4.243198E-2,5.2872922E-2,8.232E-2,-2.1270374E-2,4.9334507E-2,6.2348455E-2,8.246531E-2,3.5287634E-2,9.812894E-2,1.1370691E-1,2.0775966E-1],"split_indices":[14,2,2,2,2,2,2,2,1,14,14,9,14,14,9,12,14,14,14,14,9,2,12,16,14,1,10,13,2,0,4,0,0,0,0,0,0,0,0,0,0,0,0,0,0,0,0,0,0,0,0,0,0,0,0,0,0,0,0,0,0,0,0],"split_type":[0,0,0,0,0,0,0,0,0,0,0,0,0,0,0,0,0,0,0,0,0,0,0,0,0,0,0,0,0,0,0,0,0,0,0,0,0,0,0,0,0,0,0,0,0,0,0,0,0,0,0,0,0,0,0,0,0,0,0,0,0,0,0],"sum_hessian":[1.7821E4,9.581E3,8.24E3,5.26E3,4.321E3,5.536E3,2.704E3,2.459E3,2.801E3,3.518E3,8.03E2,2.801E3,2.735E3,2.193E3,5.11E2,1.586E3,8.73E2,1.628E3,1.173E3,7.17E2,2.801E3,3E1,7.73E2,2.61E2,2.54E3,2.497E3,2.38E2,9.61E2,1.232E3,2.7E2,2.41E2,9E0,1.577E3,6.75E2,1.98E2,8.26E2,8.02E2,1.028E3,1.45E2,1.04E2,6.13E2,1.517E3,1.284E3,1E0,2.9E1,1.29E2,6.44E2,2.6E2,1E0,1.142E3,1.398E3,1.944E3,5.53E2,1.57E2,8.1E1,1.5E1,9.46E2,6.69E2,5.63E2,1.2E1,2.58E2,2.36E2,5E0],"tree_param":{"num_deleted":"0","num_feature":"17","num_nodes":"63","size_leaf_vector":"1"}},{"base_weights":[-2.8762603E-3,-7.381718E-1,6.168279E-1,-1.052976E0,-3.7778264E-1,3.6058083E-1,1.3435619E0,-1.2929446E0,-9.097009E-1,-6.682109E-1,-2.385578E-1,7.1099E-2,5.5097014E-1,1.175979E0,1.9815302E0,-1.2941415E0,-9.191428E-3,-9.4843364E-1,-6.192569E-1,-7.3466444E-1,-4.2615074E-1,-2.817543E-1,1.9830796E-1,-7.944498E-2,2.4754532E-1,4.8573688E-1,1.0639436E0,9.4935584E-1,1.341335E0,2.1086311E0,1.7061124E0,-6.473706E-2,-5.6435713E-3,-5.2180763E-2,-4.3531753E-2,-4.6481974E-2,-2.5641812E-2,-4.0410105E-2,-2.7489906E-2,-2.6153449E-2,1.2523367E-2,-2.1674087E-2,-1.0252902E-2,-2.016709E-3,2.6180571E-2,-5.137119E-3,3.271168E-2,1.4485794E-2,-8.111731E-3,1.6428305E-2,2.9735034E-2,4.509912E-2,6.772698E-2,4.93381E-2,-1.308018E-2,6.001542E-2,7.535314E-2,1.3543576E-2,1.0778854E-1,9.166532E-2,4.0455997E-2],"categories":[],"categories_nodes":[],"categories_segments":[],"categories_sizes":[],"default_left":[0,0,0,0,0,0,0,0,0,0,0,0,0,0,0,0,0,0,0,0,0,0,0,0,0,0,0,0,0,0,0,0,0,0,0,0,0,0,0,0,0,0,0,0,0,0,0,0,0,0,0,0,0,0,0,0,0,0,0,0,0],"id":1,"left_children":[1,3,5,7,9,11,13,15,17,19,21,23,25,27,29,31,-1,33,35,37,39,41,43,45,47,49,51,53,55,57,59,-1,-1,-1,-1,-1,-1,-1,-1,-1,-1,-1,-1,-1,-1,-1,-1,-1,-1,-1,-1,-1,-1,-1,-1,-1,-1,-1,-1,-1,-1],"loss_changes":[8.0930903E3,9.210303E2,1.7941667E3,1.4764795E2,1.5295746E2,3.9269775E2,2.6591797E2,1.762207E0,2.983252E1,1.9308105E1,4.843077E1,7.5183E1,1.4318542E2,7.3144775E1,1.4258911E1,8.5791016E-1,0E0,1.6642334E1,1.0048073E1,1.2484253E1,1.7667229E1,2.6996216E1,1.8002235E1,2.6112782E1,2.2576439E1,6.506476E1,2.1332214E1,3.8561584E1,2.4774902E1,2.9667847E1,1.764801E1,0E0,0E0,0E0,0E0,0E0,0E0,0E0,0E0,0E0,0E0,0E0,0E0,0E0,0E0,0E0,0E0,0E0,0E0,0E0,0E0,0E0,0E0,0E0,0E0,0E0,0E0,0E0,0E0,0E0,0E0],"parents":[2147483647,0,0,1,1,2,2,3,3,4,4,5,5,6,6,7,7,8,8,9,9,10,10,11,11,12,12,13,13,14,14,15,15,17,17,18,18,19,19,20,20,21,21,22,22,23,23,24,24,25,25,26,26,27,27,28,28,29,29,30,30],"right_children":[2,4,6,8,10,12,14,16,18,20,22,24,26,28,30,32,-1,34,36,38,40,42,44,46,48,50,52,54,56,58,60,-1,-1,-1,-1,-1,-1,-1,-1,-1,-1,-1,-1,-1,-1,-1,-1,-1,-1,-1,-1,-1,-1,-1,-1,-1,-1,-1,-1,-1,-1],"split_conditions":[3.4E0,1.8E0,2.3529413E0,1E-1,7.5609756E-1,1.5571429E0,3.4047618E0,2.0588236E-1,8.378378E-1,9E-1,1.7777778E0,4.4E0,2.7E0,7E0,6.197034E-1,3E-1,-9.191428E-3,1E0,4E-1,6.25E-1,3.2E0,8.062258E-1,2.3666666E1,2.1E0,5.254237E-1,5E0,7.6E0,7.084383E-1,2.8222222E0,7E0,3.8E1,-6.473706E-2,-5.6435713E-3,-5.2180763E-2,-4.3531753E-2,-4.6481974E-2,-2.5641812E-2,-4.0410105E-2,-2.7489906E-2,-2.6153449E-2,1.2523367E-2,-2.1674087E-2,-1.0252902E-2,-2.016709E-3,2.6180571E-2,-5.137119E-3,3.271168E-2,1.4485794E-2,-8.111731E-3,1.6428305E-2,2.9735034E-2,4.509912E-2,6.772698E-2,4.93381E-2,-1.308018E-2,6.001542E-2,7.535314E-2,1.3543576E-2,1.0778854E-1,9.166532E-2,4.0455997E-2],"split_indices":[14,14,2,2,2,2,2,10,2,1,8,14,1,14,12,1,0,14,1,10,14,4,5,1,11,14,14,12,8,14,5,0,0,0,0,0,0,0,0,0,0,0,0,0,0,0,0,0,0,0,0,0,0,0,0,0,0,0,0,0,0],"split_type":[0,0,0,0,0,0,0,0,0,0,0,0,0,0,0,0,0,0,0,0,0,0,0,0,0,0,0,0,0,0,0,0,0,0,0,0,0,0,0,0,0,0,0,0,0,0,0,0,0,0,0,0,0,0,0,0,0,0,0,0,0],"sum_hessian":[1.7759E4,8.122E3,9.637E3,4.334E3,3.788E3,7.126E3,2.511E3,1.617E3,2.717E3,1.226E3,2.562E3,2.828E3,4.298E3,1.991E3,5.2E2,1.615E3,2E0,2.395E3,3.22E2,9.6E2,2.66E2,2.332E3,2.3E2,1.526E3,1.302E3,3.815E3,4.83E2,8.43E2,1.148E3,3.51E2,1.69E2,1.614E3,1E0,1.071E3,1.324E3,8E1,2.42E2,6.84E2,2.76E2,2.33E2,3.3E1,7.81E2,1.551E3,1.33E2,9.7E1,1.48E3,4.6E1,1.181E3,1.21E2,1.564E3,2.251E3,3.13E2,1.7E2,8.18E2,2.5E1,6.25E2,5.23E2,9E0,3.42E2,1.47E2,2.2E1],"tree_param":{"num_deleted":"0","num_feature":"17","num_nodes":"61","size_leaf_vector":"1"}},{"base_weights":[6.57097E-4,-6.5182346E-1,6.1346817E-1,-9.8113966E-1,-2.9795277E-1,3.5367626E-1,1.2818779E0,-1.184589E0,-8.126006E-1,-4.5827553E-1,-1.3185224E-1,7.457273E-2,5.210013E-1,1.1369097E0,1.8369406E0,-1.2279098E0,-1.0178094E0,-8.6861074E-1,-6.034212E-1,-5.584436E-1,-3.3942184E-1,-3.874682E-1,-2.3922272E-2,1.9758986E-2,5.4491186E-1,4.6183097E-1,9.732942E-1,4.5300663E-1,1.2054079E0,1.6538875E0,2.2712982E0,-4.9760785E-2,-6.1806746E-2,-5.10916E-2,1.4393332E-2,-3.4468587E-2,-4.472853E-2,-3.501917E-2,-1.3893664E-2,-2.8221218E-2,4.478246E-2,-1.28881475E-2,-2.8020462E-2,-2.6145432E-2,-1.1609452E-2,-6.895584E-3,1.0697181E-2,-1.0828561E-2,6.061279E-3,3.3066265E-2,-4.2459234E-3,-3.7606836E-3,2.432546E-2,1.88772E-2,5.4353334E-2,2.9110638E-2,-1.6525952E-2,5.4169085E-2,6.891567E-2,7.548496E-2,1.0679754E-1,1.3476597E-1,8.996689E-2],"categories":[],"categories_nodes":[],"categories_segments":[],"categories_sizes":[],"default_left":[0,0,0,0,0,0,0,0,0,0,0,0,0,0,0,0,0,0,0,0,0,0,0,0,0,0,0,0,0,0,0,0,0,0,0,0,0,0,0,0,0,0,0,0,0,0,0,0,0,0,0,0,0,0,0,0,0,0,0,0,0,0,0],"id":2,"left_children":[1,3,5,7,9,11,13,15,17,19,21,23,25,27,29,31,33,35,37,39,41,43,45,47,49,51,53,55,57,59,61,-1,-1,-1,-1,-1,-1,-1,-1,-1,-1,-1,-1,-1,-1,-1,-1,-1,-1,-1,-1,-1,-1,-1,-1,-1,-1,-1,-1,-1,-1,-1,-1],"loss_changes":[7.1016836E3,1.0020166E3,1.5898201E3,1.5159619E2,1.10340515E2,3.0798822E2,2.038501E2,1.3091309E1,2.7916016E1,2.4840942E1,5.620279E1,6.371508E1,1.0977466E2,9.461987E1,3.791211E1,1.5993652E0,2.5840454E0,8.168091E0,1.609021E1,1.0412476E1,1.724186E1,1.2526878E1,3.8930763E1,5.3179535E1,1.903054E1,4.8439026E1,3.170642E1,1.9148796E1,3.7272705E1,2.2545776E1,2.551941E1,0E0,0E0,0E0,0E0,0E0,0E0,0E0,0E0,0E0,0E0,0E0,0E0,0E0,0E0,0E0,0E0,0E0,0E0,0E0,0E0,0E0,0E0,0E0,0E0,0E0,0E0,0E0,0E0,0E0,0E0,0E0,0E0],"parents":[2147483647,0,0,1,1,2,2,3,3,4,4,5,5,6,6,7,7,8,8,9,9,10,10,11,11,12,12,13,13,14,14,15,15,16,16,17,17,18,18,19,19,20,20,21,21,22,22,23,23,24,24,25,25,26,26,27,27,28,28,29,29,30,30],"right_children":[2,4,6,8,10,12,14,16,18,20,22,24,26,28,30,32,34,36,38,40,42,44,46,48,50,52,54,56,58,60,62,-1,-1,-1,-1,-1,-1,-1,-1,-1,-1,-1,-1,-1,-1,-1,-1,-1,-1,-1,-1,-1,-1,-1,-1,-1,-1,-1,-1,-1,-1,-1,-1],"split_conditions":[1.3E0,6E-1,2.3529413E0,1.4814815E-1,9.859155E-1,1.5833334E0,3.4047618E0,1E-1,6.5E-1,9E-1,1.7666666E1,2.2E0,2.7E0,2.3333334E1,1.8547237E0,5E0,5.1724136E-1,4.176104E-1,8E-1,1.2916666E0,5.2287585E-1,1E0,1.4027778E0,2.1666666E1,6.779234E-1,1.7E1,3.9E1,4.7959185E-1,2.7777777E0,4.274194E0,1E0,-4.9760785E-2,-6.1806746E-2,-5.10916E-2,1.4393332E-2,-3.4468587E-2,-4.472853E-2,-3.501917E-2,-1.3893664E-2,-2.8221218E-2,4.478246E-2,-1.28881475E-2,-2.8020462E-2,-2.6145432E-2,-1.1609452E-2,-6.895584E-3,1.0697181E-2,-1.0828561E-2,6.061279E-3,3.3066265E-2,-4.2459234E-3,-3.7606836E-3,2.432546E-2,1.88772E-2,5.4353334E-2,2.9110638E-2,-1.6525952E-2,5.4169085E-2,6.891567E-2,7.548496E-2,1.0679754E-1,1.3476597E-1,8.996689E-2],"split_indices":[1,1,2,9,2,2,2,2,2,1,5,1,1,5,3,5,2,12,3,10,11,1,2,5,12,5,7,11,2,9,6,0,0,0,0,0,0,0,0,0,0,0,0,0,0,0,0,0,0,0,0,0,0,0,0,0,0,0,0,0,0,0,0],"split_type":[0,0,0,0,0,0,0,0,0,0,0,0,0,0,0,0,0,0,0,0,0,0,0,0,0,0,0,0,0,0,0,0,0,0,0,0,0,0,0,0,0,0,0,0,0,0,0,0,0,0,0,0,0,0,0,0,0,0,0,0,0,0,0],"sum_hessian":[1.7759E4,8.601E3,9.158E3,4.454E3,4.147E3,6.596E3,2.562E3,2.015E3,2.439E3,2.109E3,2.038E3,2.473E3,4.123E3,2.034E3,5.28E2,1.594E3,4.21E2,1.921E3,5.18E2,1.142E3,9.67E2,6.04E2,1.434E3,2.216E3,2.57E2,3.648E3,4.75E2,1.86E2,1.848E3,3.75E2,1.53E2,5.9E1,1.535E3,4.2E2,1E0,2.47E2,1.674E3,3.98E2,1.2E2,1.138E3,4E0,7.08E2,2.59E2,3.21E2,2.83E2,9.7E2,4.64E2,6.65E2,1.551E3,2.17E2,4E1,1.6E2,3.488E3,7.7E1,3.98E2,1.6E2,2.6E1,1.088E3,7.6E2,2.92E2,8.3E1,7.8E1,7.5E1],"tree_param":{"num_deleted":"0","num_feature":"17","num_nodes":"63","size_leaf_vector":"1"}},{"base_weights":[3.8068553E-3,-5.612596E-1,6.598058E-1,-9.0054095E-1,-1.9330835E-1,4.5505455E-1,1.3205241E0,-1.0510672E0,-6.680553E-1,-3.537971E-1,-9.445072E-3,2.6891562E-1,6.7579657E-1,8.621541E-1,1.5732305E0,-1.1595094E0,-9.18919E-1,-7.6744825E-1,-4.8765114E-1,-5.888984E-1,-3.0978754E-1,-9.086802E-2,2.8808284E-1,1.7154959E-1,4.3077797E-1,4.9443433E-1,8.5424525E-1,8.961975E-1,-3.2661894E-1,1.3374748E0,1.8273848E0,-5.8882024E-2,-5.1180955E-2,-4.876631E-2,-4.1367874E-2,-4.088865E-2,-3.163905E-2,-2.5290508E-2,2.5090043E-2,-3.5730712E-2,-1.620087E-2,-5.320671E-4,-1.6792577E-2,-1.8184464E-2,-1.1209776E-3,1.3158965E-2,1.0559598E-1,4.0182653E-3,1.5300057E-2,-1.10575585E-2,2.2439811E-2,1.3736757E-2,2.8184045E-2,3.7134297E-2,4.9134802E-2,3.8028512E-2,6.751665E-2,-4.783822E-2,2.3204095E-4,6.480103E-2,1.4055549E-1,6.316005E-2,9.556996E-2],"categories":[],"categories_nodes":[],"categories_segments":[],"categories_sizes":[],"default_left":[0,0,0,0,0,0,0,0,0,0,0,0,0,0,0,0,0,0,0,0,0,0,0,0,0,0,0,0,0,0,0,0,0,0,0,0,0,0,0,0,0,0,0,0,0,0,0,0,0,0,0,0,0,0,0,0,0,0,0,0,0,0,0],"id":3,"left_children":[1,3,5,7,9,11,13,15,17,19,21,23,25,27,29,31,33,35,37,39,41,43,45,47,49,51,53,55,57,59,61,-1,-1,-1,-1,-1,-1,-1,-1,-1,-1,-1,-1,-1,-1,-1,-1,-1,-1,-1,-1,-1,-1,-1,-1,-1,-1,-1,-1,-1,-1,-1,-1],"loss_changes":[6.6011323E3,1.1940515E3,1.1140879E3,1.7329688E2,1.3543152E2,2.582948E2,2.2415869E2,4.1990234E1,3.4626892E1,2.5087494E1,5.187346E1,5.370166E1,9.258606E1,2.8476196E1,7.243677E1,2.649414E0,6.067871E0,7.883362E0,1.2813461E1,1.248497E1,1.6078049E1,3.1363232E1,2.0099861E1,2.6111599E1,1.5181168E1,2.151648E1,1.9861572E1,4.0398804E1,4.274489E0,3.5958984E1,2.5755127E1,0E0,0E0,0E0,0E0,0E0,0E0,0E0,0E0,0E0,0E0,0E0,0E0,0E0,0E0,0E0,0E0,0E0,0E0,0E0,0E0,0E0,0E0,0E0,0E0,0E0,0E0,0E0,0E0,0E0,0E0,0E0,0E0],"parents":[2147483647,0,0,1,1,2,2,3,3,4,4,5,5,6,6,7,7,8,8,9,9,10,10,11,11,12,12,13,13,14,14,15,15,16,16,17,17,18,18,19,19,20,20,21,21,22,22,23,23,24,24,25,25,26,26,27,27,28,28,29,29,30,30],"right_children":[2,4,6,8,10,12,14,16,18,20,22,24,26,28,30,32,34,36,38,40,42,44,46,48,50,52,54,56,58,60,62,-1,-1,-1,-1,-1,-1,-1,-1,-1,-1,-1,-1,-1,-1,-1,-1,-1,-1,-1,-1,-1,-1,-1,-1,-1,-1,-1,-1,-1,-1,-1,-1],"split_conditions":[4E0,7E-1,2.5641026E0,1.2E0,1.0930233E0,5.6E0,7.2E0,1.0714286E-1,6.551724E-1,2E0,1.7692307E0,1.8333334E0,2.03125E0,7.0515645E-1,3.25E0,1.0714286E-1,3.5E-1,5.416667E-1,3.6E0,8.333333E-1,1.5E1,2.6E0,1.25E2,4.8E0,1.02E0,1.3846154E0,7E0,6.366571E-1,7.160986E-1,1.16E1,1.0198039E0,-5.8882024E-2,-5.1180955E-2,-4.876631E-2,-4.1367874E-2,-4.088865E-2,-3.163905E-2,-2.5290508E-2,2.5090043E-2,-3.5730712E-2,-1.620087E-2,-5.320671E-4,-1.6792577E-2,-1.8184464E-2,-1.1209776E-3,1.3158965E-2,1.0559598E-1,4.0182653E-3,1.5300057E-2,-1.10575585E-2,2.2439811E-2,1.3736757E-2,2.8184045E-2,3.7134297E-2,4.9134802E-2,3.8028512E-2,6.751665E-2,-4.783822E-2,2.3204095E-4,6.480103E-2,1.4055549E-1,6.316005E-2,9.556996E-2],"split_indices":[14,1,8,14,9,14,14,9,8,14,8,8,9,12,9,8,9,9,14,9,7,14,7,14,9,9,14,12,12,14,3,0,0,0,0,0,0,0,0,0,0,0,0,0,0,0,0,0,0,0,0,0,0,0,0,0,0,0,0,0,0,0,0],"split_type":[0,0,0,0,0,0,0,0,0,0,0,0,0,0,0,0,0,0,0,0,0,0,0,0,0,0,0,0,0,0,0,0,0,0,0,0,0,0,0,0,0,0,0,0,0,0,0,0,0,0,0,0,0,0,0,0,0,0,0,0,0,0,0],"sum_hessian":[1.7806E4,9.566E3,8.24E3,4.976E3,4.59E3,6.292E3,1.948E3,3.018E3,1.958E3,2.45E3,2.14E3,3.415E3,2.877E3,6.94E2,1.254E3,1.653E3,1.365E3,1.26E3,6.98E2,3.84E2,2.066E3,1.681E3,4.59E2,2.134E3,1.281E3,1.429E3,1.448E3,6.75E2,1.9E1,6.54E2,6E2,1.451E3,2.02E2,8.38E2,5.27E2,9.13E2,3.47E2,6.86E2,1.2E1,2.59E2,1.25E2,1.66E2,1.9E3,3.36E2,1.345E3,4.54E2,5E0,1.273E3,8.61E2,3.4E1,1.247E3,3.44E2,1.085E3,7.79E2,6.69E2,5.22E2,1.53E2,6E0,1.3E1,6.38E2,1.6E1,8E1,5.2E2],"tree_param":{"num_deleted":"0","num_feature":"17","num_nodes":"63","size_leaf_vector":"1"}},{"base_weights":[-3.668458E-3,-5.5076253E-1,6.3555396E-1,-8.642759E-1,-2.1103264E-1,3.9299917E-1,1.1900868E0,-1.0727453E0,-7.231466E-1,-5.2731717E-1,-1.3335617E-1,2.283936E-1,5.891455E-1,1.042645E0,1.7321649E0,-1.1129832E0,-9.4577837E-1,-8.070599E-1,-6.2314117E-1,-5.3645694E-1,1.1830973E-1,-2.922022E-1,-7.632407E-4,7.249268E-2,3.550192E-1,5.332896E-1,1.0646721E0,5.041229E-1,1.0882058E0,1.7943486E0,9.630652E-1,-3.6515858E-2,-5.5968013E-2,-4.7679253E-2,-7.022237E-3,-4.3279845E-2,-3.576654E-2,-3.59014E-2,-2.7357707E-2,-4.0763568E-2,-2.387288E-2,-2.1717774E-2,-1.1879603E-2,-2.3208607E-3,2.1462096E-2,-6.2675043E-3,7.3944326E-3,-1.2525446E-2,1.9131145E-2,1.8251592E-1,2.6449857E-2,3.817497E-2,6.864696E-2,1.3689898E-1,2.1307668E-2,2.924876E-2,5.5571258E-2,6.987401E-2,9.947034E-2,9.065536E-2,1.096144E-3],"categories":[],"categories_nodes":[],"categories_segments":[],"categories_sizes":[],"default_left":[0,0,0,0,0,0,0,0,0,0,0,0,0,0,0,0,0,0,0,0,0,0,0,0,0,0,0,0,0,0,0,0,0,0,0,0,0,0,0,0,0,0,0,0,0,0,0,0,0,0,0,0,0,0,0,0,0,0,0,0,0],"id":4,"left_children":[1,3,5,7,9,11,13,15,17,19,21,23,25,27,29,31,33,35,37,39,-1,41,43,45,47,49,51,53,55,57,59,-1,-1,-1,-1,-1,-1,-1,-1,-1,-1,-1,-1,-1,-1,-1,-1,-1,-1,-1,-1,-1,-1,-1,-1,-1,-1,-1,-1,-1,-1],"loss_changes":[6.209178E3,1.0186897E3,1.1006973E3,1.4541504E2,1.1270381E2,1.8375385E2,1.9700977E2,8.98999E0,2.427771E1,2.5020065E1,7.766769E1,6.1128754E1,6.830426E1,4.7406006E1,2.3391602E1,2.699463E0,2.8372803E0,7.873047E0,9.286438E0,1.4335693E1,0E0,1.28559265E1,3.9480106E1,2.0769707E1,2.869136E1,2.8799438E1,2.3991028E1,2.551358E1,2.0294434E1,3.481311E1,3.3377193E1,0E0,0E0,0E0,0E0,0E0,0E0,0E0,0E0,0E0,0E0,0E0,0E0,0E0,0E0,0E0,0E0,0E0,0E0,0E0,0E0,0E0,0E0,0E0,0E0,0E0,0E0,0E0,0E0,0E0,0E0],"parents":[2147483647,0,0,1,1,2,2,3,3,4,4,5,5,6,6,7,7,8,8,9,9,10,10,11,11,12,12,13,13,14,14,15,15,16,16,17,17,18,18,19,19,21,21,22,22,23,23,24,24,25,25,26,26,27,27,28,28,29,29,30,30],"right_children":[2,4,6,8,10,12,14,16,18,20,22,24,26,28,30,32,34,36,38,40,-1,42,44,46,48,50,52,54,56,58,60,-1,-1,-1,-1,-1,-1,-1,-1,-1,-1,-1,-1,-1,-1,-1,-1,-1,-1,-1,-1,-1,-1,-1,-1,-1,-1,-1,-1,-1,-1],"split_conditions":[4E0,6.969697E-1,2.3529413E0,6E-1,2.2E0,1.8356165E0,3.4047618E0,9.090909E-2,4.318182E-1,1.95E0,1.0930233E0,4.8E0,7.6E0,2.3E1,5E0,3.6363637E-1,1.5E1,5.3851646E-1,6E-1,1.2E0,1.1830973E-1,1.7666666E1,1.9333333E0,2.1666666E1,8.8235295E-1,6E-1,3.3333332E1,2.107143E0,1.6E0,1.5E0,1E0,-3.6515858E-2,-5.5968013E-2,-4.7679253E-2,-7.022237E-3,-4.3279845E-2,-3.576654E-2,-3.59014E-2,-2.7357707E-2,-4.0763568E-2,-2.387288E-2,-2.1717774E-2,-1.1879603E-2,-2.3208607E-3,2.1462096E-2,-6.2675043E-3,7.3944326E-3,-1.2525446E-2,1.9131145E-2,1.8251592E-1,2.6449857E-2,3.817497E-2,6.864696E-2,1.3689898E-1,2.1307668E-2,2.924876E-2,5.5571258E-2,6.987401E-2,9.947034E-2,9.065536E-2,1.096144E-3],"split_indices":[14,2,2,14,14,2,2,9,2,2,9,14,14,5,15,12,13,4,15,14,0,5,2,5,9,15,5,8,15,4,6,0,0,0,0,0,0,0,0,0,0,0,0,0,0,0,0,0,0,0,0,0,0,0,0,0,0,0,0,0,0],"split_type":[0,0,0,0,0,0,0,0,0,0,0,0,0,0,0,0,0,0,0,0,0,0,0,0,0,0,0,0,0,0,0,0,0,0,0,0,0,0,0,0,0,0,0,0,0,0,0,0,0,0,0,0,0,0,0,0,0,0,0,0,0],"sum_hessian":[1.7753E4,9.566E3,8.187E3,4.974E3,4.592E3,5.697E3,2.49E3,2.005E3,2.969E3,9.04E2,3.688E3,3.099E3,2.598E3,1.96E3,5.3E2,1.516E3,4.89E2,1.61E3,1.359E3,9.02E2,2E0,1.677E3,2.011E3,1.39E3,1.709E3,2.327E3,2.71E2,1.54E2,1.806E3,4.89E2,4.1E1,2.7E1,1.489E3,4.84E2,5E0,9.77E2,6.33E2,6E2,7.59E2,1.55E2,7.47E2,4.63E2,1.214E3,1.819E3,1.92E2,3.83E2,1.007E3,7.4E1,1.635E3,2E0,2.325E3,1.39E2,1.32E2,4E0,1.5E2,8.1E1,1.725E3,1.64E2,3.25E2,2.1E1,2E1],"tree_param":{"num_deleted":"0","num_feature":"17","num_nodes":"61","size_leaf_vector":"1"}},{"base_weights":[2.0651603E-3,-5.00578E-1,5.9102774E-1,-8.0378747E-1,-1.7041634E-1,4.0108618E-1,1.1572881E0,-9.469137E-1,-5.9049696E-1,-3.1679788E-1,-1.7355476E-3,2.5393933E-1,6.435133E-1,9.0219295E-1,1.4248635E0,-1.041081E0,-8.229208E-1,-6.910367E-1,-4.5603314E-1,-4.593873E-1,-2.4411368E-1,-1.4601396E-1,1.4245103E-1,1.1900581E-1,3.7650296E-1,2.7929613E-1,7.093727E-1,-3.1212574E-2,9.4964314E-1,1.4049258E0,3.0860696E0,-5.2189555E-2,1.7129613E-2,-4.378673E-2,-3.7511643E-2,-2.6010117E-2,-3.7037108E-2,-2.6140705E-2,-1.1899649E-2,-1.9521365E-2,-3.1493176E-2,-3.871685E-3,-1.6437598E-2,-1.6162695E-2,-2.5473668E-3,-1.3427123E-3,1.3044867E-2,2.5235442E-2,3.4462342E-3,2.1737749E-2,5.983237E-3,1.2602157E-2,1.0637496E-1,3.0269256E-2,4.383074E-2,-5.5332363E-2,6.5472573E-3,5.2364565E-2,3.5689853E-2,6.209578E-2,7.798957E-2,3.7907217E-2,1.7540185E-1],"categories":[],"categories_nodes":[],"categories_segments":[],"categories_sizes":[],"default_left":[0,0,0,0,0,0,0,0,0,0,0,0,0,0,0,0,0,0,0,0,0,0,0,0,0,0,0,0,0,0,0,0,0,0,0,0,0,0,0,0,0,0,0,0,0,0,0,0,0,0,0,0,0,0,0,0,0,0,0,0,0,0,0],"id":5,"left_children":[1,3,5,7,9,11,13,15,17,19,21,23,25,27,29,31,33,35,37,39,41,43,45,47,49,51,53,55,57,59,61,-1,-1,-1,-1,-1,-1,-1,-1,-1,-1,-1,-1,-1,-1,-1,-1,-1,-1,-1,-1,-1,-1,-1,-1,-1,-1,-1,-1,-1,-1,-1,-1],"loss_changes":[5.2718535E3,9.6160474E2,8.813423E2,1.521687E2,1.1357437E2,2.1884668E2,1.3902344E2,3.3926514E1,2.6797363E1,2.534404E1,4.4518795E1,6.3146744E1,5.5329163E1,4.693622E1,2.843518E1,6.795044E0,4.163391E0,9.253723E0,1.2394684E1,9.409592E0,2.298558E1,1.7975183E1,2.1487747E1,3.510241E1,2.9860107E1,1.7207588E1,3.345984E1,9.310761E0,2.2244446E1,2.2850708E1,7.7191772E0,0E0,0E0,0E0,0E0,0E0,0E0,0E0,0E0,0E0,0E0,0E0,0E0,0E0,0E0,0E0,0E0,0E0,0E0,0E0,0E0,0E0,0E0,0E0,0E0,0E0,0E0,0E0,0E0,0E0,0E0,0E0,0E0],"parents":[2147483647,0,0,1,1,2,2,3,3,4,4,5,5,6,6,7,7,8,8,9,9,10,10,11,11,12,12,13,13,14,14,15,15,16,16,17,17,18,18,19,19,20,20,21,21,22,22,23,23,24,24,25,25,26,26,27,27,28,28,29,29,30,30],"right_children":[2,4,6,8,10,12,14,16,18,20,22,24,26,28,30,32,34,36,38,40,42,44,46,48,50,52,54,56,58,60,62,-1,-1,-1,-1,-1,-1,-1,-1,-1,-1,-1,-1,-1,-1,-1,-1,-1,-1,-1,-1,-1,-1,-1,-1,-1,-1,-1,-1,-1,-1,-1,-1],"split_conditions":[4E0,7E-1,7.2E0,1.2E0,1.0930233E0,2E0,3.1E0,1.1764706E-1,5.714286E-1,9E-1,2.2E1,5E0,2.3E1,1.5E0,3.1874754E0,6E-1,3E-1,4.763469E-1,2.6E0,6.1715484E-1,4.5833334E-1,2.8E0,1.3E0,4.8728815E-1,3.4333332E1,2.7276363E0,2.4E0,3.617021E-1,4.5614034E-1,3.25E0,2.5E1,-5.2189555E-2,1.7129613E-2,-4.378673E-2,-3.7511643E-2,-2.6010117E-2,-3.7037108E-2,-2.6140705E-2,-1.1899649E-2,-1.9521365E-2,-3.1493176E-2,-3.871685E-3,-1.6437598E-2,-1.6162695E-2,-2.5473668E-3,-1.3427123E-3,1.3044867E-2,2.5235442E-2,3.4462342E-3,2.1737749E-2,5.983237E-3,1.2602157E-2,1.0637496E-1,3.0269256E-2,4.383074E-2,-5.5332363E-2,6.5472573E-3,5.2364565E-2,3.5689853E-2,6.209578E-2,7.798957E-2,3.7907217E-2,1.7540185E-1],"split_indices":[14,1,14,14,9,9,1,9,9,1,5,14,5,9,3,1,1,12,14,12,11,14,1,12,5,3,9,11,11,9,5,0,0,0,0,0,0,0,0,0,0,0,0,0,0,0,0,0,0,0,0,0,0,0,0,0,0,0,0,0,0,0,0],"split_type":[0,0,0,0,0,0,0,0,0,0,0,0,0,0,0,0,0,0,0,0,0,0,0,0,0,0,0,0,0,0,0,0,0,0,0,0,0,0,0,0,0,0,0,0,0,0,0,0,0,0,0,0,0,0,0,0,0,0,0,0,0,0,0],"sum_hessian":[1.7806E4,9.607E3,8.199E3,5.007E3,4.6E3,6.141E3,2.058E3,2.994E3,2.013E3,2.462E3,2.138E3,3.823E3,2.318E3,1.056E3,1.002E3,1.697E3,1.297E3,1.149E3,8.64E2,8.29E2,1.633E3,1.069E3,1.069E3,1.821E3,2.002E3,3.56E2,1.962E3,5.1E1,1.005E3,9.92E2,1E1,1.694E3,3E0,7.44E2,5.53E2,2.62E2,8.87E2,6.6E2,2.04E2,5.93E2,2.36E2,5.51E2,1.082E3,3.72E2,6.97E2,4.4E2,6.29E2,2.08E2,1.613E3,1.631E3,3.71E2,3.52E2,4E0,1.213E3,7.49E2,6E0,4.5E1,7.08E2,2.97E2,4.88E2,5.04E2,2E0,8E0],"tree_param":{"num_deleted":"0","num_feature":"17","num_nodes":"63","size_leaf_vector":"1"}},{"base_weights":[1.955505E-3,-4.7715974E-1,5.687172E-1,-7.5462604E-1,-1.4734931E-1,3.465255E-1,1.0796226E0,-9.642907E-1,-6.2805414E-1,-2.177455E-1,1.5648708E-1,1.942628E-1,5.320217E-1,7.4759096E-1,1.248464E0,-1.0037798E0,-8.327499E-1,-7.0367515E-1,-4.9765328E-1,-4.2681995E-1,-1.604842E-1,-1.5907083E-1,3.006274E-1,1.06040925E-1,3.7306923E-1,4.1817456E-1,7.7774745E-1,7.0836097E-1,1.3897893E0,9.731124E-1,1.3950694E0,-3.5005644E-2,-5.049025E-2,-4.219326E-2,-2.0482017E-2,-3.560383E-2,-1.1005229E-2,-2.751269E-2,-1.8511783E-2,-3.7664887E-2,-1.826172E-2,-1.10099865E-2,-2.1951913E-3,-1.3679162E-2,2.389749E-2,-2.8111755E-3,1.9210218E-2,2.1950617E-3,1.7991548E-2,1.9250598E-2,-4.385864E-2,1.7542309E-1,2.062968E-2,-1.0823943E-2,4.0619552E-2,1.6763506E-2,3.8853433E-2,8.370519E-2,-9.650308E-3,6.3906595E-2,4.231906E-2,2.3046723E-2,7.178258E-2],"categories":[],"categories_nodes":[],"categories_segments":[],"categories_sizes":[],"default_left":[0,0,0,0,0,0,0,0,0,0,0,0,0,0,0,0,0,0,0,0,0,0,0,0,0,0,0,0,0,0,0,0,0,0,0,0,0,0,0,0,0,0,0,0,0,0,0,0,0,0,0,0,0,0,0,0,0,0,0,0,0,0,0],"id":6,"left_children":[1,3,5,7,9,11,13,15,17,19,21,23,25,27,29,31,33,35,37,39,41,43,45,47,49,51,53,55,57,59,61,-1,-1,-1,-1,-1,-1,-1,-1,-1,-1,-1,-1,-1,-1,-1,-1,-1,-1,-1,-1,-1,-1,-1,-1,-1,-1,-1,-1,-1,-1,-1,-1],"loss_changes":[4.8416416E3,8.8398047E2,9.267063E2,1.3847803E2,9.4493675E1,1.6064624E2,1.3761719E2,9.229126E0,3.1824707E1,4.2803925E1,3.78597E1,4.9271378E1,7.133942E1,1.9892609E1,6.456885E1,1.8884277E0,1.7017212E0,8.159668E0,7.7871094E0,1.5094879E1,1.957492E1,1.914943E1,1.708419E1,3.3014427E1,1.571254E1,2.844574E1,2.816925E1,1.9904907E1,2.1621773E1,2.0855347E1,3.95979E1,0E0,0E0,0E0,0E0,0E0,0E0,0E0,0E0,0E0,0E0,0E0,0E0,0E0,0E0,0E0,0E0,0E0,0E0,0E0,0E0,0E0,0E0,0E0,0E0,0E0,0E0,0E0,0E0,0E0,0E0,0E0,0E0],"parents":[2147483647,0,0,1,1,2,2,3,3,4,4,5,5,6,6,7,7,8,8,9,9,10,10,11,11,12,12,13,13,14,14,15,15,16,16,17,17,18,18,19,19,20,20,21,21,22,22,23,23,24,24,25,25,26,26,27,27,28,28,29,29,30,30],"right_children":[2,4,6,8,10,12,14,16,18,20,22,24,26,28,30,32,34,36,38,40,42,44,46,48,50,52,54,56,58,60,62,-1,-1,-1,-1,-1,-1,-1,-1,-1,-1,-1,-1,-1,-1,-1,-1,-1,-1,-1,-1,-1,-1,-1,-1,-1,-1,-1,-1,-1,-1,-1,-1],"split_conditions":[4E0,7.5609756E-1,2.3529413E0,6E-1,1.5833334E0,1.8356165E0,7E0,1.14285715E-1,6E-1,2.2E0,1.8666666E1,5.4E0,2.4E0,2.2449944E0,2.7777777E0,3.3333333E0,8.062258E-1,8.4E-1,6.666667E-1,4E-1,1.2380953E0,4.8412699E-1,1.5517242E0,1.7407408E0,2.2222223E0,6E-1,1.65625E0,2.3E1,2.3853722E0,2.8E0,2.2E0,-3.5005644E-2,-5.049025E-2,-4.219326E-2,-2.0482017E-2,-3.560383E-2,-1.1005229E-2,-2.751269E-2,-1.8511783E-2,-3.7664887E-2,-1.826172E-2,-1.10099865E-2,-2.1951913E-3,-1.3679162E-2,2.389749E-2,-2.8111755E-3,1.9210218E-2,2.1950617E-3,1.7991548E-2,1.9250598E-2,-4.385864E-2,1.7542309E-1,2.062968E-2,-1.0823943E-2,4.0619552E-2,1.6763506E-2,3.8853433E-2,8.370519E-2,-9.650308E-3,6.3906595E-2,4.231906E-2,2.3046723E-2,7.178258E-2],"split_indices":[14,2,2,14,2,2,14,10,1,14,5,14,1,3,2,5,4,8,10,1,2,11,8,10,10,15,8,5,4,15,15,0,0,0,0,0,0,0,0,0,0,0,0,0,0,0,0,0,0,0,0,0,0,0,0,0,0,0,0,0,0,0,0],"split_type":[0,0,0,0,0,0,0,0,0,0,0,0,0,0,0,0,0,0,0,0,0,0,0,0,0,0,0,0,0,0,0,0,0,0,0,0,0,0,0,0,0,0,0,0,0,0,0,0,0,0,0,0,0,0,0,0,0,0,0,0,0,0,0],"sum_hessian":[1.7828E4,9.661E3,8.167E3,5.246E3,4.415E3,5.693E3,2.474E3,1.972E3,3.274E3,3.585E3,8.3E2,3.128E3,2.565E3,8.36E2,1.638E3,1.511E3,4.61E2,2.069E3,1.205E3,7.69E2,2.816E3,2.6E2,5.7E2,2.096E3,1.032E3,1.755E3,8.1E2,7.9E2,4.6E1,5.72E2,1.066E3,3.2E1,1.479E3,4.48E2,1.3E1,2.033E3,3.6E1,8.5E2,3.55E2,1.2E2,6.49E2,1.861E3,9.55E2,2.21E2,3.9E1,1.08E2,4.62E2,1.685E3,4.11E2,1.023E3,9E0,2E0,1.753E3,2.7E1,7.83E2,1.24E2,6.66E2,3.9E1,7E0,1.65E2,4.07E2,4.5E1,1.021E3],"tree_param":{"num_deleted":"0","num_feature":"17","num_nodes":"63","size_leaf_vector":"1"}},{"base_weights":[-1.8742221E-3,-5.345661E-1,4.446554E-1,-7.753498E-1,-2.7457672E-1,2.5831273E-1,9.751974E-1,-9.185277E-1,-6.436838E-1,-4.2023557E-1,-1.443957E-1,9.853033E-2,4.7077236E-1,8.4139246E-1,1.4988865E0,-9.3600315E-1,-7.18734E-1,-6.7923576E-1,-4.4130307E-1,-7.2839457E-1,-3.7578115E-1,-1.9570899E-1,1.5781657E-1,-2.4408907E-1,1.4092343E-1,3.717673E-1,7.191026E-1,3.4147322E-1,8.9218473E-1,1.9478164E0,1.320578E0,-2.822121E-2,-4.7119126E-2,-3.0411825E-2,-4.495678E-2,-3.001309E-2,-3.6339622E-2,-2.3618447E-2,3.5749502E-2,-3.7773274E-2,5.4069846E-3,-2.2234848E-2,-1.3720679E-2,1.2006557E-1,-1.0003572E-2,-3.7970205E-3,2.7310519E-2,-1.3456121E-2,5.0205898E-2,7.238262E-5,1.1337626E-2,1.7592942E-2,3.866407E-2,5.431634E-2,3.0435074E-2,1.4961277E-2,2.0248859E-1,4.3331593E-2,8.196771E-2,8.3942056E-2,1.7128639E-1,4.6443477E-2,7.710834E-2],"categories":[],"categories_nodes":[],"categories_segments":[],"categories_sizes":[],"default_left":[0,0,0,0,0,0,0,0,0,0,0,0,0,0,0,0,0,0,0,0,0,0,0,0,0,0,0,0,0,0,0,0,0,0,0,0,0,0,0,0,0,0,0,0,0,0,0,0,0,0,0,0,0,0,0,0,0,0,0,0,0,0,0],"id":7,"left_children":[1,3,5,7,9,11,13,15,17,19,21,23,25,27,29,31,33,35,37,39,41,43,45,47,49,51,53,55,57,59,61,-1,-1,-1,-1,-1,-1,-1,-1,-1,-1,-1,-1,-1,-1,-1,-1,-1,-1,-1,-1,-1,-1,-1,-1,-1,-1,-1,-1,-1,-1,-1,-1],"loss_changes":[4.2365815E3,5.0812915E2,9.575045E2,7.87312E1,7.396747E1,2.4336676E2,1.7494678E2,6.2042236E0,1.5417236E1,2.486316E1,3.2057686E1,5.95027E1,7.529913E1,5.0559082E1,3.800537E1,3.7050781E0,2.6313477E0,6.4505005E0,1.22393265E1,5.3775864E0,1.1074188E1,2.0267952E1,2.7325436E1,1.42890415E1,4.3611427E1,1.7225159E1,3.468399E1,2.7650045E1,3.311487E1,5.0583862E1,3.0348938E1,0E0,0E0,0E0,0E0,0E0,0E0,0E0,0E0,0E0,0E0,0E0,0E0,0E0,0E0,0E0,0E0,0E0,0E0,0E0,0E0,0E0,0E0,0E0,0E0,0E0,0E0,0E0,0E0,0E0,0E0,0E0,0E0],"parents":[2147483647,0,0,1,1,2,2,3,3,4,4,5,5,6,6,7,7,8,8,9,9,10,10,11,11,12,12,13,13,14,14,15,15,16,16,17,17,18,18,19,19,20,20,21,21,22,22,23,23,24,24,25,25,26,26,27,27,28,28,29,29,30,30],"right_children":[2,4,6,8,10,12,14,16,18,20,22,24,26,28,30,32,34,36,38,40,42,44,46,48,50,52,54,56,58,60,62,-1,-1,-1,-1,-1,-1,-1,-1,-1,-1,-1,-1,-1,-1,-1,-1,-1,-1,-1,-1,-1,-1,-1,-1,-1,-1,-1,-1,-1,-1,-1,-1],"split_conditions":[3.4E0,5.625E-1,2.3529413E0,2E-1,9E-1,1.7857143E0,3.4047618E0,2.6666668E-1,9E-1,1.2E0,1.5833334E0,8.8235295E-1,2.4E0,2.3333334E1,4.2666668E-1,3.0017152E-1,7E1,4.5128205E-1,6.8E-1,9.5E1,2.4E0,3.899603E-1,2.3666666E1,3.7E1,2.4333334E1,7.4E0,4.3137255E-1,2.291288E0,1.06E1,5.702147E-1,3.7666667E0,-2.822121E-2,-4.7119126E-2,-3.0411825E-2,-4.495678E-2,-3.001309E-2,-3.6339622E-2,-2.3618447E-2,3.5749502E-2,-3.7773274E-2,5.4069846E-3,-2.2234848E-2,-1.3720679E-2,1.2006557E-1,-1.0003572E-2,-3.7970205E-3,2.7310519E-2,-1.3456121E-2,5.0205898E-2,7.238262E-5,1.1337626E-2,1.7592942E-2,3.866407E-2,5.431634E-2,3.0435074E-2,1.4961277E-2,2.0248859E-1,4.3331593E-2,8.196771E-2,8.3942056E-2,1.7128639E-1,4.6443477E-2,7.710834E-2],"split_indices":[14,2,2,1,1,2,2,10,4,14,2,9,1,5,11,12,7,11,9,7,14,12,5,5,5,14,11,4,14,12,9,0,0,0,0,0,0,0,0,0,0,0,0,0,0,0,0,0,0,0,0,0,0,0,0,0,0,0,0,0,0,0,0],"split_type":[0,0,0,0,0,0,0,0,0,0,0,0,0,0,0,0,0,0,0,0,0,0,0,0,0,0,0,0,0,0,0,0,0,0,0,0,0,0,0,0,0,0,0,0,0,0,0,0,0,0,0,0,0,0,0,0,0,0,0,0,0,0,0],"sum_hessian":[1.7809E4,8.121E3,9.688E3,4.215E3,3.906E3,7.171E3,2.517E3,2.016E3,2.199E3,1.842E3,2.064E3,4.094E3,3.077E3,2.007E3,5.1E2,1.85E3,1.66E2,1.868E3,3.31E2,2.3E2,1.612E3,1.765E3,2.99E2,4.5E2,3.644E3,2.202E3,8.75E2,1.86E2,1.821E3,1.42E2,3.68E2,3.3E1,1.817E3,1.06E2,6E1,7.08E2,1.16E3,3.23E2,8E0,2.23E2,7E0,9.57E2,6.55E2,2E0,1.763E3,1.87E2,1.12E2,4.42E2,8E0,1.389E3,2.255E3,2.1E3,1.02E2,2E2,6.75E2,1.85E2,1E0,1.763E3,5.8E1,1.22E2,2E1,1.35E2,2.33E2],"tree_param":{"num_deleted":"0","num_feature":"17","num_nodes":"63","size_leaf_vector":"1"}},{"base_weights":[-1.2019076E-3,-3.9681375E-1,5.652668E-1,-7.324455E-1,-1.5561032E-1,3.4377506E-1,9.763991E-1,-9.0688306E-1,-6.340986E-1,-3.2927096E-1,-3.808783E-2,2.7530006E-1,6.048029E-1,8.473769E-1,1.4492439E0,-7.033946E-1,-9.152011E-1,-7.0345163E-1,-5.24073E-1,-4.5714837E-1,-2.5454432E-1,-1.944073E-1,5.3937797E-2,-7.151825E-2,3.191803E-1,4.0799993E-1,7.8318405E-1,2.519085E-1,9.007379E-1,1.2373312E0,1.9071839E0,-3.6812343E-2,-0E0,-4.580773E-2,-4.74816E-3,-3.5655223E-2,-2.5006298E-2,-3.0223344E-2,-1.9411713E-2,5.3220518E-2,-2.376742E-2,-2.2245826E-2,-9.9986335E-3,-1.054255E-2,2.0557547E-2,8.917097E-3,-6.0271765E-3,-9.805104E-3,1.0802962E-2,1.1029112E-2,1.9783465E-2,1.816774E-2,6.744977E-2,4.256363E-2,5.533816E-3,8.340777E-2,8.967512E-3,3.9187007E-2,5.3650983E-2,6.638868E-2,2.7578417E-2,1.567991E-1,8.845857E-2],"categories":[],"categories_nodes":[],"categories_segments":[],"categories_sizes":[],"default_left":[0,0,0,0,0,0,0,0,0,0,0,0,0,0,0,0,0,0,0,0,0,0,0,0,0,0,0,0,0,0,0,0,0,0,0,0,0,0,0,0,0,0,0,0,0,0,0,0,0,0,0,0,0,0,0,0,0,0,0,0,0,0,0],"id":8,"left_children":[1,3,5,7,9,11,13,15,17,19,21,23,25,27,29,31,33,35,37,39,41,43,45,47,49,51,53,55,57,59,61,-1,-1,-1,-1,-1,-1,-1,-1,-1,-1,-1,-1,-1,-1,-1,-1,-1,-1,-1,-1,-1,-1,-1,-1,-1,-1,-1,-1,-1,-1,-1,-1],"loss_changes":[4.0062498E3,8.5193506E2,6.689319E2,7.477173E1,1.24976425E2,8.5164795E1,1.5551465E2,1.8754883E0,2.1011475E1,2.343454E1,5.260316E1,5.769519E1,3.4386444E1,6.396985E1,5.0699585E1,1.542614E0,9.991455E-1,2.9076538E0,1.161319E1,2.564711E1,1.608442E1,1.3559238E1,4.9973244E1,1.5302889E1,2.5213715E1,1.925177E1,2.3574615E1,1.6779818E1,3.6404053E1,2.258606E1,2.3130798E1,0E0,0E0,0E0,0E0,0E0,0E0,0E0,0E0,0E0,0E0,0E0,0E0,0E0,0E0,0E0,0E0,0E0,0E0,0E0,0E0,0E0,0E0,0E0,0E0,0E0,0E0,0E0,0E0,0E0,0E0,0E0,0E0],"parents":[2147483647,0,0,1,1,2,2,3,3,4,4,5,5,6,6,7,7,8,8,9,9,10,10,11,11,12,12,13,13,14,14,15,15,16,16,17,17,18,18,19,19,20,20,21,21,22,22,23,23,24,24,25,25,26,26,27,27,28,28,29,29,30,30],"right_children":[2,4,6,8,10,12,14,16,18,20,22,24,26,28,30,32,34,36,38,40,42,44,46,48,50,52,54,56,58,60,62,-1,-1,-1,-1,-1,-1,-1,-1,-1,-1,-1,-1,-1,-1,-1,-1,-1,-1,-1,-1,-1,-1,-1,-1,-1,-1,-1,-1,-1,-1,-1,-1],"split_conditions":[1.5454545E0,6E-1,2.3529413E0,1E-1,9.859155E-1,2.4E0,3.4047618E0,5E0,4.5360824E-1,5.2E0,2.1666666E1,1.8666666E1,6E1,2.3E1,1.8547237E0,4E-1,3E-1,8.062258E-1,1.7666666E1,4.8989794E-1,5.769231E-1,2.3E0,4.827586E-1,6.4E0,1.8356165E0,3.2E0,1.84E1,1E0,2.7777777E0,3.8E1,3.2857144E0,-3.6812343E-2,-0E0,-4.580773E-2,-4.74816E-3,-3.5655223E-2,-2.5006298E-2,-3.0223344E-2,-1.9411713E-2,5.3220518E-2,-2.376742E-2,-2.2245826E-2,-9.9986335E-3,-1.054255E-2,2.0557547E-2,8.917097E-3,-6.0271765E-3,-9.805104E-3,1.0802962E-2,1.1029112E-2,1.9783465E-2,1.816774E-2,6.744977E-2,4.256363E-2,5.533816E-3,8.340777E-2,8.967512E-3,3.9187007E-2,5.3650983E-2,6.638868E-2,2.7578417E-2,1.567991E-1,8.845857E-2],"split_indices":[2,1,2,2,2,1,2,5,2,13,5,5,7,5,3,3,1,4,5,4,2,1,11,13,2,1,13,15,2,5,8,0,0,0,0,0,0,0,0,0,0,0,0,0,0,0,0,0,0,0,0,0,0,0,0,0,0,0,0,0,0,0,0],"split_type":[0,0,0,0,0,0,0,0,0,0,0,0,0,0,0,0,0,0,0,0,0,0,0,0,0,0,0,0,0,0,0,0,0,0,0,0,0,0,0,0,0,0,0,0,0,0,0,0,0,0,0,0,0,0,0,0,0,0,0,0,0,0,0],"sum_hessian":[1.7875E4,1.0525E4,7.35E3,4.4E3,6.125E3,4.778E3,2.572E3,1.583E3,2.817E3,2.471E3,3.654E3,3.787E3,9.91E2,2.023E3,5.49E2,6.6E1,1.517E3,1.724E3,1.093E3,9.09E2,1.562E3,1.354E3,2.3E3,4.25E2,3.362E3,4.73E2,5.18E2,1.67E2,1.856E3,3.78E2,1.71E2,6.3E1,3E0,1.515E3,2E0,1.643E3,8.1E1,6.84E2,4.09E2,1E1,8.99E2,3.46E2,1.216E3,1.319E3,3.5E1,1.343E3,9.57E2,2.97E2,1.28E2,1.471E3,1.891E3,4.53E2,2E1,4.7E2,4.8E1,7E0,1.6E2,1.109E3,7.47E2,3.33E2,4.5E1,1.5E1,1.56E2],"tree_param":{"num_deleted":"0","num_feature":"17","num_nodes":"63","size_leaf_vector":"1"}},{"base_weights":[-1.0415021E-3,-4.9470067E-1,4.0870115E-1,-7.0322096E-1,-2.6557976E-1,1.8088724E-1,7.982197E-1,-8.3330023E-1,-5.929696E-1,-4.0632808E-1,-1.5731795E-1,-6.2411455E-3,3.0177778E-1,5.4996276E-1,1.0188553E0,-8.5302633E-1,-6.896849E-1,-7.140547E-1,-5.663577E-1,-4.1394E-1,1.0376065E0,-2.0813894E-1,7.203465E-2,-1.0631384E-1,1.2031074E-1,2.374603E-1,5.034832E-1,6.9985294E-1,4.7364172E-1,8.726187E-1,1.1904736E0,-3.4082513E-2,-4.3061428E-2,-3.5548255E-2,-2.669387E-3,-3.1093959E-2,-3.973366E-2,-3.5047457E-2,-2.6807642E-2,-2.517728E-2,-1.637587E-2,8.930562E-2,-1.5977686E-2,4.69637E-2,-1.0759239E-2,-8.468706E-3,9.089398E-3,-5.7372074E-3,5.1198967E-2,-1.3045077E-2,8.893067E-3,8.735425E-3,1.9208694E-2,2.2537498E-2,4.2629227E-2,-5.0942983E-2,3.710255E-2,1.5717236E-2,3.088284E-2,2.6302023E-2,4.6896487E-2,6.466159E-2,3.1691168E-2],"categories":[],"categories_nodes":[],"categories_segments":[],"categories_sizes":[],"default_left":[0,0,0,0,0,0,0,0,0,0,0,0,0,0,0,0,0,0,0,0,0,0,0,0,0,0,0,0,0,0,0,0,0,0,0,0,0,0,0,0,0,0,0,0,0,0,0,0,0,0,0,0,0,0,0,0,0,0,0,0,0,0,0],"id":9,"left_children":[1,3,5,7,9,11,13,15,17,19,21,23,25,27,29,31,33,35,37,39,41,43,45,47,49,51,53,55,57,59,61,-1,-1,-1,-1,-1,-1,-1,-1,-1,-1,-1,-1,-1,-1,-1,-1,-1,-1,-1,-1,-1,-1,-1,-1,-1,-1,-1,-1,-1,-1,-1,-1],"loss_changes":[3.6065403E3,3.860841E2,8.643296E2,6.0070312E1,5.862091E1,1.3913443E2,1.9619653E2,4.7506104E0,6.862793E0,1.8777252E1,2.5450184E1,3.0583221E1,4.827417E1,1.8930176E1,4.6489014E1,1.6481934E0,3.1353302E0,2.4034576E0,7.171631E0,1.2661163E1,9.859995E0,1.4568596E1,1.0524215E1,1.288082E1,2.3425072E1,2.5977524E1,1.6090515E1,4.199588E1,2.5544403E1,2.2697327E1,4.8866333E1,0E0,0E0,0E0,0E0,0E0,0E0,0E0,0E0,0E0,0E0,0E0,0E0,0E0,0E0,0E0,0E0,0E0,0E0,0E0,0E0,0E0,0E0,0E0,0E0,0E0,0E0,0E0,0E0,0E0,0E0,0E0,0E0],"parents":[2147483647,0,0,1,1,2,2,3,3,4,4,5,5,6,6,7,7,8,8,9,9,10,10,11,11,12,12,13,13,14,14,15,15,16,16,17,17,18,18,19,19,20,20,21,21,22,22,23,23,24,24,25,25,26,26,27,27,28,28,29,29,30,30],"right_children":[2,4,6,8,10,12,14,16,18,20,22,24,26,28,30,32,34,36,38,40,42,44,46,48,50,52,54,56,58,60,62,-1,-1,-1,-1,-1,-1,-1,-1,-1,-1,-1,-1,-1,-1,-1,-1,-1,-1,-1,-1,-1,-1,-1,-1,-1,-1,-1,-1,-1,-1,-1,-1],"split_conditions":[3.4E0,5.625E-1,2.119403E0,6E-1,2.4E0,1.4634147E0,7E0,4E-1,1.6666667E-1,1.95E0,1.5454545E0,4.4E0,6.2E0,4.2982456E-1,3E0,3.508772E-1,8.3066237E-1,4.939759E-1,4E-1,6E-1,2.2142856E0,2.3529412E-1,8E-1,1.7222222E0,8.695652E-1,1.890625E0,8E0,8.062258E-1,1E0,2.2857144E0,4.9586776E-1,-3.4082513E-2,-4.3061428E-2,-3.5548255E-2,-2.669387E-3,-3.1093959E-2,-3.973366E-2,-3.5047457E-2,-2.6807642E-2,-2.517728E-2,-1.637587E-2,8.930562E-2,-1.5977686E-2,4.69637E-2,-1.0759239E-2,-8.468706E-3,9.089398E-3,-5.7372074E-3,5.1198967E-2,-1.3045077E-2,8.893067E-3,8.735425E-3,1.9208694E-2,2.2537498E-2,4.2629227E-2,-5.0942983E-2,3.710255E-2,1.5717236E-2,3.088284E-2,2.6302023E-2,4.6896487E-2,6.466159E-2,3.1691168E-2],"split_indices":[14,2,2,14,14,2,14,4,9,2,8,14,14,11,8,11,4,11,16,15,8,8,16,9,9,2,14,4,6,9,11,0,0,0,0,0,0,0,0,0,0,0,0,0,0,0,0,0,0,0,0,0,0,0,0,0,0,0,0,0,0,0,0],"split_type":[0,0,0,0,0,0,0,0,0,0,0,0,0,0,0,0,0,0,0,0,0,0,0,0,0,0,0,0,0,0,0,0,0,0,0,0,0,0,0,0,0,0,0,0,0,0,0,0,0,0,0,0,0,0,0,0,0,0,0,0,0,0,0],"sum_hessian":[1.7828E4,8.086E3,9.742E3,4.232E3,3.854E3,6.148E3,3.594E3,1.938E3,2.294E3,1.674E3,2.18E3,2.413E3,3.735E3,1.693E3,1.901E3,1.699E3,2.39E2,4.08E2,1.886E3,1.666E3,8E0,1.785E3,3.95E2,1.348E3,1.065E3,2.834E3,9.01E2,5.68E2,1.125E3,1.03E3,8.71E2,8.2E1,1.617E3,2.31E2,8E0,1.95E2,2.13E2,3.41E2,1.545E3,8.15E2,8.51E2,5E0,3E0,1E1,1.775E3,1.23E2,2.72E2,1.339E3,9E0,1.39E2,9.26E2,1.987E3,8.47E2,7.85E2,1.16E2,1.3E1,5.55E2,5.36E2,5.89E2,1.65E2,8.65E2,7.34E2,1.37E2],"tree_param":{"num_deleted":"0","num_feature":"17","num_nodes":"63","size_leaf_vector":"1"}},{"base_weights":[-5.919399E-3,-5.02554E-1,3.6169863E-1,-6.7453593E-1,-2.6833308E-1,2.2177546E-1,9.0859586E-1,-7.976642E-1,-5.733267E-1,-3.8850513E-1,-1.4310747E-1,6.557052E-2,4.0729517E-1,6.251766E-1,1.1076257E0,-8.0171454E-1,-1.2044365E-1,-6.752387E-1,-5.3631675E-1,-6.408437E-1,-3.441037E-1,-2.6956803E-1,8.42382E-2,1.8588122E-2,4.648174E-1,2.2962856E-1,4.5751417E-1,6.6133225E-1,-7.567502E-2,1.2125182E0,9.080799E-1,-4.0676687E-2,-3.3364292E-2,1.4082767E-2,-2.5981104E-2,-9.6091395E-3,-3.5407227E-2,-3.4975808E-2,-2.569339E-2,-2.4597745E-2,-3.6304336E-2,-1.7342495E-2,8.43959E-2,4.337478E-3,-1.5210161E-2,1.1608013E-1,3.5961661E-3,-3.2402526E-3,6.569046E-3,3.0890852E-2,1.8031649E-4,1.2987738E-2,-1.9806309E-2,1.9220136E-2,3.1042987E-2,-9.147452E-3,3.4689642E-2,-2.66395E-2,1.35379685E-2,5.488029E-2,7.599887E-2,-4.5318477E-2,4.6603832E-2],"categories":[],"categories_nodes":[],"categories_segments":[],"categories_sizes":[],"default_left":[0,0,0,0,0,0,0,0,0,0,0,0,0,0,0,0,0,0,0,0,0,0,0,0,0,0,0,0,0,0,0,0,0,0,0,0,0,0,0,0,0,0,0,0,0,0,0,0,0,0,0,0,0,0,0,0,0,0,0,0,0,0,0],"id":10,"left_children":[1,3,5,7,9,11,13,15,17,19,21,23,25,27,29,31,33,35,37,39,41,43,45,47,49,51,53,55,57,59,61,-1,-1,-1,-1,-1,-1,-1,-1,-1,-1,-1,-1,-1,-1,-1,-1,-1,-1,-1,-1,-1,-1,-1,-1,-1,-1,-1,-1,-1,-1,-1,-1],"loss_changes":[3.2461401E3,3.0437585E2,7.815271E2,5.3738647E1,4.8107025E1,2.3572888E2,1.1652112E2,5.1983643E0,8.557556E0,1.7988632E1,4.5207893E1,8.283275E1,3.3007996E1,2.1926117E1,2.4243408E1,2.4105225E0,2.2567716E0,9.851501E0,5.9818726E0,2.6050797E0,8.219131E0,1.251268E1,1.5078382E1,3.7216496E1,3.274843E1,1.558527E1,3.427002E1,2.2623383E1,6.9799566E0,2.6228638E1,1.9352264E1,0E0,0E0,0E0,0E0,0E0,0E0,0E0,0E0,0E0,0E0,0E0,0E0,0E0,0E0,0E0,0E0,0E0,0E0,0E0,0E0,0E0,0E0,0E0,0E0,0E0,0E0,0E0,0E0,0E0,0E0,0E0,0E0],"parents":[2147483647,0,0,1,1,2,2,3,3,4,4,5,5,6,6,7,7,8,8,9,9,10,10,11,11,12,12,13,13,14,14,15,15,16,16,17,17,18,18,19,19,20,20,21,21,22,22,23,23,24,24,25,25,26,26,27,27,28,28,29,29,30,30],"right_children":[2,4,6,8,10,12,14,16,18,20,22,24,26,28,30,32,34,36,38,40,42,44,46,48,50,52,54,56,58,60,62,-1,-1,-1,-1,-1,-1,-1,-1,-1,-1,-1,-1,-1,-1,-1,-1,-1,-1,-1,-1,-1,-1,-1,-1,-1,-1,-1,-1,-1,-1,-1,-1],"split_conditions":[3.2E0,6E-1,7.2E0,6E-1,9E-1,1.7619047E0,2.607143E0,5.5E-1,2.2916667E-1,1.2E0,1.2857143E0,2.2E0,4.6E0,8.4E0,6.131242E-1,3.0769232E-1,4E-1,3.0769232E-1,7.3333335E0,5.104426E-1,2.1355932E0,1.6E1,3.899603E-1,4.4E0,2.8E0,1.8973666E0,2.4285715E0,1.3548387E0,5.929543E-1,3.5454545E0,4.3065694E-1,-4.0676687E-2,-3.3364292E-2,1.4082767E-2,-2.5981104E-2,-9.6091395E-3,-3.5407227E-2,-3.4975808E-2,-2.569339E-2,-2.4597745E-2,-3.6304336E-2,-1.7342495E-2,8.43959E-2,4.337478E-3,-1.5210161E-2,1.1608013E-1,3.5961661E-3,-3.2402526E-3,6.569046E-3,3.0890852E-2,1.8031649E-4,1.2987738E-2,-1.9806309E-2,1.9220136E-2,3.1042987E-2,-9.147452E-3,3.4689642E-2,-2.66395E-2,1.35379685E-2,5.488029E-2,7.599887E-2,-4.5318477E-2,4.6603832E-2],"split_indices":[14,8,14,14,1,10,8,8,10,14,8,1,14,16,12,8,14,11,5,12,8,7,12,14,0,3,10,10,12,8,11,0,0,0,0,0,0,0,0,0,0,0,0,0,0,0,0,0,0,0,0,0,0,0,0,0,0,0,0,0,0,0,0],"split_type":[0,0,0,0,0,0,0,0,0,0,0,0,0,0,0,0,0,0,0,0,0,0,0,0,0,0,0,0,0,0,0,0,0,0,0,0,0,0,0,0,0,0,0,0,0,0,0,0,0,0,0,0,0,0,0,0,0,0,0,0,0,0,0],"sum_hessian":[1.7778E4,7.562E3,1.0216E4,4.359E3,3.203E3,8.136E3,2.08E3,1.963E3,2.396E3,1.633E3,1.57E3,4.418E3,3.718E3,8.6E2,1.22E3,1.951E3,1.2E1,6.33E2,1.763E3,2.42E2,1.391E3,1.009E3,5.61E2,3.954E3,4.64E2,8.21E2,2.897E3,8.18E2,4.2E1,7.96E2,4.24E2,1.788E3,1.63E2,6E0,6E0,4.1E1,5.92E2,2.09E2,1.554E3,9.1E1,1.51E2,1.39E3,1E0,8.9E1,9.2E2,2E0,5.59E2,2.273E3,1.681E3,3.48E2,1.16E2,7.84E2,3.7E1,2.004E3,8.93E2,3E1,7.88E2,1.8E1,2.4E1,5.83E2,2.13E2,5E0,4.19E2],"tree_param":{"num_deleted":"0","num_feature":"17","num_nodes":"63","size_leaf_vector":"1"}},{"base_weights":[-2.90771E-3,-4.1863587E-1,3.8007903E-1,-6.2095237E-1,-2.0100863E-1,1.6620736E-1,6.6753525E-1,-7.5135285E-1,-5.093077E-1,-3.726528E-1,-1.012011E-1,-6.1473425E-2,2.4363312E-1,5.8560276E-1,1.1661365E0,-6.2676287E-1,-7.7378094E-1,-5.2704746E-1,-2.4045022E-1,-6.5054274E-1,-3.3877513E-1,-1.7197916E-1,1.0168374E-1,-1.06733665E-1,3.0065337E-1,1.5788788E-1,3.6164162E-1,3.739974E-1,6.6254526E-1,4.6415251E-1,1.2577317E0,-3.23144E-2,9.784035E-3,-3.9565038E-2,-3.582972E-2,-2.9638568E-2,-2.403824E-2,-2.0818396E-2,1.1747488E-2,-3.3505883E-2,2.9174516E-2,-2.1318993E-2,-1.3097668E-2,-1.4882172E-2,-4.4720243E-3,1.1699883E-2,-4.079901E-3,-8.0955615E-3,7.3300586E-3,-2.2877934E-3,2.6342506E-2,2.761043E-2,5.950502E-3,8.380632E-3,2.5007907E-2,-6.2681263E-4,2.098891E-2,2.4837038E-2,3.8439356E-2,5.312365E-3,5.214336E-2,6.1351247E-2,1.2399083E-1],"categories":[],"categories_nodes":[],"categories_segments":[],"categories_sizes":[],"default_left":[0,0,0,0,0,0,0,0,0,0,0,0,0,0,0,0,0,0,0,0,0,0,0,0,0,0,0,0,0,0,0,0,0,0,0,0,0,0,0,0,0,0,0,0,0,0,0,0,0,0,0,0,0,0,0,0,0,0,0,0,0,0,0],"id":11,"left_children":[1,3,5,7,9,11,13,15,17,19,21,23,25,27,29,31,33,35,37,39,41,43,45,47,49,51,53,55,57,59,61,-1,-1,-1,-1,-1,-1,-1,-1,-1,-1,-1,-1,-1,-1,-1,-1,-1,-1,-1,-1,-1,-1,-1,-1,-1,-1,-1,-1,-1,-1,-1,-1],"loss_changes":[2.8363198E3,3.7589368E2,5.6983655E2,6.3927246E1,7.044479E1,9.378081E1,1.607102E2,5.07251E0,1.1185974E1,1.3924454E1,3.7431778E1,2.2139124E1,4.005194E1,5.4989136E1,3.5058167E1,5.262001E0,1.0084229E0,6.418396E0,1.2660658E1,4.3371124E0,8.911636E0,1.9973686E1,1.6379326E1,1.6813326E1,1.1825709E1,3.5142273E1,4.4705765E1,1.6131477E1,4.337146E1,1.3444537E1,1.50494995E1,0E0,0E0,0E0,0E0,0E0,0E0,0E0,0E0,0E0,0E0,0E0,0E0,0E0,0E0,0E0,0E0,0E0,0E0,0E0,0E0,0E0,0E0,0E0,0E0,0E0,0E0,0E0,0E0,0E0,0E0,0E0,0E0],"parents":[2147483647,0,0,1,1,2,2,3,3,4,4,5,5,6,6,7,7,8,8,9,9,10,10,11,11,12,12,13,13,14,14,15,15,16,16,17,17,18,18,19,19,20,20,21,21,22,22,23,23,24,24,25,25,26,26,27,27,28,28,29,29,30,30],"right_children":[2,4,6,8,10,12,14,16,18,20,22,24,26,28,30,32,34,36,38,40,42,44,46,48,50,52,54,56,58,60,62,-1,-1,-1,-1,-1,-1,-1,-1,-1,-1,-1,-1,-1,-1,-1,-1,-1,-1,-1,-1,-1,-1,-1,-1,-1,-1,-1,-1,-1,-1,-1,-1],"split_conditions":[1.2E0,6E-1,2.107143E0,1.6666667E-1,1.8E1,2.1333334E1,3.4468086E0,4.774775E-1,1.2E0,2.2E0,1.6E0,6.6109014E-1,2E0,2E0,1.0198039E0,4.7530866E-1,3E-1,4.8989794E-1,6.923077E-1,9.8E1,8E-1,8.3066237E-1,4.893617E-1,1.7941177E0,1.7E1,3.7142858E-1,1.6774193E0,1.8333334E1,2.2777777E0,5E0,2.6532998E0,-3.23144E-2,9.784035E-3,-3.9565038E-2,-3.582972E-2,-2.9638568E-2,-2.403824E-2,-2.0818396E-2,1.1747488E-2,-3.3505883E-2,2.9174516E-2,-2.1318993E-2,-1.3097668E-2,-1.4882172E-2,-4.4720243E-3,1.1699883E-2,-4.079901E-3,-8.0955615E-3,7.3300586E-3,-2.2877934E-3,2.6342506E-2,2.761043E-2,5.950502E-3,8.380632E-3,2.5007907E-2,-6.2681263E-4,2.098891E-2,2.4837038E-2,3.8439356E-2,5.312365E-3,5.214336E-2,6.1351247E-2,1.2399083E-1],"split_indices":[9,8,8,9,5,5,9,11,0,13,0,12,0,0,3,11,4,4,9,7,9,4,11,8,5,11,8,5,9,16,4,0,0,0,0,0,0,0,0,0,0,0,0,0,0,0,0,0,0,0,0,0,0,0,0,0,0,0,0,0,0,0,0],"split_type":[0,0,0,0,0,0,0,0,0,0,0,0,0,0,0,0,0,0,0,0,0,0,0,0,0,0,0,0,0,0,0,0,0,0,0,0,0,0,0,0,0,0,0,0,0,0,0,0,0,0,0,0,0,0,0,0,0,0,0,0,0,0,0],"sum_hessian":[1.7812E4,8.541E3,9.271E3,4.425E3,4.116E3,5.317E3,3.954E3,2.038E3,2.387E3,1.512E3,2.604E3,1.349E3,3.968E3,3.398E3,5.56E2,3.16E2,1.722E3,2.238E3,1.49E2,1.62E2,1.35E3,1.931E3,6.73E2,1.2E3,1.49E2,2.3E3,1.668E3,9.08E2,2.49E3,6.5E1,4.91E2,3.09E2,7E0,1.307E3,4.15E2,9.19E2,1.319E3,1.09E2,4E1,1.6E2,2E0,6.28E2,7.22E2,7.64E2,1.167E3,3.91E2,2.82E2,9.86E2,2.14E2,5.9E1,9E1,2.05E2,2.095E3,6.96E2,9.72E2,9.6E1,8.12E2,9.75E2,1.515E3,4.1E1,2.4E1,4.81E2,1E1],"tree_param":{"num_deleted":"0","num_feature":"17","num_nodes":"63","size_leaf_vector":"1"}},{"base_weights":[-4.6889987E-3,-3.2237816E-1,4.5924506E-1,-6.03143E-1,-1.1928074E-1,2.8257143E-1,7.796348E-1,-6.9521683E-1,-4.853791E-1,-2.3627461E-1,5.484316E-2,1.6482462E-1,3.7488598E-1,6.9558245E-1,1.1053832E0,-7.3998445E-1,-6.1675006E-1,-5.220988E-1,-3.7333566E-1,-3.5388646E-1,-1.7279676E-1,7.916309E-3,2.8472865E-1,1.5099974E0,1.5679777E-1,3.2220945E-1,5.9762484E-1,6.705162E-1,1.0886167E0,1.1693517E0,3.177219E-1,-1.6957246E-2,-3.7112966E-2,-2.2611227E-2,-3.2333266E-2,-2.6735073E-2,-1.3814184E-2,-2.221111E-2,-7.255945E-3,-1.7877465E-2,4.4221573E-2,-1.8912872E-2,-7.2970167E-3,9.932503E-4,-3.717337E-2,6.8682946E-2,1.2445691E-2,1.2738328E-1,1.5525831E-3,-9.233281E-3,8.968905E-3,2.3481885E-2,1.2667439E-2,3.2109436E-2,-3.1167138E-2,3.4353103E-2,-3.4421652E-3,4.1445266E-2,9.063264E-2,5.174145E-2,7.8963146E-2,5.737827E-2,-3.4914225E-2],"categories":[],"categories_nodes":[],"categories_segments":[],"categories_sizes":[],"default_left":[0,0,0,0,0,0,0,0,0,0,0,0,0,0,0,0,0,0,0,0,0,0,0,0,0,0,0,0,0,0,0,0,0,0,0,0,0,0,0,0,0,0,0,0,0,0,0,0,0,0,0,0,0,0,0,0,0,0,0,0,0,0,0],"id":12,"left_children":[1,3,5,7,9,11,13,15,17,19,21,23,25,27,29,31,33,35,37,39,41,43,45,47,49,51,53,55,57,59,61,-1,-1,-1,-1,-1,-1,-1,-1,-1,-1,-1,-1,-1,-1,-1,-1,-1,-1,-1,-1,-1,-1,-1,-1,-1,-1,-1,-1,-1,-1,-1,-1],"loss_changes":[2.626862E3,6.030979E2,4.0971594E2,4.7687378E1,1.2511167E2,5.065683E1,6.9526855E1,8.151123E0,7.7464294E0,2.7307892E1,2.6592777E1,2.1785442E1,3.042099E1,1.928064E1,2.5982605E1,1.0800171E0,4.0814514E0,4.315857E0,7.7388687E0,6.096466E0,1.3069214E1,1.83564E1,1.5797756E1,1.807888E1,1.5792561E1,2.1320831E1,2.755333E1,2.3707153E1,2.0986221E1,2.4903442E1,3.5414433E1,0E0,0E0,0E0,0E0,0E0,0E0,0E0,0E0,0E0,0E0,0E0,0E0,0E0,0E0,0E0,0E0,0E0,0E0,0E0,0E0,0E0,0E0,0E0,0E0,0E0,0E0,0E0,0E0,0E0,0E0,0E0,0E0],"parents":[2147483647,0,0,1,1,2,2,3,3,4,4,5,5,6,6,7,7,8,8,9,9,10,10,11,11,12,12,13,13,14,14,15,15,16,16,17,17,18,18,19,19,20,20,21,21,22,22,23,23,24,24,25,25,26,26,27,27,28,28,29,29,30,30],"right_children":[2,4,6,8,10,12,14,16,18,20,22,24,26,28,30,32,34,36,38,40,42,44,46,48,50,52,54,56,58,60,62,-1,-1,-1,-1,-1,-1,-1,-1,-1,-1,-1,-1,-1,-1,-1,-1,-1,-1,-1,-1,-1,-1,-1,-1,-1,-1,-1,-1,-1,-1,-1,-1],"split_conditions":[4.4E0,6E-1,2.3148148E0,2.5E-1,1.25E0,1.7625E0,3.4047618E0,1E-1,6.976744E-1,2.4E0,1.890625E0,3.0769232E-1,1.7320508E0,2.3345234E0,5E0,3.0017152E-1,3.6942676E-1,8.3066237E-1,8E-1,2.0396078E0,5.625E-1,2.1666667E0,6E-1,1.6E0,8.695652E-1,4.278607E-1,2.2957747E0,7.0515645E-1,1.78E1,1.8973666E0,1E0,-1.6957246E-2,-3.7112966E-2,-2.2611227E-2,-3.2333266E-2,-2.6735073E-2,-1.3814184E-2,-2.221111E-2,-7.255945E-3,-1.7877465E-2,4.4221573E-2,-1.8912872E-2,-7.2970167E-3,9.932503E-4,-3.717337E-2,6.8682946E-2,1.2445691E-2,1.2738328E-1,1.5525831E-3,-9.233281E-3,8.968905E-3,2.3481885E-2,1.2667439E-2,3.2109436E-2,-3.1167138E-2,3.4353103E-2,-3.4421652E-3,4.1445266E-2,9.063264E-2,5.174145E-2,7.8963146E-2,5.737827E-2,-3.4914225E-2],"split_indices":[14,1,2,9,2,2,2,2,8,14,2,11,4,4,15,12,11,4,3,3,9,8,15,16,9,11,2,12,13,3,6,0,0,0,0,0,0,0,0,0,0,0,0,0,0,0,0,0,0,0,0,0,0,0,0,0,0,0,0,0,0,0,0],"split_type":[0,0,0,0,0,0,0,0,0,0,0,0,0,0,0,0,0,0,0,0,0,0,0,0,0,0,0,0,0,0,0,0,0,0,0,0,0,0,0,0,0,0,0,0,0,0,0,0,0,0,0,0,0,0,0,0,0,0,0,0,0,0,0],"sum_hessian":[1.7821E4,1.0578E4,7.243E3,4.439E3,6.139E3,4.67E3,2.573E3,2.488E3,1.951E3,3.672E3,2.467E3,2.054E3,2.616E3,2.048E3,5.25E2,1.578E3,9.1E2,1.466E3,4.85E2,1.285E3,2.387E3,2.05E3,4.17E2,1.1E1,2.043E3,2.118E3,4.98E2,1.928E3,1.2E2,4.85E2,4E1,1E1,1.568E3,1.43E2,7.67E2,1.393E3,7.3E1,3.69E2,1.16E2,1.282E3,3E0,2.74E2,2.113E3,2.019E3,3.1E1,1.2E1,4.05E2,6E0,5E0,1.26E2,1.917E3,6.72E2,1.446E3,4.81E2,1.7E1,1.886E3,4.2E1,9E1,3E1,3.68E2,1.17E2,2.2E1,1.8E1],"tree_param":{"num_deleted":"0","num_feature":"17","num_nodes":"63","size_leaf_vector":"1"}},{"base_weights":[-5.0727217E-3,-3.805432E-1,3.501613E-1,-5.7733274E-1,-1.8486188E-1,2.0695506E-1,7.5353384E-1,-7.0187676E-1,-4.9933806E-1,-2.11258E-1,2.68845E-1,9.638451E-2,3.6609808E-1,6.101282E-1,9.9717003E-1,-7.0428544E-1,4.5000562E-1,-5.560773E-1,-4.2630503E-1,-3.625985E-1,-1.5911475E-1,3.299889E-1,-8.165129E-1,2.6933521E-2,3.0797988E-1,2.7849686E-1,5.098507E-1,5.7985836E-1,1.3343545E0,7.119192E-1,1.0982724E0,-3.5464983E-2,-2.7966658E-2,-2.3763513E-2,4.7509383E-2,-2.9858425E-2,-2.5062451E-2,3.021442E-2,-2.1744298E-2,-2.18757E-2,-1.4968291E-2,-1.4214123E-2,-4.9648737E-3,-7.41952E-3,2.1810126E-2,-0E0,-5.350995E-2,-1.14769675E-2,3.2294504E-3,1.0132358E-1,1.4056155E-2,-8.624066E-3,1.5553899E-2,1.4011106E-2,3.439684E-2,2.0044183E-2,3.497106E-2,-9.793535E-3,9.032536E-2,3.1022472E-2,1.0057717E-1,9.8414E-2,5.2951105E-2],"categories":[],"categories_nodes":[],"categories_segments":[],"categories_sizes":[],"default_left":[0,0,0,0,0,0,0,0,0,0,0,0,0,0,0,0,0,0,0,0,0,0,0,0,0,0,0,0,0,0,0,0,0,0,0,0,0,0,0,0,0,0,0,0,0,0,0,0,0,0,0,0,0,0,0,0,0,0,0,0,0,0,0],"id":13,"left_children":[1,3,5,7,9,11,13,15,17,19,21,23,25,27,29,31,33,35,37,39,41,43,45,47,49,51,53,55,57,59,61,-1,-1,-1,-1,-1,-1,-1,-1,-1,-1,-1,-1,-1,-1,-1,-1,-1,-1,-1,-1,-1,-1,-1,-1,-1,-1,-1,-1,-1,-1,-1,-1],"loss_changes":[2.3852356E3,3.3460583E2,5.305548E2,4.1628906E1,5.2278824E1,1.1927573E2,8.332861E1,4.9647217E0,1.0724609E1,3.2418427E1,1.6147913E1,5.879903E1,3.4787445E1,3.2312744E1,2.4704346E1,6.851196E-1,2.3503132E0,2.9657593E0,1.0610382E1,4.792984E0,2.2904121E1,1.1678276E1,2.7862453E0,2.9125683E1,4.484501E1,2.5487076E1,4.2689636E1,3.0830322E1,4.3864906E1,2.6543549E1,1.9979797E1,0E0,0E0,0E0,0E0,0E0,0E0,0E0,0E0,0E0,0E0,0E0,0E0,0E0,0E0,0E0,0E0,0E0,0E0,0E0,0E0,0E0,0E0,0E0,0E0,0E0,0E0,0E0,0E0,0E0,0E0,0E0,0E0],"parents":[2147483647,0,0,1,1,2,2,3,3,4,4,5,5,6,6,7,7,8,8,9,9,10,10,11,11,12,12,13,13,14,14,15,15,16,16,17,17,18,18,19,19,20,20,21,21,22,22,23,23,24,24,25,25,26,26,27,27,28,28,29,29,30,30],"right_children":[2,4,6,8,10,12,14,16,18,20,22,24,26,28,30,32,34,36,38,40,42,44,46,48,50,52,54,56,58,60,62,-1,-1,-1,-1,-1,-1,-1,-1,-1,-1,-1,-1,-1,-1,-1,-1,-1,-1,-1,-1,-1,-1,-1,-1,-1,-1,-1,-1,-1,-1,-1,-1],"split_conditions":[1.3E0,1.8E0,2.3818183E0,9.090909E-2,1.8E0,5.4E0,8.4E0,6E-1,1.2E0,6.25E-1,2.4444444E0,1.9666667E0,2.4E0,3.7666667E0,3.1E0,2.1875E-1,1.2E1,3E-1,3.0017152E-1,5.263158E-1,1.8E1,1.6363636E0,6.324555E-1,1.7E1,4.609929E-1,2.1333334E1,6.1E1,3E1,1.7E1,2.4166093E0,5.187247E-1,-3.5464983E-2,-2.7966658E-2,-2.3763513E-2,4.7509383E-2,-2.9858425E-2,-2.5062451E-2,3.021442E-2,-2.1744298E-2,-2.18757E-2,-1.4968291E-2,-1.4214123E-2,-4.9648737E-3,-7.41952E-3,2.1810126E-2,-0E0,-5.350995E-2,-1.14769675E-2,3.2294504E-3,1.0132358E-1,1.4056155E-2,-8.624066E-3,1.5553899E-2,1.4011106E-2,3.439684E-2,2.0044183E-2,3.497106E-2,-9.793535E-3,9.032536E-2,3.1022472E-2,1.0057717E-1,9.8414E-2,5.2951105E-2],"split_indices":[1,14,9,9,10,14,14,1,14,9,9,8,1,9,1,10,7,1,12,8,5,8,3,5,12,5,7,5,7,3,12,0,0,0,0,0,0,0,0,0,0,0,0,0,0,0,0,0,0,0,0,0,0,0,0,0,0,0,0,0,0,0,0],"split_type":[0,0,0,0,0,0,0,0,0,0,0,0,0,0,0,0,0,0,0,0,0,0,0,0,0,0,0,0,0,0,0,0,0,0,0,0,0,0,0,0,0,0,0,0,0,0,0,0,0,0,0,0,0,0,0,0,0,0,0,0,0,0,0],"sum_hessian":[1.7881E4,8.693E3,9.188E3,4.333E3,4.36E3,6.782E3,2.406E3,1.665E3,2.668E3,4.121E3,2.39E2,4.003E3,2.779E3,1.517E3,8.89E2,1.662E3,3E0,1.497E3,1.171E3,1.054E3,3.067E3,2.27E2,1.2E1,3.015E3,9.88E2,1.729E3,1.05E3,1.458E3,5.9E1,2.35E2,6.54E2,1.602E3,6E1,1E0,2E0,8.49E2,6.48E2,9E0,1.162E3,4.79E2,5.75E2,9.9E2,2.077E3,4.1E1,1.86E2,3E0,9E0,3.85E2,2.63E3,1.4E1,9.74E2,1.16E2,1.613E3,4.6E2,5.9E2,5.86E2,8.72E2,1.4E1,4.5E1,2.21E2,1.4E1,2.6E1,6.28E2],"tree_param":{"num_deleted":"0","num_feature":"17","num_nodes":"63","size_leaf_vector":"1"}},{"base_weights":[6.999292E-5,-4.033083E-1,3.0051318E-1,-5.182387E-1,-1.7401738E-1,9.605728E-2,5.5405825E-1,-6.460027E-1,-4.371541E-1,-1.8263485E-1,6.640602E-1,8.3752766E-2,9.634582E-1,4.4395736E-1,8.5752136E-1,-6.5951806E-1,-5.032653E-1,-5.269454E-1,-4.0916592E-1,-5.159764E-1,-1.6202411E-1,1.5182223E0,1.9453128E-1,2.9055612E-2,2.3482014E-1,1.386378E0,2.2314315E-1,3.0245498E-1,5.6414104E-1,2.229504E0,8.372532E-1,-3.345036E-2,-2.7600676E-2,-2.6497131E-2,1.00964665E-1,-5.077942E-3,-2.7526302E-2,2.440628E-2,-2.0546425E-2,-2.7195528E-2,2.9333217E-2,-2.282547E-2,-7.3874663E-3,9.379034E-2,-3.106132E-2,-9.29086E-3,5.0143223E-2,-4.107484E-3,4.3559107E-3,2.1613052E-2,5.677407E-3,-1.7062394E-2,7.730994E-2,8.399441E-2,-1.034359E-2,7.983308E-3,1.8957395E-2,1.0491018E-2,2.9891048E-2,1.4884911E-1,-6.9920155E-3,3.7486084E-2,5.384034E-2],"categories":[],"categories_nodes":[],"categories_segments":[],"categories_sizes":[],"default_left":[0,0,0,0,0,0,0,0,0,0,0,0,0,0,0,0,0,0,0,0,0,0,0,0,0,0,0,0,0,0,0,0,0,0,0,0,0,0,0,0,0,0,0,0,0,0,0,0,0,0,0,0,0,0,0,0,0,0,0,0,0,0,0],"id":14,"left_children":[1,3,5,7,9,11,13,15,17,19,21,23,25,27,29,31,33,35,37,39,41,43,45,47,49,51,53,55,57,59,61,-1,-1,-1,-1,-1,-1,-1,-1,-1,-1,-1,-1,-1,-1,-1,-1,-1,-1,-1,-1,-1,-1,-1,-1,-1,-1,-1,-1,-1,-1,-1,-1],"loss_changes":[2.1625447E3,2.0056763E2,5.300371E2,5.216394E1,1.8453377E1,6.02555E1,1.5201294E2,3.3464355E0,7.4990234E0,1.7162056E1,9.960782E0,4.611539E1,2.4264107E1,5.6747803E1,3.158496E1,1.3376465E0,1.2697811E1,7.241516E0,3.9474487E0,4.8118134E0,9.855942E0,8.176062E0,5.802123E0,2.6493727E1,3.5429314E1,1.4453659E1,1.9287487E1,1.6771866E1,2.1405334E1,3.0807587E1,2.413031E1,0E0,0E0,0E0,0E0,0E0,0E0,0E0,0E0,0E0,0E0,0E0,0E0,0E0,0E0,0E0,0E0,0E0,0E0,0E0,0E0,0E0,0E0,0E0,0E0,0E0,0E0,0E0,0E0,0E0,0E0,0E0,0E0],"parents":[2147483647,0,0,1,1,2,2,3,3,4,4,5,5,6,6,7,7,8,8,9,9,10,10,11,11,12,12,13,13,14,14,15,15,16,16,17,17,18,18,19,19,20,20,21,21,22,22,23,23,24,24,25,25,26,26,27,27,28,28,29,29,30,30],"right_children":[2,4,6,8,10,12,14,16,18,20,22,24,26,28,30,32,34,36,38,40,42,44,46,48,50,52,54,56,58,60,62,-1,-1,-1,-1,-1,-1,-1,-1,-1,-1,-1,-1,-1,-1,-1,-1,-1,-1,-1,-1,-1,-1,-1,-1,-1,-1,-1,-1,-1,-1,-1,-1],"split_conditions":[3.2E0,7.5609756E-1,5.6E0,6E-1,2.0666666E0,2.8125E0,2.7777777E0,2.6666668E-1,2.5E-1,4E-1,1.2E0,1.9E0,2.4E0,2.03125E0,2.5294118E0,4E-1,1.5E1,3.7878788E-1,1.632653E-1,2.8E0,4.24509E-1,2.421875E0,2.5128205E0,1.1666666E0,4.6268657E-1,2.2368422E0,3.7E1,1.5588236E0,8E-1,4.9586776E-1,3.7666667E0,-3.345036E-2,-2.7600676E-2,-2.6497131E-2,1.00964665E-1,-5.077942E-3,-2.7526302E-2,2.440628E-2,-2.0546425E-2,-2.7195528E-2,2.9333217E-2,-2.282547E-2,-7.3874663E-3,9.379034E-2,-3.106132E-2,-9.29086E-3,5.0143223E-2,-4.107484E-3,4.3559107E-3,2.1613052E-2,5.677407E-3,-1.7062394E-2,7.730994E-2,8.399441E-2,-1.034359E-2,7.983308E-3,1.8957395E-2,1.0491018E-2,2.9891048E-2,1.4884911E-1,-6.9920155E-3,3.7486084E-2,5.384034E-2],"split_indices":[14,2,14,14,2,9,2,2,9,1,1,1,1,9,9,3,13,12,2,14,12,9,9,9,11,2,7,9,3,11,9,0,0,0,0,0,0,0,0,0,0,0,0,0,0,0,0,0,0,0,0,0,0,0,0,0,0,0,0,0,0,0,0],"split_type":[0,0,0,0,0,0,0,0,0,0,0,0,0,0,0,0,0,0,0,0,0,0,0,0,0,0,0,0,0,0,0,0,0,0,0,0,0,0,0,0,0,0,0,0,0,0,0,0,0,0,0,0,0,0,0,0,0,0,0,0,0,0,0],"sum_hessian":[1.7842E4,7.616E3,1.0226E4,5.072E3,2.544E3,5.662E3,4.564E3,1.966E3,3.106E3,2.519E3,2.5E1,5.584E3,7.8E1,3.351E3,1.213E3,1.792E3,1.74E2,7.33E2,2.373E3,1.45E2,2.374E3,8E0,1.7E1,4.101E3,1.483E3,4.9E1,2.9E1,1.541E3,1.81E3,1.6E1,1.197E3,1.641E3,1.51E2,1.73E2,1E0,3.9E1,6.94E2,4E0,2.369E3,1.42E2,3E0,1.08E2,2.266E3,7E0,1E0,1.2E1,5E0,1.406E3,2.695E3,5.63E2,9.2E2,4E0,4.5E1,6E0,2.3E1,5.4E2,1.001E3,1.58E2,1.652E3,1.2E1,4E0,8.8E2,3.17E2],"tree_param":{"num_deleted":"0","num_feature":"17","num_nodes":"63","size_leaf_vector":"1"}},{"base_weights":[9.425556E-3,-4.1671896E-1,2.6254073E-1,-5.560494E-1,-2.779051E-1,9.7316824E-2,5.538583E-1,-6.328194E-1,-4.8384753E-1,-4.2817813E-1,-2.3563632E-1,-9.039391E-3,2.3369545E-1,4.3340185E-1,8.733161E-1,-8.781504E-2,-6.375267E-1,-4.8784795E-1,1.12867214E-1,-4.7038987E-1,-2.7156118E-1,-3.0821097E-1,-1.703072E-1,-5.0704416E-2,2.3360182E-1,1.5466742E-1,3.2706475E-1,4.0053666E-1,7.759435E-1,1.2121655E0,7.81448E-1,-1.9681243E-2,1.0233807E-1,-3.191367E-2,-0E0,-2.467528E-2,-3.472043E-3,-2.7429357E-3,5.1446315E-2,-2.0123627E-2,-2.8729577E-2,-1.8013854E-2,2.6325746E-2,-6.7094494E-5,-1.6492499E-2,-8.675863E-3,1.0278586E-1,2.9074246E-2,-3.324536E-3,2.0224923E-2,2.534953E-3,1.57303E-2,3.0877364E-3,1.569803E-2,6.1379354E-2,2.3301845E-2,1.1299547E-2,1.845643E-2,6.1846633E-2,1.6972601E-1,5.64554E-2,3.5935502E-2,6.912274E-2],"categories":[],"categories_nodes":[],"categories_segments":[],"categories_sizes":[],"default_left":[0,0,0,0,0,0,0,0,0,0,0,0,0,0,0,0,0,0,0,0,0,0,0,0,0,0,0,0,0,0,0,0,0,0,0,0,0,0,0,0,0,0,0,0,0,0,0,0,0,0,0,0,0,0,0,0,0,0,0,0,0,0,0],"id":15,"left_children":[1,3,5,7,9,11,13,15,17,19,21,23,25,27,29,31,33,35,37,39,41,43,45,47,49,51,53,55,57,59,61,-1,-1,-1,-1,-1,-1,-1,-1,-1,-1,-1,-1,-1,-1,-1,-1,-1,-1,-1,-1,-1,-1,-1,-1,-1,-1,-1,-1,-1,-1,-1,-1],"loss_changes":[1.9142421E3,1.2766406E2,5.357897E2,1.7868225E1,2.088913E1,1.0309507E2,1.5452966E2,3.96344E0,4.162567E0,4.597702E0,1.2179474E1,4.0361397E1,2.28788E1,3.253412E1,3.315808E1,1.0431958E1,6.913452E-1,3.9194946E0,1.9976144E0,3.7049942E0,1.1288984E1,8.100861E0,9.929489E0,3.400874E1,1.8219593E1,2.5042027E1,1.6288025E1,3.0396759E1,4.7204803E1,3.794867E1,3.1600403E1,0E0,0E0,0E0,0E0,0E0,0E0,0E0,0E0,0E0,0E0,0E0,0E0,0E0,0E0,0E0,0E0,0E0,0E0,0E0,0E0,0E0,0E0,0E0,0E0,0E0,0E0,0E0,0E0,0E0,0E0,0E0,0E0],"parents":[2147483647,0,0,1,1,2,2,3,3,4,4,5,5,6,6,7,7,8,8,9,9,10,10,11,11,12,12,13,13,14,14,15,15,16,16,17,17,18,18,19,19,20,20,21,21,22,22,23,23,24,24,25,25,26,26,27,27,28,28,29,29,30,30],"right_children":[2,4,6,8,10,12,14,16,18,20,22,24,26,28,30,32,34,36,38,40,42,44,46,48,50,52,54,56,58,60,62,-1,-1,-1,-1,-1,-1,-1,-1,-1,-1,-1,-1,-1,-1,-1,-1,-1,-1,-1,-1,-1,-1,-1,-1,-1,-1,-1,-1,-1,-1,-1,-1],"split_conditions":[1E0,4.1025642E-1,2.03125E0,1E-1,3.2E0,1.5571429E0,2.9322033E0,3.0017152E-1,7.8748006E-1,7E-1,7.948718E-1,1.9E0,2E0,3.3E0,2.6E1,1.6E1,3E-1,5.714286E-1,3.846154E-1,6.2E1,9.2E1,2E-1,2.5306122E0,4.4788274E-1,1.2916666E0,9.797959E-1,3.3E0,6.131242E-1,1.5E1,2.6E0,4.125E0,-1.9681243E-2,1.0233807E-1,-3.191367E-2,-0E0,-2.467528E-2,-3.472043E-3,-2.7429357E-3,5.1446315E-2,-2.0123627E-2,-2.8729577E-2,-1.8013854E-2,2.6325746E-2,-6.7094494E-5,-1.6492499E-2,-8.675863E-3,1.0278586E-1,2.9074246E-2,-3.324536E-3,2.0224923E-2,2.534953E-3,1.57303E-2,3.0877364E-3,1.569803E-2,6.1379354E-2,2.3301845E-2,1.1299547E-2,1.845643E-2,6.1846633E-2,1.6972601E-1,5.64554E-2,3.5935502E-2,6.912274E-2],"split_indices":[1,2,9,2,13,2,2,12,12,1,2,1,15,1,7,7,1,9,10,7,7,16,2,12,10,3,1,12,13,1,10,0,0,0,0,0,0,0,0,0,0,0,0,0,0,0,0,0,0,0,0,0,0,0,0,0,0,0,0,0,0,0,0],"split_type":[0,0,0,0,0,0,0,0,0,0,0,0,0,0,0,0,0,0,0,0,0,0,0,0,0,0,0,0,0,0,0,0,0,0,0,0,0,0,0,0,0,0,0,0,0,0,0,0,0,0,0,0,0,0,0,0,0,0,0,0,0,0,0],"sum_hessian":[1.7745E4,6.612E3,1.1133E4,3.298E3,3.314E3,7.105E3,4.028E3,1.594E3,1.704E3,7.25E2,2.589E3,3.992E3,3.113E3,2.927E3,1.101E3,1.4E1,1.58E3,1.693E3,1.1E1,5.69E2,1.56E2,1.224E3,1.365E3,3.408E3,5.84E2,1.688E3,1.425E3,2.673E3,2.54E2,2.32E2,8.69E2,1.3E1,1E0,1.578E3,2E0,1.67E3,2.3E1,1E1,1E0,3.48E2,2.21E2,1.41E2,1.5E1,8.1E1,1.143E3,1.364E3,1E0,8.2E1,3.326E3,3.01E2,2.83E2,6.19E2,1.069E3,1.406E3,1.9E1,1.942E3,7.31E2,1.36E2,1.18E2,7E0,2.25E2,7.89E2,8E1],"tree_param":{"num_deleted":"0","num_feature":"17","num_nodes":"63","size_leaf_vector":"1"}},{"base_weights":[7.0996964E-3,-2.3893446E-1,4.0400556E-1,-4.5925716E-1,-5.6028143E-2,2.9146367E-1,7.1461624E-1,-5.713165E-1,-3.630635E-1,-1.088571E-1,1.6982578E-1,2.3559019E-1,5.028621E-1,5.556391E-1,8.4799457E-1,-4.602729E-1,-5.9612834E-1,-3.9696857E-1,-2.0831263E-1,-2.4891797E-1,-4.5794625E-2,1.6003125E-3,2.871809E-1,2.724639E-1,-5.5809528E-2,-2.7497762E-4,5.66473E-1,4.109148E-1,8.36059E-1,8.695268E-1,-6.9577503E-1,-2.3621101E-2,6.8642035E-2,-3.0579528E-2,-2.676163E-2,-2.4032665E-2,-1.8555587E-2,-1.6994294E-3,-1.8058572E-2,-1.2499725E-3,-1.35854455E-2,4.1466173E-2,-3.0730926E-3,-1.9438639E-3,7.773476E-2,4.3951787E-2,1.1737704E-2,2.7474016E-2,1.1962577E-2,3.0461717E-2,-6.900217E-3,1.3682109E-1,-3.5955657E-3,3.41881E-2,1.2373231E-2,3.2138024E-2,1.2380922E-2,5.575161E-2,2.811046E-2,8.464949E-2,4.1883256E-2,-6.6407E-2,-9.288947E-3],"categories":[],"categories_nodes":[],"categories_segments":[],"categories_sizes":[],"default_left":[0,0,0,0,0,0,0,0,0,0,0,0,0,0,0,0,0,0,0,0,0,0,0,0,0,0,0,0,0,0,0,0,0,0,0,0,0,0,0,0,0,0,0,0,0,0,0,0,0,0,0,0,0,0,0,0,0,0,0,0,0,0,0],"id":16,"left_children":[1,3,5,7,9,11,13,15,17,19,21,23,25,27,29,31,33,35,37,39,41,43,45,47,49,51,53,55,57,59,61,-1,-1,-1,-1,-1,-1,-1,-1,-1,-1,-1,-1,-1,-1,-1,-1,-1,-1,-1,-1,-1,-1,-1,-1,-1,-1,-1,-1,-1,-1,-1,-1],"loss_changes":[1.7375444E3,4.4256055E2,2.3771143E2,5.3401978E1,7.1637955E1,5.886551E1,3.7767883E1,5.9541626E0,1.3939301E1,4.2938488E1,2.2437191E1,4.2554764E1,3.347E1,3.3175507E1,3.3265015E1,1.0023552E1,1.3234253E0,4.4968567E0,1.28719845E1,7.6695404E0,4.6000908E1,2.9695961E1,2.047173E1,3.2110565E1,2.4362057E1,2.3063866E1,3.4422424E1,2.0536705E1,2.0672882E1,2.375238E1,4.116919E0,0E0,0E0,0E0,0E0,0E0,0E0,0E0,0E0,0E0,0E0,0E0,0E0,0E0,0E0,0E0,0E0,0E0,0E0,0E0,0E0,0E0,0E0,0E0,0E0,0E0,0E0,0E0,0E0,0E0,0E0,0E0,0E0],"parents":[2147483647,0,0,1,1,2,2,3,3,4,4,5,5,6,6,7,7,8,8,9,9,10,10,11,11,12,12,13,13,14,14,15,15,16,16,17,17,18,18,19,19,20,20,21,21,22,22,23,23,24,24,25,25,26,26,27,27,28,28,29,29,30,30],"right_children":[2,4,6,8,10,12,14,16,18,20,22,24,26,28,30,32,34,36,38,40,42,44,46,48,50,52,54,56,58,60,62,-1,-1,-1,-1,-1,-1,-1,-1,-1,-1,-1,-1,-1,-1,-1,-1,-1,-1,-1,-1,-1,-1,-1,-1,-1,-1,-1,-1,-1,-1,-1,-1],"split_conditions":[4.6E0,7E-1,2.8E0,8E-1,1.7E0,2.3529413E0,2.7777777E0,5.152027E-1,8.378378E-1,1.8E1,2.3333334E1,6.4313984E-1,1.1135529E0,8.4E1,5.3521127E-1,1.46E1,1.4285715E-1,2.4E-1,1.0769231E0,1.6E1,4.4788274E-1,5.675676E-1,5.8E0,6E-1,1.024695E0,4.8E0,4.6706587E-1,2.3333333E0,1.02E2,5.1756585E-1,3.125E0,-2.3621101E-2,6.8642035E-2,-3.0579528E-2,-2.676163E-2,-2.4032665E-2,-1.8555587E-2,-1.6994294E-3,-1.8058572E-2,-1.2499725E-3,-1.35854455E-2,4.1466173E-2,-3.0730926E-3,-1.9438639E-3,7.773476E-2,4.3951787E-2,1.1737704E-2,2.7474016E-2,1.1962577E-2,3.0461717E-2,-6.900217E-3,1.3682109E-1,-3.5955657E-3,3.41881E-2,1.2373231E-2,3.2138024E-2,1.2380922E-2,5.575161E-2,2.811046E-2,8.464949E-2,4.1883256E-2,-6.6407E-2,-9.288947E-3],"split_indices":[14,1,1,14,10,2,2,12,2,5,5,12,4,7,11,13,10,10,8,7,12,11,13,16,4,14,11,8,7,12,10,0,0,0,0,0,0,0,0,0,0,0,0,0,0,0,0,0,0,0,0,0,0,0,0,0,0,0,0,0,0,0,0],"split_type":[0,0,0,0,0,0,0,0,0,0,0,0,0,0,0,0,0,0,0,0,0,0,0,0,0,0,0,0,0,0,0,0,0,0,0,0,0,0,0,0,0,0,0,0,0,0,0,0,0,0,0,0,0,0,0,0,0,0,0,0,0,0,0],"sum_hessian":[1.7791E4,1.0983E4,6.808E3,4.981E3,6.002E3,4.999E3,1.809E3,2.298E3,2.683E3,4.865E3,1.137E3,3.956E3,1.043E3,8.28E2,9.81E2,4.24E2,1.874E3,2.199E3,4.84E2,1.509E3,3.356E3,4.68E2,6.69E2,3.512E3,4.44E2,1.17E2,9.26E2,5.48E2,2.8E2,9.68E2,1.3E1,4.22E2,2E0,1.486E3,3.88E2,5.14E2,1.685E3,2.27E2,2.57E2,1.4E2,1.369E3,5.8E1,3.298E3,4.57E2,1.1E1,5.3E1,6.16E2,3.74E2,3.138E3,4.8E1,3.96E2,2E0,1.15E2,6.76E2,2.5E2,2.25E2,3.23E2,1.37E2,1.43E2,3.4E1,9.34E2,5E0,8E0],"tree_param":{"num_deleted":"0","num_feature":"17","num_nodes":"63","size_leaf_vector":"1"}},{"base_weights":[6.083138E-3,-2.7048367E-1,3.3151287E-1,-4.444669E-1,-1.04035854E-1,2.2059238E-1,6.592553E-1,-5.328445E-1,-3.488058E-1,-1.8185359E-1,2.3678945E-2,9.626357E-2,3.3598724E-1,4.5912626E-1,8.254767E-1,-5.771408E-1,-4.6446893E-1,-4.1543722E-1,-3.0888605E-1,-2.728197E-1,-1.3091727E-1,-9.927025E-2,1.3084401E-1,6.753049E-1,8.256168E-2,2.9641017E-1,5.0384533E-1,-2.3497462E-1,4.9424252E-1,2.526621E0,7.8782755E-1,-2.8911054E-2,5.759991E-3,-1.9354299E-2,-2.5695657E-2,-2.1688884E-2,3.9048546E-3,-1.816729E-2,-1.1258575E-2,-1.54264765E-2,-3.1005894E-3,-4.4121784E-3,-1.5566294E-2,1.3210571E-1,-5.278656E-3,9.706301E-3,-1.14190765E-2,4.8842393E-2,-0E0,-2.2987588E-3,7.2379755E-3,1.5597433E-2,-5.152368E-3,-3.4499373E-2,2.688083E-2,-2.3345647E-2,3.1834733E-2,2.8695395E-2,1.241317E-2,9.696988E-2,2.1750954E-1,3.6657542E-2,6.265896E-2],"categories":[],"categories_nodes":[],"categories_segments":[],"categories_sizes":[],"default_left":[0,0,0,0,0,0,0,0,0,0,0,0,0,0,0,0,0,0,0,0,0,0,0,0,0,0,0,0,0,0,0,0,0,0,0,0,0,0,0,0,0,0,0,0,0,0,0,0,0,0,0,0,0,0,0,0,0,0,0,0,0,0,0],"id":17,"left_children":[1,3,5,7,9,11,13,15,17,19,21,23,25,27,29,31,33,35,37,39,41,43,45,47,49,51,53,55,57,59,61,-1,-1,-1,-1,-1,-1,-1,-1,-1,-1,-1,-1,-1,-1,-1,-1,-1,-1,-1,-1,-1,-1,-1,-1,-1,-1,-1,-1,-1,-1,-1,-1],"loss_changes":[1.6081804E3,2.7961505E2,2.9819116E2,3.9647217E1,4.9096325E1,8.794269E1,6.851898E1,7.0543213E0,5.839905E0,1.4144051E1,2.4655E1,2.331332E1,2.0903076E1,2.3151321E1,7.017883E1,1.2221069E0,3.4223328E0,7.7361755E0,6.356018E0,8.224525E0,1.5099018E1,1.5074939E1,2.2773422E1,1.3838394E1,2.3105259E1,1.604837E1,2.474768E1,9.580284E0,1.739212E1,1.6634537E1,2.7099915E1,0E0,0E0,0E0,0E0,0E0,0E0,0E0,0E0,0E0,0E0,0E0,0E0,0E0,0E0,0E0,0E0,0E0,0E0,0E0,0E0,0E0,0E0,0E0,0E0,0E0,0E0,0E0,0E0,0E0,0E0,0E0,0E0],"parents":[2147483647,0,0,1,1,2,2,3,3,4,4,5,5,6,6,7,7,8,8,9,9,10,10,11,11,12,12,13,13,14,14,15,15,16,16,17,17,18,18,19,19,20,20,21,21,22,22,23,23,24,24,25,25,26,26,27,27,28,28,29,29,30,30],"right_children":[2,4,6,8,10,12,14,16,18,20,22,24,26,28,30,32,34,36,38,40,42,44,46,48,50,52,54,56,58,60,62,-1,-1,-1,-1,-1,-1,-1,-1,-1,-1,-1,-1,-1,-1,-1,-1,-1,-1,-1,-1,-1,-1,-1,-1,-1,-1,-1,-1,-1,-1,-1,-1],"split_conditions":[4E0,2E0,7.2E0,2.5E-1,1.2195122E0,1.8125E0,2.707317E0,3E-1,1.2E0,7.5609756E-1,2.1666666E1,4.360465E-1,1.7464249E0,1.4375E0,4.990715E-1,3.5714287E-1,4.7826087E-1,6.097561E-1,6.976744E-1,3.2E0,5.322581E-1,2.2E0,3.4333332E1,1.5714285E0,2.4333334E1,2.14E1,1.6666666E1,5.9908456E-1,2.5454545E0,1.9E1,2.24E1,-2.8911054E-2,5.759991E-3,-1.9354299E-2,-2.5695657E-2,-2.1688884E-2,3.9048546E-3,-1.816729E-2,-1.1258575E-2,-1.54264765E-2,-3.1005894E-3,-4.4121784E-3,-1.5566294E-2,1.3210571E-1,-5.278656E-3,9.706301E-3,-1.14190765E-2,4.8842393E-2,-0E0,-2.2987588E-3,7.2379755E-3,1.5597433E-2,-5.152368E-3,-3.4499373E-2,2.688083E-2,-2.3345647E-2,3.1834733E-2,2.8695395E-2,1.241317E-2,9.696988E-2,2.1750954E-1,3.6657542E-2,6.265896E-2],"split_indices":[14,14,14,9,2,10,8,4,14,2,5,12,4,9,12,8,11,11,8,14,11,13,5,2,5,13,5,12,2,13,13,0,0,0,0,0,0,0,0,0,0,0,0,0,0,0,0,0,0,0,0,0,0,0,0,0,0,0,0,0,0,0,0],"split_type":[0,0,0,0,0,0,0,0,0,0,0,0,0,0,0,0,0,0,0,0,0,0,0,0,0,0,0,0,0,0,0,0,0,0,0,0,0,0,0,0,0,0,0,0,0,0,0,0,0,0,0,0,0,0,0,0,0,0,0,0,0,0,0],"sum_hessian":[1.7866E4,9.658E3,8.208E3,4.721E3,4.937E3,6.134E3,2.074E3,2.451E3,2.27E3,3.068E3,1.869E3,2.954E3,3.18E3,9.43E2,1.131E3,1.482E3,9.69E2,8.46E2,1.424E3,1.099E3,1.969E3,8.7E2,9.99E2,6.7E1,2.887E3,2.576E3,6.04E2,4.5E1,8.98E2,2.3E1,1.108E3,1.48E3,2E0,3.82E2,5.87E2,8.16E2,3E1,8.6E2,5.64E2,9.39E2,1.6E2,1.594E3,3.75E2,1E0,8.69E2,8.5E2,1.49E2,4.6E1,2.1E1,9.41E2,1.946E3,2.48E3,9.6E1,1.6E1,5.88E2,3.6E1,9E0,6.77E2,2.21E2,1.9E1,4E0,9.94E2,1.14E2],"tree_param":{"num_deleted":"0","num_feature":"17","num_nodes":"63","size_leaf_vector":"1"}},{"base_weights":[-1.5212814E-4,-2.3828115E-1,3.439288E-1,-4.20073E-1,-6.285958E-2,2.3746905E-1,6.085691E-1,-5.141346E-1,-3.3559906E-1,-1.8037945E-1,3.995735E-2,-1.7315468E-1,2.5598258E-1,4.4075844E-1,7.7634406E-1,-5.281037E-1,-3.457766E-1,-3.563866E-1,-1.9954301E-1,-2.4991326E-1,-1.0597127E-1,4.110904E-1,1.25011355E-2,-2.0288368E-1,7.4754655E-2,1.7486188E-1,3.247504E-1,1.2229503E-1,5.525087E-1,6.879873E-1,1.0647148E0,-2.6475308E-2,3.346251E-2,2.2781773E-4,-2.2567471E-2,5.0866543E-3,-1.8038435E-2,-1.2272926E-2,1.4992586E-2,-1.6022732E-2,-8.329694E-3,-3.097764E-3,-2.0049816E-2,7.7011934E-3,5.8089282E-2,-7.360025E-3,2.3824605E-3,2.379221E-3,-2.2073193E-2,1.1990475E-2,3.2151577E-3,2.1874142E-1,1.60793E-2,-1.9628E-2,1.3917697E-2,-1.1069804E-2,2.904178E-2,4.6324395E-2,2.8692305E-2,4.2616926E-2,7.1074836E-2],"categories":[],"categories_nodes":[],"categories_segments":[],"categories_sizes":[],"default_left":[0,0,0,0,0,0,0,0,0,0,0,0,0,0,0,0,0,0,0,0,0,0,0,0,0,0,0,0,0,0,0,0,0,0,0,0,0,0,0,0,0,0,0,0,0,0,0,0,0,0,0,0,0,0,0,0,0,0,0,0,0],"id":18,"left_children":[1,3,5,7,9,11,13,15,17,19,21,23,25,27,29,31,33,35,37,39,41,43,45,47,-1,49,51,53,55,57,59,-1,-1,-1,-1,-1,-1,-1,-1,-1,-1,-1,-1,-1,-1,-1,-1,-1,-1,-1,-1,-1,-1,-1,-1,-1,-1,-1,-1,-1,-1],"loss_changes":[1.4622133E3,3.3627136E2,2.054096E2,4.0893494E1,6.489505E1,3.963669E1,5.8463257E1,5.4872437E0,7.600128E0,1.2903679E1,2.9136398E1,1.1333058E1,2.7690887E1,3.719716E1,2.5718323E1,4.132141E0,7.1109924E0,4.8164062E0,8.437597E0,7.5033493E0,1.5680662E1,3.7706257E1,1.497309E1,1.3326387E1,0E0,1.6390388E1,3.266284E1,2.211312E1,1.7176224E1,2.1178131E1,1.6973663E1,0E0,0E0,0E0,0E0,0E0,0E0,0E0,0E0,0E0,0E0,0E0,0E0,0E0,0E0,0E0,0E0,0E0,0E0,0E0,0E0,0E0,0E0,0E0,0E0,0E0,0E0,0E0,0E0,0E0,0E0],"parents":[2147483647,0,0,1,1,2,2,3,3,4,4,5,5,6,6,7,7,8,8,9,9,10,10,11,11,12,12,13,13,14,14,15,15,16,16,17,17,18,18,19,19,20,20,21,21,22,22,23,23,25,25,26,26,27,27,28,28,29,29,30,30],"right_children":[2,4,6,8,10,12,14,16,18,20,22,24,26,28,30,32,34,36,38,40,42,44,46,48,-1,50,52,54,56,58,60,-1,-1,-1,-1,-1,-1,-1,-1,-1,-1,-1,-1,-1,-1,-1,-1,-1,-1,-1,-1,-1,-1,-1,-1,-1,-1,-1,-1,-1,-1],"split_conditions":[1.6E0,2.2E0,7.2E0,2.5773194E-1,1.1086956E0,1.6666666E1,2.7777777E0,1.2E0,9E-1,3E0,3.372093E-1,9.8E0,1.877193E0,3E1,3.7741935E0,6E-1,4.21875E-1,6.666667E-2,9.4E1,1.6E0,6.3993174E-1,2.3333334E1,1.7666666E1,5.8E0,7.4754655E-2,4.878049E-1,6E-1,5.497685E-1,1.4285715E0,3.0526316E0,1.7888544E0,-2.6475308E-2,3.346251E-2,2.2781773E-4,-2.2567471E-2,5.0866543E-3,-1.8038435E-2,-1.2272926E-2,1.4992586E-2,-1.6022732E-2,-8.329694E-3,-3.097764E-3,-2.0049816E-2,7.7011934E-3,5.8089282E-2,-7.360025E-3,2.3824605E-3,2.379221E-3,-2.2073193E-2,1.1990475E-2,3.2151577E-3,2.1874142E-1,1.60793E-2,-1.9628E-2,1.3917697E-2,-1.1069804E-2,2.904178E-2,4.6324395E-2,2.8692305E-2,4.2616926E-2,7.1074836E-2],"split_indices":[1,14,14,2,2,5,2,14,1,14,11,13,10,5,10,1,11,10,7,16,12,5,5,13,0,11,0,12,10,10,3,0,0,0,0,0,0,0,0,0,0,0,0,0,0,0,0,0,0,0,0,0,0,0,0,0,0,0,0,0,0],"split_type":[0,0,0,0,0,0,0,0,0,0,0,0,0,0,0,0,0,0,0,0,0,0,0,0,0,0,0,0,0,0,0,0,0,0,0,0,0,0,0,0,0,0,0,0,0,0,0,0,0,0,0,0,0,0,0,0,0,0,0,0,0],"sum_hessian":[1.7844E4,1.0546E4,7.298E3,5.178E3,5.368E3,5.206E3,2.092E3,2.447E3,2.731E3,2.505E3,2.863E3,2.24E2,4.982E3,1.048E3,1.044E3,2.257E3,1.9E2,2.367E3,3.64E2,1.293E3,1.212E3,1.96E2,2.667E3,2.21E2,3E0,2.288E3,2.694E3,2.73E2,7.75E2,8.02E2,2.42E2,2.255E3,2E0,4.4E1,1.46E2,2.2E1,2.345E3,3.34E2,3E1,6.98E2,5.95E2,1.056E3,1.56E2,1.47E2,4.9E1,4.8E2,2.187E3,1.08E2,1.13E2,1.44E3,8.48E2,1E0,2.693E3,6.3E1,2.1E2,2.7E1,7.48E2,2.57E2,5.45E2,1.54E2,8.8E1],"tree_param":{"num_deleted":"0","num_feature":"17","num_nodes":"61","size_leaf_vector":"1"}},{"base_weights":[1.8752312E-3,-2.788113E-1,2.6789948E-1,-4.2041737E-1,-1.3156378E-1,1.3189474E-1,4.6602708E-1,-4.8345995E-1,-3.330512E-1,-1.8950108E-1,-2.9290661E-2,2.6092477E-2,2.4045086E-1,3.2283485E-1,6.0305595E-1,-5.2482885E-1,-4.2958802E-1,-2.7595726E-1,-3.9879316E-1,-2.781077E-1,-1.334101E-1,-4.9277786E-2,5.5404425E-1,-4.302612E-2,9.756107E-2,6.8403676E-2,2.8836656E-1,-5.4903205E-2,3.5995224E-1,5.554935E-1,8.5318714E-1,-2.6270082E-2,5.0849654E-3,-1.6430542E-2,-2.2985002E-2,-1.4196642E-2,4.4028603E-2,-2.3144491E-2,-1.5885362E-2,-1.4181718E-2,4.5795094E-2,1.8431716E-2,-7.3178746E-3,-1.0241218E-3,-1.6434979E-2,1.5505245E-1,1.9237867E-2,-6.6519193E-3,2.468936E-3,4.913057E-2,4.2081974E-3,5.483854E-3,-2.4761012E-2,3.0294944E-2,1.2753597E-2,-1.7460082E-2,6.0904734E-3,3.3627402E-2,1.5724398E-2,6.318477E-2,2.6848087E-2,4.838268E-2,1.0471488E-2],"categories":[],"categories_nodes":[],"categories_segments":[],"categories_sizes":[],"default_left":[0,0,0,0,0,0,0,0,0,0,0,0,0,0,0,0,0,0,0,0,0,0,0,0,0,0,0,0,0,0,0,0,0,0,0,0,0,0,0,0,0,0,0,0,0,0,0,0,0,0,0,0,0,0,0,0,0,0,0,0,0,0,0],"id":19,"left_children":[1,3,5,7,9,11,13,15,17,19,21,23,25,27,29,31,33,35,37,39,41,43,45,47,49,51,53,55,57,59,61,-1,-1,-1,-1,-1,-1,-1,-1,-1,-1,-1,-1,-1,-1,-1,-1,-1,-1,-1,-1,-1,-1,-1,-1,-1,-1,-1,-1,-1,-1,-1,-1],"loss_changes":[1.3326241E3,1.8096082E2,2.4678766E2,2.4134827E1,2.520897E1,6.2390656E1,7.2881165E1,5.4022217E0,6.800171E0,1.3430283E1,1.7955292E1,1.3613884E1,2.2054367E1,2.5651978E1,2.2036804E1,6.1505127E-1,3.1817017E0,9.405113E0,4.2497864E0,7.138588E0,1.08675E1,1.1963053E1,2.044817E1,1.1659531E1,1.5877037E1,1.3647691E1,2.1929077E1,8.594302E0,2.332425E1,2.0179443E1,2.1933594E1,0E0,0E0,0E0,0E0,0E0,0E0,0E0,0E0,0E0,0E0,0E0,0E0,0E0,0E0,0E0,0E0,0E0,0E0,0E0,0E0,0E0,0E0,0E0,0E0,0E0,0E0,0E0,0E0,0E0,0E0,0E0,0E0],"parents":[2147483647,0,0,1,1,2,2,3,3,4,4,5,5,6,6,7,7,8,8,9,9,10,10,11,11,12,12,13,13,14,14,15,15,16,16,17,17,18,18,19,19,20,20,21,21,22,22,23,23,24,24,25,25,26,26,27,27,28,28,29,29,30,30],"right_children":[2,4,6,8,10,12,14,16,18,20,22,24,26,28,30,32,34,36,38,40,42,44,46,48,50,52,54,56,58,60,62,-1,-1,-1,-1,-1,-1,-1,-1,-1,-1,-1,-1,-1,-1,-1,-1,-1,-1,-1,-1,-1,-1,-1,-1,-1,-1,-1,-1,-1,-1,-1,-1],"split_conditions":[1.3E0,6E-1,2.0857143E0,2.7272728E-1,1.1086956E0,1.8E0,7E0,6.25E-2,4.5128205E-1,1.8E1,1.6248077E0,1.4666667E0,2.3333334E1,2.0333334E1,3.7666667E0,1.4E0,4.800591E-1,3.3666668E1,5.16129E-1,1.3846154E0,3.409091E-1,3.5E1,3.0769232E-1,2.4666666E1,1.483871E0,2.3E1,6E-1,6E-1,6E-1,3.5714287E-1,3.8E1,-2.6270082E-2,5.0849654E-3,-1.6430542E-2,-2.2985002E-2,-1.4196642E-2,4.4028603E-2,-2.3144491E-2,-1.5885362E-2,-1.4181718E-2,4.5795094E-2,1.8431716E-2,-7.3178746E-3,-1.0241218E-3,-1.6434979E-2,1.5505245E-1,1.9237867E-2,-6.6519193E-3,2.468936E-3,4.913057E-2,4.2081974E-3,5.483854E-3,-2.4761012E-2,3.0294944E-2,1.2753597E-2,-1.7460082E-2,6.0904734E-3,3.3627402E-2,1.5724398E-2,6.318477E-2,2.6848087E-2,4.838268E-2,1.0471488E-2],"split_indices":[1,1,2,9,2,1,14,2,11,5,3,8,5,5,9,14,12,5,11,9,11,5,11,5,8,5,16,16,16,11,5,0,0,0,0,0,0,0,0,0,0,0,0,0,0,0,0,0,0,0,0,0,0,0,0,0,0,0,0,0,0,0,0],"split_type":[0,0,0,0,0,0,0,0,0,0,0,0,0,0,0,0,0,0,0,0,0,0,0,0,0,0,0,0,0,0,0,0,0,0,0,0,0,0,0,0,0,0,0,0,0,0,0,0,0,0,0,0,0,0,0,0,0,0,0,0,0,0,0],"sum_hessian":[1.7845E4,8.683E3,9.162E3,4.425E3,4.258E3,5.434E3,3.728E3,2.567E3,1.858E3,2.717E3,1.541E3,2.753E3,2.681E3,1.825E3,1.903E3,1.446E3,1.121E3,9.98E2,8.6E2,1.051E3,1.666E3,1.491E3,5E1,1.399E3,1.354E3,5.85E2,2.096E3,1.63E2,1.662E3,1.602E3,3.01E2,1.445E3,1E0,2.61E2,8.6E2,9.92E2,6E0,4.77E2,3.83E2,1.047E3,4E0,4.1E1,1.625E3,1.353E3,1.38E2,2E0,4.8E1,7.09E2,6.9E2,1.9E1,1.335E3,5.46E2,3.9E1,1.97E2,1.899E3,6.1E1,1.02E2,2.09E2,1.453E3,3.9E1,1.563E3,2.55E2,4.6E1],"tree_param":{"num_deleted":"0","num_feature":"17","num_nodes":"63","size_leaf_vector":"1"}},{"base_weights":[-1.3857246E-3,-2.1556453E-1,3.1050098E-1,-3.9337465E-1,-7.237001E-2,1.90384E-1,5.438466E-1,-4.7862887E-1,-3.3277658E-1,-1.434643E-1,5.168224E-2,1.7291315E-1,5.666978E-1,4.665127E-1,8.3428603E-1,-4.8396465E-1,8.686255E-1,-3.9000985E-1,-2.9303688E-1,-2.3591697E-1,-9.099281E-2,-1.2507215E-1,1.7117506E-1,5.960437E-1,1.5833987E-1,1.3578582E-1,7.432362E-1,4.8031038E-1,-1.12858795E-1,9.1348886E-1,-1.573146E-1,-2.052234E-2,-2.500088E-2,9.1832966E-2,-2.9763326E-3,-9.293838E-3,-2.0329963E-2,-2.7226622E-3,-1.57471E-2,-1.7662453E-2,-9.800371E-3,-5.1082135E-3,1.6668757E-2,-1.1171947E-2,4.7877277E-4,7.929137E-3,8.6849414E-2,6.3254307E-3,5.3129923E-2,-1.1396616E-2,8.485946E-3,2.6834259E-2,-5.3457446E-2,2.7677426E-2,6.7391135E-2,5.792395E-2,2.3198662E-2,6.8073585E-3,-5.8139425E-2,4.0178802E-2,6.957918E-2,3.543779E-2,-4.316562E-2],"categories":[],"categories_nodes":[],"categories_segments":[],"categories_sizes":[],"default_left":[0,0,0,0,0,0,0,0,0,0,0,0,0,0,0,0,0,0,0,0,0,0,0,0,0,0,0,0,0,0,0,0,0,0,0,0,0,0,0,0,0,0,0,0,0,0,0,0,0,0,0,0,0,0,0,0,0,0,0,0,0,0,0],"id":20,"left_children":[1,3,5,7,9,11,13,15,17,19,21,23,25,27,29,31,33,35,37,39,41,43,45,47,49,51,53,55,57,59,61,-1,-1,-1,-1,-1,-1,-1,-1,-1,-1,-1,-1,-1,-1,-1,-1,-1,-1,-1,-1,-1,-1,-1,-1,-1,-1,-1,-1,-1,-1,-1,-1],"loss_changes":[1.1910261E3,2.690777E2,2.0328387E2,2.411847E1,5.167186E1,3.1346283E1,5.486914E1,1.4442871E1,6.0948486E0,1.8011436E1,4.5097984E1,2.8090805E1,1.5938553E1,1.567923E1,4.0823242E1,2.0038757E0,7.474905E0,3.6817017E0,8.485535E0,6.1833954E0,1.1284586E1,1.1427344E1,2.4654755E1,3.304436E1,1.9513329E1,3.0953176E1,1.626616E1,2.0406342E1,1.2287159E1,2.3833069E1,2.4473642E1,0E0,0E0,0E0,0E0,0E0,0E0,0E0,0E0,0E0,0E0,0E0,0E0,0E0,0E0,0E0,0E0,0E0,0E0,0E0,0E0,0E0,0E0,0E0,0E0,0E0,0E0,0E0,0E0,0E0,0E0,0E0,0E0],"parents":[2147483647,0,0,1,1,2,2,3,3,4,4,5,5,6,6,7,7,8,8,9,9,10,10,11,11,12,12,13,13,14,14,15,15,16,16,17,17,18,18,19,19,20,20,21,21,22,22,23,23,24,24,25,25,26,26,27,27,28,28,29,29,30,30],"right_children":[2,4,6,8,10,12,14,16,18,20,22,24,26,28,30,32,34,36,38,40,42,44,46,48,50,52,54,56,58,60,62,-1,-1,-1,-1,-1,-1,-1,-1,-1,-1,-1,-1,-1,-1,-1,-1,-1,-1,-1,-1,-1,-1,-1,-1,-1,-1,-1,-1,-1,-1,-1,-1],"split_conditions":[4.4E0,2E0,2.3529413E0,1.6666667E-1,1.3148148E0,8E0,3.4047618E0,5.625E-1,1.1666667E1,8.3066237E-1,2.1666666E1,2E-1,5.4E1,5.4285717E-1,5E0,4.9473685E-1,3.853211E-1,3.6363637E-1,3.7333333E-1,5.625E-1,3.7E1,1.6486486E0,1.25E2,2.3666666E1,8.695652E-1,5.880579E-1,4.6853146E-1,4.8E0,2.857143E0,2.1908903E0,1E0,-2.052234E-2,-2.500088E-2,9.1832966E-2,-2.9763326E-3,-9.293838E-3,-2.0329963E-2,-2.7226622E-3,-1.57471E-2,-1.7662453E-2,-9.800371E-3,-5.1082135E-3,1.6668757E-2,-1.1171947E-2,4.7877277E-4,7.929137E-3,8.6849414E-2,6.3254307E-3,5.3129923E-2,-1.1396616E-2,8.485946E-3,2.6834259E-2,-5.3457446E-2,2.7677426E-2,6.7391135E-2,5.792395E-2,2.3198662E-2,6.8073585E-3,-5.8139425E-2,4.0178802E-2,6.957918E-2,3.543779E-2,-4.316562E-2],"split_indices":[14,14,2,10,2,14,2,9,5,4,5,16,7,11,0,11,2,12,11,2,5,9,7,5,9,12,11,14,9,4,6,0,0,0,0,0,0,0,0,0,0,0,0,0,0,0,0,0,0,0,0,0,0,0,0,0,0,0,0,0,0,0,0],"split_type":[0,0,0,0,0,0,0,0,0,0,0,0,0,0,0,0,0,0,0,0,0,0,0,0,0,0,0,0,0,0,0,0,0,0,0,0,0,0,0,0,0,0,0,0,0,0,0,0,0,0,0,0,0,0,0,0,0,0,0,0,0,0,0],"sum_hessian":[1.7828E4,1.057E4,7.258E3,4.714E3,5.856E3,4.793E3,2.465E3,1.955E3,2.759E3,3.723E3,2.133E3,4.582E3,2.11E2,1.949E3,5.16E2,1.948E3,7E0,1.126E3,1.633E3,1.346E3,2.377E3,8.6E2,1.273E3,1.51E2,4.431E3,6.2E1,1.49E2,1.904E3,4.5E1,4.78E2,3.8E1,3.55E2,1.593E3,3E0,4E0,8.6E1,1.04E3,1.38E2,1.495E3,3.39E2,1.007E3,2.317E3,6E1,4.97E2,3.63E2,1.264E3,9E0,7.6E1,7.5E1,1.26E2,4.305E3,4.7E1,1.5E1,1.15E2,3.4E1,4.3E1,1.861E3,3.7E1,8E0,3.91E2,8.7E1,1.7E1,2.1E1],"tree_param":{"num_deleted":"0","num_feature":"17","num_nodes":"63","size_leaf_vector":"1"}},{"base_weights":[1.0021647E-3,-2.785317E-1,2.0937969E-1,-4.1343656E-1,-1.6341576E-1,1.1793299E-1,5.2322733E-1,-4.7179526E-1,-3.608438E-1,-2.2558019E-1,-4.0165957E-2,2.4677305E-2,2.0837188E-1,3.7654096E-1,7.4942356E-1,-4.736409E-1,6.623185E-1,-3.916656E-1,-2.848888E-1,-2.922559E-1,-1.6754279E-1,-1.8942204E-1,7.919951E-2,1.6122501E-2,1.3893204E0,1.7170613E-1,3.7677592E-1,-2.446844E-1,4.1527486E-1,2.2598722E0,7.2109216E-1,-2.378458E-2,-8.619481E-3,-0E0,4.8491236E-2,-1.8114265E-2,-2.488156E-2,3.857199E-2,-1.48260165E-2,-3.0759145E-2,-1.3774981E-2,3.2001454E-3,-1.0395988E-2,-1.1306661E-2,1.2611679E-2,-4.9741816E-4,1.4536095E-2,-2.120715E-4,1.8808033E-2,1.2096318E-1,4.5302346E-2,8.983679E-3,-2.3722697E-2,-1.664045E-2,2.0652585E-2,3.377818E-3,-2.966231E-2,2.1149803E-2,-6.570299E-2,1.3260089E-1,-1.4504884E-2,-1.1336582E-4,3.8839605E-2],"categories":[],"categories_nodes":[],"categories_segments":[],"categories_sizes":[],"default_left":[0,0,0,0,0,0,0,0,0,0,0,0,0,0,0,0,0,0,0,0,0,0,0,0,0,0,0,0,0,0,0,0,0,0,0,0,0,0,0,0,0,0,0,0,0,0,0,0,0,0,0,0,0,0,0,0,0,0,0,0,0,0,0],"id":21,"left_children":[1,3,5,7,9,11,13,15,17,19,21,23,25,27,29,31,33,35,37,39,41,43,45,47,49,51,53,55,57,59,61,-1,-1,-1,-1,-1,-1,-1,-1,-1,-1,-1,-1,-1,-1,-1,-1,-1,-1,-1,-1,-1,-1,-1,-1,-1,-1,-1,-1,-1,-1,-1,-1],"loss_changes":[1.030294E3,1.171861E2,2.9072336E2,1.0418213E1,3.1209007E1,6.616955E1,7.545447E1,3.7360535E0,4.114273E0,1.03918915E1,2.4416159E1,4.4969727E1,2.4480316E1,3.354146E1,3.650055E1,8.675232E-1,5.651226E-1,3.7841187E0,6.742367E0,6.5539703E0,1.3602615E1,9.92857E0,1.4380972E1,2.8214867E1,9.42136E0,1.6911133E1,1.8447151E1,9.017131E0,1.793187E1,1.700489E1,3.565622E1,0E0,0E0,0E0,0E0,0E0,0E0,0E0,0E0,0E0,0E0,0E0,0E0,0E0,0E0,0E0,0E0,0E0,0E0,0E0,0E0,0E0,0E0,0E0,0E0,0E0,0E0,0E0,0E0,0E0,0E0,0E0,0E0],"parents":[2147483647,0,0,1,1,2,2,3,3,4,4,5,5,6,6,7,7,8,8,9,9,10,10,11,11,12,12,13,13,14,14,15,15,16,16,17,17,18,18,19,19,20,20,21,21,22,22,23,23,24,24,25,25,26,26,27,27,28,28,29,29,30,30],"right_children":[2,4,6,8,10,12,14,16,18,20,22,24,26,28,30,32,34,36,38,40,42,44,46,48,50,52,54,56,58,60,62,-1,-1,-1,-1,-1,-1,-1,-1,-1,-1,-1,-1,-1,-1,-1,-1,-1,-1,-1,-1,-1,-1,-1,-1,-1,-1,-1,-1,-1,-1,-1,-1],"split_conditions":[3.2E0,1.4E0,7E0,9.090909E-2,1.0588236E0,4.8E0,3.2E0,6E-1,6.324555E-1,6E-1,1.8666666E1,2.8125E0,1.7464249E0,1.4736842E0,1.0954452E0,1.2E0,2.9333334E1,5.4E0,2.5E-2,6.6666665E0,4.741727E-1,2.2E0,1.4545455E0,2.2E0,1.6E0,5.625E-1,1.8333334E1,1.5135136E0,5.466667E-1,3.7666668E1,9.797959E-1,-2.378458E-2,-8.619481E-3,-0E0,4.8491236E-2,-1.8114265E-2,-2.488156E-2,3.857199E-2,-1.48260165E-2,-3.0759145E-2,-1.3774981E-2,3.2001454E-3,-1.0395988E-2,-1.1306661E-2,1.2611679E-2,-4.9741816E-4,1.4536095E-2,-2.120715E-4,1.8808033E-2,1.2096318E-1,4.5302346E-2,8.983679E-3,-2.3722697E-2,-1.664045E-2,2.0652585E-2,3.377818E-3,-2.966231E-2,2.1149803E-2,-6.570299E-2,1.3260089E-1,-1.4504884E-2,-1.1336582E-4,3.8839605E-2],"split_indices":[14,14,14,9,8,14,1,1,4,8,5,9,4,9,4,14,5,13,8,5,12,16,8,1,0,11,5,8,11,5,3,0,0,0,0,0,0,0,0,0,0,0,0,0,0,0,0,0,0,0,0,0,0,0,0,0,0,0,0,0,0,0,0],"split_type":[0,0,0,0,0,0,0,0,0,0,0,0,0,0,0,0,0,0,0,0,0,0,0,0,0,0,0,0,0,0,0,0,0,0,0,0,0,0,0,0,0,0,0,0,0,0,0,0,0,0,0,0,0,0,0,0,0,0,0,0,0,0,0],"sum_hessian":[1.7686E4,7.553E3,1.0133E4,3.476E3,4.077E3,7.848E3,2.285E3,1.643E3,1.833E3,2.709E3,1.368E3,3.865E3,3.983E3,1.388E3,8.97E2,1.641E3,2E0,1.3E3,5.33E2,1.258E3,1.451E3,6.08E2,7.6E2,3.842E3,2.3E1,3.273E3,7.1E2,8.1E1,1.307E3,1.5E1,8.82E2,1.629E3,1.2E1,1E0,1E0,1.022E3,2.78E2,5E0,5.28E2,6E1,1.198E3,2.15E2,1.236E3,5.62E2,4.6E1,5.35E2,2.25E2,3.637E3,2.05E2,6E0,1.7E1,3.234E3,3.9E1,3.4E1,6.76E2,4.3E1,3.8E1,1.302E3,5E0,1.3E1,2E0,6.3E1,8.19E2],"tree_param":{"num_deleted":"0","num_feature":"17","num_nodes":"63","size_leaf_vector":"1"}},{"base_weights":[-1.7871497E-3,-1.9422935E-1,2.7559304E-1,-3.4624004E-1,-6.949688E-2,1.3809481E-1,4.272807E-1,-4.1334715E-1,-2.7350676E-1,-1.5850215E-1,5.3794063E-3,5.6629233E-2,2.4604176E-1,2.1172467E-1,4.9973366E-1,-4.1888252E-1,-1.0499691E-1,-3.3869958E-1,-2.3944247E-1,-1.6061077E-1,1.3244206E-1,-3.2131786E-3,6.402102E-1,1.3755322E-1,-5.592468E-2,1.7186885E0,2.3226905E-1,3.0930704E-1,-3.09269E-2,3.6936343E-1,5.896048E-1,-1.5504109E-2,-2.1461265E-2,1.0401865E-2,-2.2313083E-2,-9.236843E-3,-1.8278077E-2,-1.1520626E-2,-2.9849036E-2,-7.5389124E-3,-2.6131595E-2,-3.8528108E-4,6.2334444E-2,7.135186E-2,-3.3737333E-3,1.3281311E-3,1.5178575E-2,-5.0834245E-3,1.4411914E-2,1.177597E-1,5.107761E-2,2.1223927E-1,1.1356779E-2,-1.859799E-3,1.9569624E-2,-4.0407963E-3,6.54201E-2,2.2390893E-2,3.7887872E-3,3.2277185E-2,1.4204388E-2],"categories":[],"categories_nodes":[],"categories_segments":[],"categories_sizes":[],"default_left":[0,0,0,0,0,0,0,0,0,0,0,0,0,0,0,0,0,0,0,0,0,0,0,0,0,0,0,0,0,0,0,0,0,0,0,0,0,0,0,0,0,0,0,0,0,0,0,0,0,0,0,0,0,0,0,0,0,0,0,0,0],"id":22,"left_children":[1,3,5,7,9,11,13,15,17,19,21,23,25,27,29,31,33,35,37,39,-1,41,43,45,47,49,51,53,55,57,59,-1,-1,-1,-1,-1,-1,-1,-1,-1,-1,-1,-1,-1,-1,-1,-1,-1,-1,-1,-1,-1,-1,-1,-1,-1,-1,-1,-1,-1,-1],"loss_changes":[9.491356E2,1.9898349E2,1.5178448E2,2.2909912E1,3.8456337E1,3.3566315E1,5.389142E1,4.09906E0,4.911072E0,1.5780647E1,1.7155764E1,1.9871971E1,3.2729584E1,2.0708748E1,3.0032104E1,2.5093994E0,4.9239006E0,3.0909042E0,4.616089E0,9.233345E0,0E0,1.724764E1,2.3618917E1,2.3342112E1,1.4368562E1,3.912342E0,3.2143074E1,1.7769867E1,1.6754251E1,2.4328949E1,2.5888855E1,0E0,0E0,0E0,0E0,0E0,0E0,0E0,0E0,0E0,0E0,0E0,0E0,0E0,0E0,0E0,0E0,0E0,0E0,0E0,0E0,0E0,0E0,0E0,0E0,0E0,0E0,0E0,0E0,0E0,0E0],"parents":[2147483647,0,0,1,1,2,2,3,3,4,4,5,5,6,6,7,7,8,8,9,9,10,10,11,11,12,12,13,13,14,14,15,15,16,16,17,17,18,18,19,19,21,21,22,22,23,23,24,24,25,25,26,26,27,27,28,28,29,29,30,30],"right_children":[2,4,6,8,10,12,14,16,18,20,22,24,26,28,30,32,34,36,38,40,-1,42,44,46,48,50,52,54,56,58,60,-1,-1,-1,-1,-1,-1,-1,-1,-1,-1,-1,-1,-1,-1,-1,-1,-1,-1,-1,-1,-1,-1,-1,-1,-1,-1,-1,-1,-1,-1],"split_conditions":[1.6E0,2E0,6.2E0,2.6666668E-1,1.0833334E0,1.9666667E0,2.03125E0,6E-1,4.347826E-1,2.6E0,6.4E0,4.848485E-1,3.372093E-1,2.0208333E0,2.547619E0,3.8842976E-1,5.894128E-1,3E-1,1.6153846E0,1.0666667E0,1.3244206E-1,2.6666667E0,1.1661904E0,5.2E0,1.9E0,6E-1,6E-1,1.3478261E0,8.8E0,2.5454545E0,4.9586776E-1,-1.5504109E-2,-2.1461265E-2,1.0401865E-2,-2.2313083E-2,-9.236843E-3,-1.8278077E-2,-1.1520626E-2,-2.9849036E-2,-7.5389124E-3,-2.6131595E-2,-3.8528108E-4,6.2334444E-2,7.135186E-2,-3.3737333E-3,1.3281311E-3,1.5178575E-2,-5.0834245E-3,1.4411914E-2,1.177597E-1,5.107761E-2,2.1223927E-1,1.1356779E-2,-1.859799E-3,1.9569624E-2,-4.0407963E-3,6.54201E-2,2.2390893E-2,3.7887872E-3,3.2277185E-2,1.4204388E-2],"split_indices":[1,14,14,10,2,8,9,1,9,15,14,11,11,2,8,11,12,10,10,2,0,9,3,14,10,16,15,9,14,2,11,0,0,0,0,0,0,0,0,0,0,0,0,0,0,0,0,0,0,0,0,0,0,0,0,0,0,0,0,0,0],"split_type":[0,0,0,0,0,0,0,0,0,0,0,0,0,0,0,0,0,0,0,0,0,0,0,0,0,0,0,0,0,0,0,0,0,0,0,0,0,0,0,0,0,0,0,0,0,0,0,0,0,0,0,0,0,0,0,0,0,0,0,0,0],"sum_hessian":[1.7779E4,1.0497E4,7.282E3,4.73E3,5.767E3,3.821E3,3.461E3,2.457E3,2.273E3,2.635E3,3.132E3,2.179E3,1.642E3,8.72E2,2.589E3,2.413E3,4.4E1,7.76E2,1.497E3,2.634E3,1E0,3.091E3,4.1E1,1.268E3,9.11E2,1.4E1,1.628E3,6.22E2,2.5E2,1.059E3,1.53E3,2.13E2,2.2E3,2.3E1,2.1E1,1.17E2,6.59E2,1.462E3,3.5E1,2.566E3,6.8E1,3.081E3,1E1,1.9E1,2.2E1,7.61E2,5.07E2,8.05E2,1.06E2,6E0,8E0,1E0,1.627E3,1.19E2,5.03E2,2.42E2,8E0,8.35E2,2.24E2,1.292E3,2.38E2],"tree_param":{"num_deleted":"0","num_feature":"17","num_nodes":"61","size_leaf_vector":"1"}},{"base_weights":[8.174278E-3,-1.7689787E-1,2.786555E-1,-3.3653995E-1,-6.953528E-2,1.8899529E-1,5.073272E-1,-4.2257017E-1,-2.8658253E-1,-1.5403946E-1,8.303062E-3,-7.155051E-2,2.1589564E-1,3.7719765E-1,6.104694E-1,-4.2562208E-1,3.0757266E-1,-2.9252118E-1,7.084611E-2,-2.3296271E-1,-1.04225956E-1,9.229864E-1,-5.0586653E-3,-9.242433E-2,1.1903688E0,1.767207E-1,3.6796752E-1,7.86043E-1,3.2124567E-1,1.5212721E0,5.853713E-1,-1.42520955E-2,-2.1518936E-2,7.6144196E-2,-6.6063264E-3,-1.6739031E-2,-1.3136134E-2,4.691519E-2,-2.6925365E-2,-9.702757E-3,-1.8607916E-2,1.15086315E-2,-6.0313325E-3,-1.01938555E-2,6.7510895E-2,-1.9415951E-3,9.421986E-3,-1.0474562E-2,5.595194E-3,7.228818E-2,-1.243485E-2,8.201299E-3,4.18888E-2,1.605062E-2,4.4371407E-2,1.5559645E-2,6.59003E-2,3.0463848E-2,1.2573505E-2,5.250966E-2,2.6887923E-1,6.1079133E-2,2.7240274E-2],"categories":[],"categories_nodes":[],"categories_segments":[],"categories_sizes":[],"default_left":[0,0,0,0,0,0,0,0,0,0,0,0,0,0,0,0,0,0,0,0,0,0,0,0,0,0,0,0,0,0,0,0,0,0,0,0,0,0,0,0,0,0,0,0,0,0,0,0,0,0,0,0,0,0,0,0,0,0,0,0,0,0,0],"id":23,"left_children":[1,3,5,7,9,11,13,15,17,19,21,23,25,27,29,31,33,35,37,39,41,43,45,47,49,51,53,55,57,59,61,-1,-1,-1,-1,-1,-1,-1,-1,-1,-1,-1,-1,-1,-1,-1,-1,-1,-1,-1,-1,-1,-1,-1,-1,-1,-1,-1,-1,-1,-1,-1,-1],"loss_changes":[9.007127E2,1.8303824E2,1.4970966E2,1.8267181E1,4.2040543E1,3.6847E1,2.7293152E1,3.6523438E0,5.8186035E0,1.1987946E1,4.0745995E1,1.2960035E1,2.8249664E1,2.0522278E1,2.5095734E1,8.5494995E-1,4.0808883E0,3.223343E0,2.4331736E1,6.2834244E0,1.0332907E1,2.349863E1,2.142084E1,1.1634436E1,3.4195013E0,3.1559357E1,2.3351425E1,2.6960625E1,1.5939247E1,4.820855E1,2.798587E1,0E0,0E0,0E0,0E0,0E0,0E0,0E0,0E0,0E0,0E0,0E0,0E0,0E0,0E0,0E0,0E0,0E0,0E0,0E0,0E0,0E0,0E0,0E0,0E0,0E0,0E0,0E0,0E0,0E0,0E0,0E0,0E0],"parents":[2147483647,0,0,1,1,2,2,3,3,4,4,5,5,6,6,7,7,8,8,9,9,10,10,11,11,12,12,13,13,14,14,15,15,16,16,17,17,18,18,19,19,20,20,21,21,22,22,23,23,24,24,25,25,26,26,27,27,28,28,29,29,30,30],"right_children":[2,4,6,8,10,12,14,16,18,20,22,24,26,28,30,32,34,36,38,40,42,44,46,48,50,52,54,56,58,60,62,-1,-1,-1,-1,-1,-1,-1,-1,-1,-1,-1,-1,-1,-1,-1,-1,-1,-1,-1,-1,-1,-1,-1,-1,-1,-1,-1,-1,-1,-1,-1,-1],"split_conditions":[1.5571429E0,1.8E0,7.2E0,1E-1,3.2E0,1.8666666E1,2.707317E0,1.875E-1,1.3478261E0,7.5609756E-1,4.176104E-1,7.588432E-1,2.4047618E0,5.163379E-1,4.9769488E-1,1.2E0,3.0017152E-1,1.1333333E1,1.1153846E0,6.730769E-1,1.4E1,8.8235295E-1,1.56205E0,6.4E0,1.7407408E0,2.236068E0,1.05E2,2.2978723E0,2.6E0,9.3E1,2.7666667E0,-1.42520955E-2,-2.1518936E-2,7.6144196E-2,-6.6063264E-3,-1.6739031E-2,-1.3136134E-2,4.691519E-2,-2.6925365E-2,-9.702757E-3,-1.8607916E-2,1.15086315E-2,-6.0313325E-3,-1.01938555E-2,6.7510895E-2,-1.9415951E-3,9.421986E-3,-1.0474562E-2,5.595194E-3,7.228818E-2,-1.243485E-2,8.201299E-3,4.18888E-2,1.605062E-2,4.4371407E-2,1.5559645E-2,6.59003E-2,3.0463848E-2,1.2573505E-2,5.250966E-2,2.6887923E-1,6.1079133E-2,2.7240274E-2],"split_indices":[2,14,14,2,14,5,8,10,9,2,12,12,10,12,12,13,12,5,8,2,7,9,4,13,8,4,7,10,0,7,8,0,0,0,0,0,0,0,0,0,0,0,0,0,0,0,0,0,0,0,0,0,0,0,0,0,0,0,0,0,0,0,0],"split_type":[0,0,0,0,0,0,0,0,0,0,0,0,0,0,0,0,0,0,0,0,0,0,0,0,0,0,0,0,0,0,0,0,0,0,0,0,0,0,0,0,0,0,0,0,0,0,0,0,0,0,0,0,0,0,0,0,0,0,0,0,0,0,0],"sum_hessian":[1.7991E4,1.0682E4,7.309E3,4.294E3,6.388E3,5.252E3,2.057E3,1.574E3,2.72E3,3.063E3,3.325E3,4.91E2,4.761E3,9.12E2,1.145E3,1.568E3,6E0,2.676E3,4.4E1,1.183E3,1.88E3,4.7E1,3.278E3,4.84E2,7E0,3.788E3,9.73E2,1.08E2,8.04E2,2.9E1,1.116E3,5.4E1,1.514E3,1E0,5E0,1.101E3,1.575E3,1.8E1,2.6E1,9.27E2,2.56E2,8.7E1,1.793E3,1.3E1,3.4E1,2.792E3,4.86E2,3.08E2,1.76E2,6E0,1E0,3.718E3,7E1,8.94E2,7.9E1,5.8E1,5E1,1.55E2,6.49E2,2.7E1,2E0,6.5E1,1.051E3],"tree_param":{"num_deleted":"0","num_feature":"17","num_nodes":"63","size_leaf_vector":"1"}},{"base_weights":[4.1111703E-3,-1.7129381E-1,2.5435433E-1,-2.9059815E-1,-3.6881927E-2,1.5249512E-1,4.3025073E-1,-3.8502654E-1,-2.3430687E-1,-1.480469E-1,4.3346225E-3,-1.0678451E-1,1.6878814E-1,4.4527385E-1,-4.0352768E-1,-3.996206E-1,-3.122128E-1,-2.6043275E-1,-1.482876E-1,6.1905593E-2,-1.6954075E-1,7.172992E-1,-6.72486E-3,-3.1148812E-1,1.2316559E-1,2.2317329E-1,9.874829E-2,4.2439756E-1,1.0182104E0,2.7230507E-1,-6.927619E-1,-2.006512E-2,1.1841363E-2,-5.476411E-3,-1.7104732E-2,-1.3388636E-2,-7.801626E-4,2.5409868E-2,-8.195822E-3,-1.4618385E-2,2.4260787E-2,-7.871463E-3,-2.7851118E-2,4.8522115E-2,-2.5444439E-2,1.3215363E-3,-8.010558E-3,-1.7677924E-2,6.2269937E-2,4.776525E-2,-3.6656128E-3,5.7435054E-2,1.0811086E-2,2.9645339E-3,1.5198718E-2,3.0960094E-3,2.2791747E-2,1.15688406E-1,3.461836E-2,6.286389E-2,-1.679545E-2,-3.9422933E-2,2.6279554E-2],"categories":[],"categories_nodes":[],"categories_segments":[],"categories_sizes":[],"default_left":[0,0,0,0,0,0,0,0,0,0,0,0,0,0,0,0,0,0,0,0,0,0,0,0,0,0,0,0,0,0,0,0,0,0,0,0,0,0,0,0,0,0,0,0,0,0,0,0,0,0,0,0,0,0,0,0,0,0,0,0,0,0,0],"id":24,"left_children":[1,3,5,7,9,11,13,15,17,19,21,23,25,27,29,31,33,35,37,39,41,43,45,47,49,51,53,55,57,59,61,-1,-1,-1,-1,-1,-1,-1,-1,-1,-1,-1,-1,-1,-1,-1,-1,-1,-1,-1,-1,-1,-1,-1,-1,-1,-1,-1,-1,-1,-1,-1,-1],"loss_changes":[7.812753E2,1.6775641E2,1.3129489E2,2.9311615E1,2.256681E1,1.9655243E1,3.386612E1,2.0016174E0,7.732239E0,6.032156E0,2.8390987E1,1.3001893E1,1.660308E1,3.1024048E1,9.613438E0,1.9503784E0,2.043232E0,4.754776E0,8.390331E0,1.8757113E1,5.5146713E0,1.7612055E1,1.801715E1,9.913957E0,2.1412842E1,1.54424515E1,1.5444706E1,2.8989502E1,3.6935097E1,9.500582E0,4.4048386E0,0E0,0E0,0E0,0E0,0E0,0E0,0E0,0E0,0E0,0E0,0E0,0E0,0E0,0E0,0E0,0E0,0E0,0E0,0E0,0E0,0E0,0E0,0E0,0E0,0E0,0E0,0E0,0E0,0E0,0E0,0E0,0E0],"parents":[2147483647,0,0,1,1,2,2,3,3,4,4,5,5,6,6,7,7,8,8,9,9,10,10,11,11,12,12,13,13,14,14,15,15,16,16,17,17,18,18,19,19,20,20,21,21,22,22,23,23,24,24,25,25,26,26,27,27,28,28,29,29,30,30],"right_children":[2,4,6,8,10,12,14,16,18,20,22,24,26,28,30,32,34,36,38,40,42,44,46,48,50,52,54,56,58,60,62,-1,-1,-1,-1,-1,-1,-1,-1,-1,-1,-1,-1,-1,-1,-1,-1,-1,-1,-1,-1,-1,-1,-1,-1,-1,-1,-1,-1,-1,-1,-1,-1],"split_conditions":[1.5454545E0,8.108108E-1,2.3148148E0,4E-1,1.8E1,1.7E1,7.084383E-1,1.764706E-1,6.666667E-1,8.333333E-1,3.2E-1,8E-1,2.6E0,6.8010324E-1,2.4107144E0,2.777778E-1,1.632653E-1,8.695652E-1,2.1212122E-1,1.0198039E0,8.4E0,4.4463086E-1,5.308642E-1,8.2E0,4.6E0,6E-1,1.67332E0,2.3333334E1,6.845053E-1,7.253886E-1,3.8E1,-2.006512E-2,1.1841363E-2,-5.476411E-3,-1.7104732E-2,-1.3388636E-2,-7.801626E-4,2.5409868E-2,-8.195822E-3,-1.4618385E-2,2.4260787E-2,-7.871463E-3,-2.7851118E-2,4.8522115E-2,-2.5444439E-2,1.3215363E-3,-8.010558E-3,-1.7677924E-2,6.2269937E-2,4.776525E-2,-3.6656128E-3,5.7435054E-2,1.0811086E-2,2.9645339E-3,1.5198718E-2,3.0960094E-3,2.2791747E-2,1.15688406E-1,3.461836E-2,6.286389E-2,-1.679545E-2,-3.9422933E-2,2.6279554E-2],"split_indices":[2,2,2,4,5,5,12,10,10,8,11,16,16,12,2,2,2,8,8,4,13,12,11,13,13,0,3,5,12,12,5,0,0,0,0,0,0,0,0,0,0,0,0,0,0,0,0,0,0,0,0,0,0,0,0,0,0,0,0,0,0,0,0],"split_type":[0,0,0,0,0,0,0,0,0,0,0,0,0,0,0,0,0,0,0,0,0,0,0,0,0,0,0,0,0,0,0,0,0,0,0,0,0,0,0,0,0,0,0,0,0,0,0,0,0,0,0,0,0,0,0,0,0,0,0,0,0,0,0],"sum_hessian":[1.7797E4,1.0463E4,7.334E3,5.542E3,4.921E3,4.646E3,2.688E3,2.067E3,3.475E3,1.331E3,3.59E3,2.74E2,4.372E3,2.641E3,4.7E1,1.717E3,3.5E2,2.663E3,8.12E2,1.23E2,1.208E3,5.4E1,3.536E3,1.45E2,1.29E2,2.459E3,1.913E3,2.55E3,9.1E1,1.4E1,3.3E1,1.713E3,4E0,4.6E1,3.04E2,2.585E3,7.8E1,1.8E1,7.94E2,6.7E1,5.6E1,1.173E3,3.5E1,4.5E1,9E0,2.908E3,6.28E2,1.42E2,3E0,2.4E1,1.05E2,1.7E1,2.442E3,1.606E3,3.07E2,2.04E2,2.346E3,1.7E1,7.4E1,5E0,9E0,3.1E1,2E0],"tree_param":{"num_deleted":"0","num_feature":"17","num_nodes":"63","size_leaf_vector":"1"}},{"base_weights":[4.717925E-3,-1.6674264E-1,2.515171E-1,-2.6822677E-1,-2.315412E-2,1.7169097E-1,4.4881356E-1,-3.5457402E-1,-2.0677124E-1,3.7013432E-1,-3.62195E-2,2.0977736E-1,-1.4614891E-2,1.0844554E-2,4.7355655E-1,-2.517374E-1,-3.6895543E-1,-1.1863966E-1,-2.383072E-1,5.989561E-2,8.136375E-1,-3.8477607E-2,1.8415117E0,-8.545907E-2,2.3224404E-1,-3.1809923E-1,5.8563687E-2,-6.97294E-2,1.1244587E-1,-4.3411824E-1,4.8592013E-1,-1.495787E-2,4.021986E-3,-1.850423E-2,1.6318768E-2,-9.639039E-3,8.006754E-3,-1.1985073E-2,8.3318956E-2,5.08683E-2,-4.9562887E-3,1.9482212E-2,9.840878E-2,9.236432E-3,-2.758256E-3,1.1606679E-1,-0E0,5.42982E-2,-7.093308E-3,1.4883324E-2,8.3572855E-3,-2.286185E-2,7.3253918E-3,1.8129488E-2,-8.7518984E-4,2.5738603E-2,-1.5870329E-2,3.350007E-2,-3.600273E-2,2.3800151E-2,7.904188E-2],"categories":[],"categories_nodes":[],"categories_segments":[],"categories_sizes":[],"default_left":[0,0,0,0,0,0,0,0,0,0,0,0,0,0,0,0,0,0,0,0,0,0,0,0,0,0,0,0,0,0,0,0,0,0,0,0,0,0,0,0,0,0,0,0,0,0,0,0,0,0,0,0,0,0,0,0,0,0,0,0,0],"id":25,"left_children":[1,3,5,7,9,11,13,15,17,19,21,23,25,27,29,31,33,35,37,39,41,43,45,47,49,51,53,55,-1,57,59,-1,-1,-1,-1,-1,-1,-1,-1,-1,-1,-1,-1,-1,-1,-1,-1,-1,-1,-1,-1,-1,-1,-1,-1,-1,-1,-1,-1,-1,-1],"loss_changes":[7.493033E2,1.522124E2,1.1418588E2,3.2351746E1,2.2219282E1,3.6707443E1,2.2595032E1,3.6059875E0,9.883209E0,1.8989182E1,1.765665E1,2.8509933E1,1.9543692E1,2.075207E1,2.2413422E1,5.0235195E0,1.8744202E0,1.9586693E1,7.251648E0,1.2830107E1,2.6899761E1,1.5589062E1,4.598572E0,2.0146929E1,1.6896729E1,1.115225E1,1.6414415E1,1.6068096E1,0E0,9.011557E0,2.0237457E1,0E0,0E0,0E0,0E0,0E0,0E0,0E0,0E0,0E0,0E0,0E0,0E0,0E0,0E0,0E0,0E0,0E0,0E0,0E0,0E0,0E0,0E0,0E0,0E0,0E0,0E0,0E0,0E0,0E0,0E0],"parents":[2147483647,0,0,1,1,2,2,3,3,4,4,5,5,6,6,7,7,8,8,9,9,10,10,11,11,12,12,13,13,14,14,15,15,16,16,17,17,18,18,19,19,20,20,21,21,22,22,23,23,24,24,25,25,26,26,27,27,29,29,30,30],"right_children":[2,4,6,8,10,12,14,16,18,20,22,24,26,28,30,32,34,36,38,40,42,44,46,48,50,52,54,56,-1,58,60,-1,-1,-1,-1,-1,-1,-1,-1,-1,-1,-1,-1,-1,-1,-1,-1,-1,-1,-1,-1,-1,-1,-1,-1,-1,-1,-1,-1,-1,-1],"split_conditions":[1.6E0,9E-1,2.7E0,2.5E-1,4.4788274E-1,6.4313984E-1,2.3333334E1,4.8231512E-1,4.8391494E-1,2.3333334E1,2.7636364E0,1.9333334E1,2.7E1,4.274194E0,1.52E0,5.3851646E-1,8E-1,1.9333334E1,2.2777777E0,1.9E1,4.6E1,1.5E1,1.2E0,4.763469E-1,1.18E1,1.7435596E0,1.118034E0,1.9666666E1,1.1244587E-1,2.4E0,3.1622777E0,-1.495787E-2,4.021986E-3,-1.850423E-2,1.6318768E-2,-9.639039E-3,8.006754E-3,-1.1985073E-2,8.3318956E-2,5.08683E-2,-4.9562887E-3,1.9482212E-2,9.840878E-2,9.236432E-3,-2.758256E-3,1.1606679E-1,-0E0,5.42982E-2,-7.093308E-3,1.4883324E-2,8.3572855E-3,-2.286185E-2,7.3253918E-3,1.8129488E-2,-8.7518984E-4,2.5738603E-2,-1.5870329E-2,3.350007E-2,-3.600273E-2,2.3800151E-2,7.904188E-2],"split_indices":[1,1,1,9,12,12,5,12,12,5,9,5,7,9,10,4,1,5,9,7,7,7,3,12,13,3,4,5,0,0,3,0,0,0,0,0,0,0,0,0,0,0,0,0,0,0,0,0,0,0,0,0,0,0,0,0,0,0,0,0,0],"split_type":[0,0,0,0,0,0,0,0,0,0,0,0,0,0,0,0,0,0,0,0,0,0,0,0,0,0,0,0,0,0,0,0,0,0,0,0,0,0,0,0,0,0,0,0,0,0,0,0,0,0,0,0,0,0,0,0,0,0,0,0,0],"sum_hessian":[1.7705E4,1.0447E4,7.258E3,6.12E3,4.327E3,5.169E3,2.089E3,2.542E3,3.578E3,1.38E2,4.189E3,4.292E3,8.77E2,1.12E2,1.977E3,3.15E2,2.227E3,9.45E2,2.633E3,8.2E1,5.6E1,4.185E3,4E0,3.03E2,3.989E3,1.7E2,7.07E2,1.09E2,3E0,2.6E1,1.951E3,2.76E2,3.9E1,2.224E3,3E0,7.47E2,1.98E2,2.632E3,1E0,1.1E1,7.1E1,4.2E1,1.4E1,2.9E2,3.895E3,3E0,1E0,1.3E1,2.9E2,1.987E3,2.002E3,1.31E2,3.9E1,1.41E2,5.66E2,3.2E1,7.7E1,5E0,2.1E1,1.935E3,1.6E1],"tree_param":{"num_deleted":"0","num_feature":"17","num_nodes":"61","size_leaf_vector":"1"}},{"base_weights":[-2.2321304E-3,-1.6022156E-1,2.3035164E-1,-2.7203605E-1,-3.3978567E-2,1.5016314E-1,4.083004E-1,-3.3155248E-1,-1.9622487E-1,3.9960283E-1,-4.3894935E-2,-3.8396546E-3,1.7464204E-1,3.454341E-1,6.3370055E-1,-3.605351E-1,-2.7685165E-1,2.3618404E-2,-2.0988826E-1,1.4094267E-2,9.418628E-1,-2.5178155E-1,-2.4662284E-2,1.5770857E-1,-8.3761826E-2,1.6159824E-1,5.987139E-1,1.6453667E-1,4.095043E-1,1.5678353E0,5.6181055E-1,-1.7735707E-2,-2.4402369E-2,-6.667672E-3,-1.5555878E-2,-9.6605895E-3,1.8175893E-2,-1.4252352E-2,-8.515472E-3,-2.8432095E-2,7.7986727E-3,8.113364E-2,1.5053778E-2,-5.5666063E-3,-1.7751647E-2,-2.2498048E-3,6.445431E-3,2.4379414E-2,-8.059943E-3,-5.3858436E-3,3.1051552E-2,1.6214823E-2,6.7708488E-3,1.0592913E-1,2.3894712E-2,1.9285575E-2,-8.08135E-3,6.2821835E-2,1.9720403E-2,8.968633E-2,-2.748904E-2,5.447457E-3,3.37694E-2],"categories":[],"categories_nodes":[],"categories_segments":[],"categories_sizes":[],"default_left":[0,0,0,0,0,0,0,0,0,0,0,0,0,0,0,0,0,0,0,0,0,0,0,0,0,0,0,0,0,0,0,0,0,0,0,0,0,0,0,0,0,0,0,0,0,0,0,0,0,0,0,0,0,0,0,0,0,0,0,0,0,0,0],"id":26,"left_children":[1,3,5,7,9,11,13,15,17,19,21,23,25,27,29,31,33,35,37,39,41,43,45,47,49,51,53,55,57,59,61,-1,-1,-1,-1,-1,-1,-1,-1,-1,-1,-1,-1,-1,-1,-1,-1,-1,-1,-1,-1,-1,-1,-1,-1,-1,-1,-1,-1,-1,-1,-1,-1],"loss_changes":[6.527084E2,1.4927701E2,1.0240881E2,2.5190033E1,2.135075E1,1.869719E1,3.129663E1,4.814514E0,7.4429855E0,2.309522E1,1.9397453E1,8.78549E0,2.347995E1,2.0123169E1,3.1476364E1,1.2627258E0,5.288452E0,1.0773834E1,6.825058E0,5.5041833E0,1.9386784E1,5.873991E0,1.3893343E1,2.3781479E1,7.7143707E0,1.7587639E1,2.2048893E1,3.319664E1,1.581987E1,1.7374496E1,2.3096512E1,0E0,0E0,0E0,0E0,0E0,0E0,0E0,0E0,0E0,0E0,0E0,0E0,0E0,0E0,0E0,0E0,0E0,0E0,0E0,0E0,0E0,0E0,0E0,0E0,0E0,0E0,0E0,0E0,0E0,0E0,0E0,0E0],